\data\
ngram 1=1117
ngram 2=2228
ngram 3=1114
ngram 4=0
ngram 5=0

\1-grams:
-3.6485562	<unk>	0
0	<s>	-0.30103
-0.30141985	</s>	0
-3.3477206	ALWAYS	-0.30103
-3.3477206	SIX	-0.30103
-3.3477206	BENIGN	-0.30103
-3.3477206	SENT	-0.30103
-3.3477206	ON	-0.30103
-3.3477206	PEERING	-0.30103
-3.3477206	ROBIN	-0.30103
-3.3477206	WOULD	-0.30103
-3.3477206	WORTH	-0.30103
-3.3477206	RECEIPTS	-0.30103
-3.3477206	LITTLE	-0.30103
-3.3477206	WORDS	-0.30103
-3.3477206	WHERE	-0.30103
-3.3477206	DENIAL	-0.30103
-3.3477206	FELL	-0.30103
-3.3477206	HOUSE	-0.30103
-3.3477206	REGISTERED	-0.30103
-3.3477206	RUNS	-0.30103
-3.3477206	ACCOMPANIED	-0.30103
-3.3477206	NEAR	-0.30103
-3.3477206	LENS	-0.30103
-3.3477206	HAVE	-0.30103
-3.3477206	EXCITING	-0.30103
-3.3477206	VALIUM	-0.30103
-3.3477206	SPOT	-0.30103
-3.3477206	MACHINE	-0.30103
-3.3477206	NUTTY	-0.30103
-3.3477206	PLAY	-0.30103
-3.3477206	EVENTUALLY	-0.30103
-3.3477206	IN	-0.30103
-3.3477206	ABOARD	-0.30103
-3.3477206	OFFENDS	-0.30103
-3.3477206	ENLARGED	-0.30103
-3.3477206	ANIMAL	-0.30103
-3.3477206	ENVIRONMENT	-0.30103
-3.3477206	MAJESTY	-0.30103
-3.3477206	HE	-0.30103
-3.3477206	COTTON	-0.30103
-3.3477206	LOOKS	-0.30103
-3.3477206	BEHIND	-0.30103
-3.3477206	FULL	-0.30103
-3.3477206	LAMB	-0.30103
-3.3477206	BROWN	-0.30103
-3.3477206	SENTENCE	-0.30103
-3.3477206	NOSE	-0.30103
-3.3477206	FOR	-0.30103
-3.3477206	ADVANCE	-0.30103
-3.3477206	JEDI	-0.30103
-3.3477206	GO	-0.30103
-3.3477206	ASTONISHMENT	-0.30103
-3.3477206	ACUTELY	-0.30103
-3.3477206	SLIP	-0.30103
-3.3477206	SERVICE	-0.30103
-3.3477206	CAR	-0.30103
-3.3477206	FISH	-0.30103
-3.3477206	WEARING	-0.30103
-3.3477206	STILL	-0.30103
-3.3477206	TROUBLE	-0.30103
-3.3477206	FREQUENTLY	-0.30103
-3.3477206	NOT	-0.30103
-3.3477206	EGO	-0.30103
-3.3477206	HEALTHY	-0.30103
-3.3477206	SUNDAY	-0.30103
-3.3477206	BEES	-0.30103
-3.3477206	ACCIDENT	-0.30103
-3.3477206	SAFE	-0.30103
-3.3477206	STRIKE	-0.30103
-3.3477206	ATE	-0.30103
-3.3477206	KNOW	-0.30103
-3.3477206	TRAIN	-0.30103
-3.3477206	BEWARE	-0.30103
-3.3477206	LENDER	-0.30103
-3.3477206	STARLIGHT	-0.30103
-3.3477206	EXAMPLE	-0.30103
-3.3477206	REFUSE	-0.30103
-3.3477206	GOSPEL	-0.30103
-3.3477206	PLAYING	-0.30103
-3.3477206	BUSINESS	-0.30103
-3.3477206	CHILDREN	-0.30103
-3.3477206	PRIZE	-0.30103
-3.3477206	PREDICTABLE	-0.30103
-3.3477206	SUNSET	-0.30103
-3.3477206	BURGLARS	-0.30103
-3.3477206	UNAVAILABLE	-0.30103
-3.3477206	BELIEVE	-0.30103
-3.3477206	BIRTH	-0.30103
-3.3477206	GET	-0.30103
-3.3477206	RECYCLING	-0.30103
-3.3477206	LEARNING	-0.30103
-3.3477206	DESTRUCTION	-0.30103
-3.3477206	DEED	-0.30103
-3.3477206	ALLOTTED	-0.30103
-3.3477206	SISTER	-0.30103
-3.3477206	MISSION	-0.30103
-3.3477206	MONKEY	-0.30103
-3.3477206	USER	-0.30103
-3.3477206	OK	-0.30103
-3.3477206	FAX	-0.30103
-3.3477206	STEP	-0.30103
-3.3477206	IF	-0.30103
-3.3477206	OFFENDERS	-0.30103
-3.3477206	NIGHT	-0.30103
-3.3477206	QUITE	-0.30103
-3.3477206	KISSING	-0.30103
-3.3477206	TREASURER	-0.30103
-3.3477206	FUN	-0.30103
-3.3477206	DRESS	-0.30103
-3.3477206	CONFERENCES	-0.30103
-3.3477206	TUMOR	-0.30103
-3.3477206	TOOK	-0.30103
-3.3477206	DOOR	-0.30103
-3.3477206	PARKWAYS	-0.30103
-3.3477206	SHOUTING	-0.30103
-3.3477206	STOP	-0.30103
-3.3477206	WINDOW	-0.30103
-3.3477206	UNICYCLE	-0.30103
-3.3477206	DISCREET	-0.30103
-3.3477206	LOSERS	-0.30103
-3.3477206	MAKEUP	-0.30103
-3.3477206	EVERY	-0.30103
-3.3477206	QUACKS	-0.30103
-3.3477206	THOROUGH	-0.30103
-3.3477206	EVERYWHERE	-0.30103
-3.3477206	FULLY	-0.30103
-3.3477206	HEAT	-0.30103
-3.3477206	RAGED	-0.30103
-3.3477206	CHECKS	-0.30103
-3.3477206	LOVELY	-0.30103
-3.3477206	SAM	-0.30103
-3.3477206	ARE	-0.30103
-3.3477206	AWAY	-0.30103
-3.3477206	EFFORTS	-0.30103
-3.3477206	GAME	-0.30103
-3.3477206	DREAM	-0.30103
-3.3477206	SECOND	-0.30103
-3.3477206	GOLDILOCKS	-0.30103
-3.3477206	RED	-0.30103
-3.3477206	EMAIL	-0.30103
-3.3477206	MACHINERY	-0.30103
-3.3477206	WINDY	-0.30103
-3.3477206	I	-0.30103
-3.3477206	FOURTH	-0.30103
-3.3477206	BUCKLE	-0.30103
-3.3477206	WIN	-0.30103
-3.3477206	BREATHING	-0.30103
-3.3477206	PILE	-0.30103
-3.3477206	RULES	-0.30103
-3.3477206	LAUGH	-0.30103
-3.3477206	COMPANIES	-0.30103
-3.3477206	EVENING	-0.30103
-3.3477206	ASSIGNMENT	-0.30103
-3.3477206	PHYSICS	-0.30103
-3.3477206	MIDNIGHT	-0.30103
-3.3477206	OWNED	-0.30103
-3.3477206	CHOCOLATE	-0.30103
-3.3477206	THIGH	-0.30103
-3.3477206	SHACK	-0.30103
-3.3477206	BEST	-0.30103
-3.3477206	VISITED	-0.30103
-3.3477206	TURN	-0.30103
-3.3477206	WE	-0.30103
-3.3477206	EXERCISE	-0.30103
-3.3477206	PREVAILING	-0.30103
-3.3477206	PRESIDENTIAL	-0.30103
-3.3477206	PHOTOGRAPHS	-0.30103
-3.3477206	FOUND	-0.30103
-3.3477206	THREE	-0.30103
-3.3477206	LIKE	-0.30103
-3.3477206	MODERATION	-0.30103
-3.3477206	SHE	-0.30103
-3.3477206	EDUCATION	-0.30103
-3.3477206	DID	-0.30103
-3.3477206	SATURDAY	-0.30103
-3.3477206	UNFORTUNATE	-0.30103
-3.3477206	GARBAGE	-0.30103
-3.3477206	MANY	-0.30103
-3.3477206	JACKET	-0.30103
-3.3477206	DOORS	-0.30103
-3.3477206	EFFORT	-0.30103
-3.3477206	OFFENSIVE	-0.30103
-3.3477206	SCENE	-0.30103
-3.3477206	ANY	-0.30103
-3.3477206	VOICE	-0.30103
-3.3477206	KEEPS	-0.30103
-3.3477206	NO	-0.30103
-3.3477206	BARRACKS	-0.30103
-3.3477206	INTERESTING	-0.30103
-3.3477206	MUCH	-0.30103
-3.3477206	LYDIA	-0.30103
-3.3477206	THOROUGHLY	-0.30103
-3.3477206	TOSS	-0.30103
-3.3477206	AMAZING	-0.30103
-3.3477206	TRANSIT	-0.30103
-3.3477206	TOIL	-0.30103
-3.3477206	TENNIS	-0.30103
-3.3477206	DOES	-0.30103
-3.3477206	PRESIDENTS	-0.30103
-3.3477206	MONTHS	-0.30103
-3.3477206	EVER	-0.30103
-3.3477206	USE	-0.30103
-3.3477206	NOBODY	-0.30103
-3.3477206	TURFED	-0.30103
-3.3477206	FINE	-0.30103
-3.3477206	SHOP	-0.30103
-3.3477206	TOGETHER	-0.30103
-3.3477206	OVERDRAWN	-0.30103
-3.3477206	PERSISTENT	-0.30103
-3.3477206	FORWARD	-0.30103
-3.3477206	PICTURE	-0.30103
-3.3477206	DETECTOR	-0.30103
-3.3477206	HANDS	-0.30103
-3.3477206	BROKE	-0.30103
-3.3477206	RISEN	-0.30103
-3.3477206	MUSIC	-0.30103
-3.3477206	CHEMISTRY	-0.30103
-3.3477206	QUESTIONING	-0.30103
-3.3477206	CONSCIENCE	-0.30103
-3.3477206	DOWN	-0.30103
-3.3477206	COFFEE	-0.30103
-3.3477206	PLUG	-0.30103
-3.3477206	PLEASANT	-0.30103
-3.3477206	YEAR	-0.30103
-3.3477206	EXPLOSION	-0.30103
-3.3477206	APPOINTMENT	-0.30103
-3.3477206	ASSAULT	-0.30103
-3.3477206	DIPPED	-0.30103
-3.3477206	FUDGE	-0.30103
-3.3477206	WEB	-0.30103
-3.3477206	DUCK	-0.30103
-3.3477206	SILLY	-0.30103
-3.3477206	SHIP	-0.30103
-3.3477206	DIPLOMACY	-0.30103
-3.3477206	JOKE	-0.30103
-3.3477206	LATE	-0.30103
-3.3477206	CONTEST	-0.30103
-3.3477206	FOLLOW	-0.30103
-3.3477206	PERSON	-0.30103
-3.3477206	MORE	-0.30103
-3.3477206	BUS	-0.30103
-3.3477206	SEMINARS	-0.30103
-3.3477206	STEEP	-0.30103
-3.3477206	ALGORITHM	-0.30103
-3.3477206	HAMBURGER	-0.30103
-3.3477206	ICE	-0.30103
-3.3477206	WORRY	-0.30103
-3.3477206	CANNOT	-0.30103
-3.3477206	JONES	-0.30103
-3.3477206	COMING	-0.30103
-3.3477206	CARDS	-0.30103
-3.3477206	TIRE	-0.30103
-3.3477206	GENERATION	-0.30103
-3.3477206	HAND	-0.30103
-3.3477206	RIDICULOUS	-0.30103
-3.3477206	SPEAK	-0.30103
-3.3477206	BASES	-0.30103
-3.3477206	COUNTRY	-0.30103
-3.3477206	SYMPATHY	-0.30103
-3.3477206	THAT	-0.30103
-3.3477206	MORTGAGE	-0.30103
-3.3477206	GETS	-0.30103
-3.3477206	SPILL	-0.30103
-3.3477206	BATTLES	-0.30103
-3.3477206	MINIMUM	-0.30103
-3.3477206	PROVIDE	-0.30103
-3.3477206	OLYMPIC	-0.30103
-3.3477206	GOLFERS	-0.30103
-3.3477206	ACCOUNT	-0.30103
-3.3477206	MICROSCOPES	-0.30103
-3.3477206	WEEPING	-0.30103
-3.3477206	SEEMS	-0.30103
-3.3477206	AN	-0.30103
-3.3477206	CITY	-0.30103
-3.3477206	OBEY	-0.30103
-3.3477206	RENT	-0.30103
-3.3477206	WEEK	-0.30103
-3.3477206	PROPRIETOR	-0.30103
-3.3477206	ELECTIONS	-0.30103
-3.3477206	EXPENSIVE	-0.30103
-3.3477206	PUBLISHED	-0.30103
-3.3477206	CARELESS	-0.30103
-3.3477206	AWARE	-0.30103
-3.3477206	THOSE	-0.30103
-3.3477206	DINE	-0.30103
-3.3477206	DELIVERY	-0.30103
-3.3477206	WISDOM	-0.30103
-3.3477206	COOLED	-0.30103
-3.3477206	MIX	-0.30103
-3.3477206	ENTER	-0.30103
-3.3477206	STOCK	-0.30103
-3.3477206	ENJOY	-0.30103
-3.3477206	EXPENSES	-0.30103
-3.3477206	JUST	-0.30103
-3.3477206	DRINK	-0.30103
-3.3477206	FORCE	-0.30103
-3.3477206	BIG	-0.30103
-3.3477206	FANS	-0.30103
-3.3477206	IMAGINATION	-0.30103
-3.3477206	SUBTRACTION	-0.30103
-3.3477206	WALLET	-0.30103
-3.3477206	BE	-0.30103
-3.3477206	OBJECTIVE	-0.30103
-3.3477206	YOUR	-0.30103
-3.3477206	EVERYDAY	-0.30103
-3.3477206	TWO	-0.30103
-3.3477206	PIZZA	-0.30103
-3.3477206	DOCTOR	-0.30103
-3.3477206	TAKE	-0.30103
-3.3477206	PAY	-0.30103
-3.3477206	BORING	-0.30103
-3.3477206	COURTS	-0.30103
-3.3477206	DISTURBANCE	-0.30103
-3.3477206	OIL	-0.30103
-3.3477206	BILL	-0.30103
-3.3477206	SLOW	-0.30103
-3.3477206	INSURANCE	-0.30103
-3.3477206	LAGOON	-0.30103
-3.3477206	RAIN	-0.30103
-3.3477206	EVERYONE	-0.30103
-3.3477206	SOON	-0.30103
-3.3477206	SYLLABUS	-0.30103
-3.3477206	KNEES	-0.30103
-3.3477206	VANILLA	-0.30103
-3.3477206	CHANCELLOR	-0.30103
-3.3477206	DRIVE	-0.30103
-3.3477206	PREFERRED	-0.30103
-3.3477206	ELSE	-0.30103
-3.3477206	LOUDLY	-0.30103
-3.3477206	ROCKS	-0.30103
-3.3477206	EACH	-0.30103
-3.3477206	MOVIE	-0.30103
-3.3477206	LUNCH	-0.30103
-3.3477206	EXAM	-0.30103
-3.3477206	LOVE	-0.30103
-3.3477206	HORN	-0.30103
-3.3477206	TRADITIONAL	-0.30103
-3.3477206	ACCEPTANCE	-0.30103
-3.3477206	PROBLEM	-0.30103
-3.3477206	NASTY	-0.30103
-3.3477206	GLASSES	-0.30103
-3.3477206	THESE	-0.30103
-3.3477206	HEAD	-0.30103
-3.3477206	ARGUING	-0.30103
-3.3477206	WIDER	-0.30103
-3.3477206	GIVE	-0.30103
-3.3477206	NATION	-0.30103
-3.3477206	IS	-0.30103
-3.3477206	YOU	-0.30103
-3.3477206	AIRPORT	-0.30103
-3.3477206	PROFESSOR	-0.30103
-3.3477206	CUT	-0.30103
-3.3477206	PROTESTERS	-0.30103
-3.3477206	EMPIRE	-0.30103
-3.3477206	ASPIRATIONS	-0.30103
-3.3477206	PHENOMENON	-0.30103
-3.3477206	APPLE	-0.30103
-3.3477206	SIDES	-0.30103
-3.3477206	FIND	-0.30103
-3.3477206	INVESTIGATE	-0.30103
-3.3477206	REFERENDUM	-0.30103
-3.3477206	SURGERY	-0.30103
-3.3477206	SEASONS	-0.30103
-3.3477206	ZERO	-0.30103
-3.3477206	RESULTS	-0.30103
-3.3477206	OPERA	-0.30103
-3.3477206	FUEL	-0.30103
-3.3477206	UNDERWENT	-0.30103
-3.3477206	WINTER	-0.30103
-3.3477206	SHRINE	-0.30103
-3.3477206	PEEK	-0.30103
-3.3477206	BROWSER	-0.30103
-3.3477206	THIN	-0.30103
-3.3477206	WANT	-0.30103
-3.3477206	LASER	-0.30103
-3.3477206	DESIRED	-0.30103
-3.3477206	SENDS	-0.30103
-3.3477206	SECURITY	-0.30103
-3.3477206	RIGHT	-0.30103
-3.3477206	NON	-0.30103
-3.3477206	COVER	-0.30103
-3.3477206	INTERACTIONS	-0.30103
-3.3477206	SWORD	-0.30103
-3.3477206	FEEL	-0.30103
-3.3477206	AGREEMENT	-0.30103
-3.3477206	ABANDONED	-0.30103
-3.3477206	IMMEDIATELY	-0.30103
-3.3477206	OBSERVATION	-0.30103
-3.3477206	QUICK	-0.30103
-3.3477206	SHEDS	-0.30103
-3.3477206	BITES	-0.30103
-3.3477206	HAIR	-0.30103
-3.3477206	SANTA	-0.30103
-3.3477206	DISCOURAGING	-0.30103
-3.3477206	GREAT	-0.30103
-3.3477206	UNDERSTOOD	-0.30103
-3.3477206	MIGHTIER	-0.30103
-3.3477206	CHALLENGED	-0.30103
-3.3477206	RISK	-0.30103
-3.3477206	CORRECT	-0.30103
-3.3477206	ODD	-0.30103
-3.3477206	PRIORITIES	-0.30103
-3.3477206	LIGHT	-0.30103
-3.3477206	DREAMS	-0.30103
-3.3477206	RINGS	-0.30103
-3.3477206	APARTMENTS	-0.30103
-3.3477206	UNIVERSALLY	-0.30103
-3.3477206	EXTRA	-0.30103
-3.3477206	WHILE	-0.30103
-3.3477206	EXTINCT	-0.30103
-3.3477206	READING	-0.30103
-3.3477206	SMALL	-0.30103
-3.3477206	ROADS	-0.30103
-3.3477206	MET	-0.30103
-3.3477206	BUSY	-0.30103
-3.3477206	HOURS	-0.30103
-3.3477206	DEPARTMENT	-0.30103
-3.3477206	ENTIRE	-0.30103
-3.3477206	TONIGHT	-0.30103
-3.3477206	ALMOST	-0.30103
-3.3477206	MIGHT	-0.30103
-3.3477206	VOTERS	-0.30103
-3.3477206	ALLIGATOR	-0.30103
-3.3477206	UNTIL	-0.30103
-3.3477206	TALKING	-0.30103
-3.3477206	FROM	-0.30103
-3.3477206	BUT	-0.30103
-3.3477206	BYPASS	-0.30103
-3.3477206	CAPE	-0.30103
-3.3477206	OCEANS	-0.30103
-3.3477206	LEATHER	-0.30103
-3.3477206	WROTE	-0.30103
-3.3477206	FLAVORED	-0.30103
-3.3477206	WENT	-0.30103
-3.3477206	POWDER	-0.30103
-3.3477206	FLYING	-0.30103
-3.3477206	JUDGES	-0.30103
-3.3477206	ANNIVERSARY	-0.30103
-3.3477206	FALLING	-0.30103
-3.3477206	LOOSE	-0.30103
-3.3477206	AROUND	-0.30103
-3.3477206	NOR	-0.30103
-3.3477206	ASK	-0.30103
-3.3477206	SLIPPERY	-0.30103
-3.3477206	GLANCE	-0.30103
-3.3477206	ENOUGH	-0.30103
-3.3477206	SUGGESTS	-0.30103
-3.3477206	TOUCHDOWN	-0.30103
-3.3477206	CURVE	-0.30103
-3.3477206	ENCOURAGEMENT	-0.30103
-3.3477206	EXCITED	-0.30103
-3.3477206	BETTER	-0.30103
-3.3477206	PLAYED	-0.30103
-3.3477206	BALANCE	-0.30103
-3.3477206	CARES	-0.30103
-3.3477206	STABILITY	-0.30103
-3.3477206	LOOK	-0.30103
-3.3477206	SOMEONE	-0.30103
-3.3477206	JEWELS	-0.30103
-3.3477206	RETURN	-0.30103
-3.3477206	INSULATION	-0.30103
-3.3477206	RATIONALE	-0.30103
-3.3477206	HANDLED	-0.30103
-3.3477206	WEEKENDS	-0.30103
-3.3477206	INSPIRING	-0.30103
-3.3477206	POPULARITY	-0.30103
-3.3477206	LIVING	-0.30103
-3.3477206	MEN	-0.30103
-3.3477206	PERIOD	-0.30103
-3.3477206	WALK	-0.30103
-3.3477206	NEITHER	-0.30103
-3.3477206	PUBLIC	-0.30103
-3.3477206	WANTS	-0.30103
-3.3477206	SOME	-0.30103
-3.3477206	RUNNING	-0.30103
-3.3477206	BLAZING	-0.30103
-3.3477206	PRIORITY	-0.30103
-3.3477206	FOREST	-0.30103
-3.3477206	EXPRESS	-0.30103
-3.3477206	GOVERNMENT	-0.30103
-3.3477206	ORDERED	-0.30103
-3.3477206	HERE	-0.30103
-3.3477206	PATIO	-0.30103
-3.3477206	VOTE	-0.30103
-3.3477206	OBJECTS	-0.30103
-3.3477206	WONDERFUL	-0.30103
-3.3477206	CARE	-0.30103
-3.3477206	WAVES	-0.30103
-3.3477206	CHAMBER	-0.30103
-3.3477206	PHRASES	-0.30103
-3.3477206	PUT	-0.30103
-3.3477206	CHILD	-0.30103
-3.3477206	FRIENDLY	-0.30103
-3.3477206	LOTTERY	-0.30103
-3.3477206	SHOPPING	-0.30103
-3.3477206	IDIOT	-0.30103
-3.3477206	BAD	-0.30103
-3.3477206	LONG	-0.30103
-3.3477206	DATE	-0.30103
-3.3477206	CAKE	-0.30103
-3.3477206	MARY	-0.30103
-3.3477206	PENALTY	-0.30103
-3.3477206	RUN	-0.30103
-3.3477206	EVERYBODY	-0.30103
-3.3477206	MAXIMUM	-0.30103
-3.3477206	FOG	-0.30103
-3.3477206	TREAT	-0.30103
-3.3477206	PAINTINGS	-0.30103
-3.3477206	HELPS	-0.30103
-3.3477206	SALESMEN	-0.30103
-3.3477206	DISCOVERING	-0.30103
-3.3477206	HAS	-0.30103
-3.3477206	LOOSES	-0.30103
-3.3477206	PROFIT	-0.30103
-3.3477206	OF	-0.30103
-3.3477206	PEOPLE	-0.30103
-3.3477206	EARLY	-0.30103
-3.3477206	BEAUTIFUL	-0.30103
-3.3477206	MISSED	-0.30103
-3.3477206	STREETS	-0.30103
-3.3477206	RID	-0.30103
-3.3477206	HIGHER	-0.30103
-3.3477206	BONE	-0.30103
-3.3477206	WISHFUL	-0.30103
-3.3477206	EXPERIENCE	-0.30103
-3.3477206	THAN	-0.30103
-3.3477206	DO	-0.30103
-3.3477206	BEGINNING	-0.30103
-3.3477206	PARTS	-0.30103
-3.3477206	LEAVING	-0.30103
-3.3477206	CLOSED	-0.30103
-3.3477206	HOW	-0.30103
-3.3477206	LOST	-0.30103
-3.3477206	INDEX	-0.30103
-3.3477206	DINOSAURS	-0.30103
-3.3477206	CELLS	-0.30103
-3.3477206	ACCEPT	-0.30103
-3.3477206	STAY	-0.30103
-3.3477206	CLAUS	-0.30103
-3.3477206	SIT	-0.30103
-3.3477206	TAKING	-0.30103
-3.3477206	DRUGS	-0.30103
-3.3477206	GOT	-0.30103
-3.3477206	NOON	-0.30103
-3.3477206	FINER	-0.30103
-3.3477206	EAT	-0.30103
-3.3477206	FUTILE	-0.30103
-3.3477206	RISES	-0.30103
-3.3477206	DAUGHTERS	-0.30103
-3.3477206	NEED	-0.30103
-3.3477206	SPACE	-0.30103
-3.3477206	ACCORDING	-0.30103
-3.3477206	DRIVERS	-0.30103
-3.3477206	WORM	-0.30103
-3.3477206	BULLET	-0.30103
-3.3477206	DAY	-0.30103
-3.3477206	ELEVATOR	-0.30103
-3.3477206	TEMPERAMENT	-0.30103
-3.3477206	HATE	-0.30103
-3.3477206	AM	-0.30103
-3.3477206	CUSTODY	-0.30103
-3.3477206	TEACHING	-0.30103
-3.3477206	TRAFFIC	-0.30103
-3.3477206	SPOONFUL	-0.30103
-3.3477206	THEIR	-0.30103
-3.3477206	FEBRUARY	-0.30103
-3.3477206	JOB	-0.30103
-3.3477206	AFTER	-0.30103
-3.3477206	SKATE	-0.30103
-3.3477206	CAT	-0.30103
-3.3477206	NEVER	-0.30103
-3.3477206	TRUCKS	-0.30103
-3.3477206	NICE	-0.30103
-3.3477206	DOLPHINS	-0.30103
-3.3477206	WELL	-0.30103
-3.3477206	SEES	-0.30103
-3.3477206	NUMBER	-0.30103
-3.3477206	LEAP	-0.30103
-3.3477206	KILLER	-0.30103
-3.3477206	MEET	-0.30103
-3.3477206	GAS	-0.30103
-3.3477206	DOG	-0.30103
-3.3477206	YOUNG	-0.30103
-3.3477206	BAKING	-0.30103
-3.3477206	PRESCRIPTION	-0.30103
-3.3477206	WITNESSES	-0.30103
-3.3477206	GOING	-0.30103
-3.3477206	BARE	-0.30103
-3.3477206	BAROQUE	-0.30103
-3.3477206	WEEKEND	-0.30103
-3.3477206	LAND	-0.30103
-3.3477206	PIG	-0.30103
-3.3477206	PUMPING	-0.30103
-3.3477206	LATER	-0.30103
-3.3477206	FIT	-0.30103
-3.3477206	BREAKS	-0.30103
-3.3477206	REDRESS	-0.30103
-3.3477206	LIFE	-0.30103
-3.3477206	ELEPHANTS	-0.30103
-3.3477206	CONSTRUCTION	-0.30103
-3.3477206	HISTORIC	-0.30103
-3.3477206	BEER	-0.30103
-3.3477206	FAILURE	-0.30103
-3.3477206	OVER	-0.30103
-3.3477206	COMPLETELY	-0.30103
-3.3477206	CHEMICAL	-0.30103
-3.3477206	COALITION	-0.30103
-3.3477206	FOX	-0.30103
-3.3477206	RIFE	-0.30103
-3.3477206	SOLD	-0.30103
-3.3477206	JAMMED	-0.30103
-3.3477206	SIGN	-0.30103
-3.3477206	RECRUITMENT	-0.30103
-3.3477206	LAUNDRY	-0.30103
-3.3477206	END	-0.30103
-3.3477206	USUALLY	-0.30103
-3.3477206	COTTAGE	-0.30103
-3.3477206	ZOOM	-0.30103
-3.3477206	EIGHT	-0.30103
-3.3477206	EARTH	-0.30103
-3.3477206	AND	-0.30103
-3.3477206	IDEA	-0.30103
-3.3477206	BORROWER	-0.30103
-3.3477206	BEARS	-0.30103
-3.3477206	INDICATION	-0.30103
-3.3477206	VIDEO	-0.30103
-3.3477206	STUPID	-0.30103
-3.3477206	SUNNY	-0.30103
-3.3477206	SPECTACULAR	-0.30103
-3.3477206	RACKETBALL	-0.30103
-3.3477206	ELECTRIC	-0.30103
-3.3477206	WHOLE	-0.30103
-3.3477206	PROVINCES	-0.30103
-3.3477206	UNIVERSITIES	-0.30103
-3.3477206	DISGUSTING	-0.30103
-3.3477206	BURIED	-0.30103
-3.3477206	BLOODSHED	-0.30103
-3.3477206	CAN	-0.30103
-3.3477206	EAST	-0.30103
-3.3477206	ANNOUNCE	-0.30103
-3.3477206	CONTRAST	-0.30103
-3.3477206	LONGER	-0.30103
-3.3477206	SURE	-0.30103
-3.3477206	PARK	-0.30103
-3.3477206	QUAKES	-0.30103
-3.3477206	DIRECTION	-0.30103
-3.3477206	MYSTERY	-0.30103
-3.3477206	WHEN	-0.30103
-3.3477206	IDES	-0.30103
-3.3477206	SPAGHETTI	-0.30103
-3.3477206	BETWEEN	-0.30103
-3.3477206	GEL	-0.30103
-3.3477206	TESTS	-0.30103
-3.3477206	EXCHANGE	-0.30103
-3.3477206	TAXATION	-0.30103
-3.3477206	PROVIDED	-0.30103
-3.3477206	SHORT	-0.30103
-3.3477206	FRONT	-0.30103
-3.3477206	PSYCHOLOGY	-0.30103
-3.3477206	TRAVELING	-0.30103
-3.3477206	MEANS	-0.30103
-3.3477206	MADE	-0.30103
-3.3477206	ADDITION	-0.30103
-3.3477206	FIELD	-0.30103
-3.3477206	TICKETS	-0.30103
-3.3477206	WATCHED	-0.30103
-3.3477206	REACH	-0.30103
-3.3477206	HELP	-0.30103
-3.3477206	THINGS	-0.30103
-3.3477206	ANYTHING	-0.30103
-3.3477206	SHOULD	-0.30103
-3.3477206	DORMITORY	-0.30103
-3.3477206	POSTAL	-0.30103
-3.3477206	STUCK	-0.30103
-3.3477206	AGAIN	-0.30103
-3.3477206	PIMP	-0.30103
-3.3477206	HANDLE	-0.30103
-3.3477206	SAYS	-0.30103
-3.3477206	CRIME	-0.30103
-3.3477206	NOTE	-0.30103
-3.3477206	SUPERMAN	-0.30103
-3.3477206	CENTURY	-0.30103
-3.3477206	NOTHING	-0.30103
-3.3477206	TREE	-0.30103
-3.3477206	ASKED	-0.30103
-3.3477206	TEAM	-0.30103
-3.3477206	WINNERS	-0.30103
-3.3477206	QUOTA	-0.30103
-3.3477206	MY	-0.30103
-3.3477206	PARKING	-0.30103
-3.3477206	BEFORE	-0.30103
-3.3477206	YET	-0.30103
-3.3477206	BATH	-0.30103
-3.3477206	WITHDRAWAL	-0.30103
-3.3477206	DRIVING	-0.30103
-3.3477206	INEFFICIENT	-0.30103
-3.3477206	HER	-0.30103
-3.3477206	STAYING	-0.30103
-3.3477206	SUM	-0.30103
-3.3477206	EQUATION	-0.30103
-3.3477206	CIRCUMSTANCES	-0.30103
-3.3477206	BOOKS	-0.30103
-3.3477206	TAKES	-0.30103
-3.3477206	JOBS	-0.30103
-3.3477206	OPPOSING	-0.30103
-3.3477206	HIM	-0.30103
-3.3477206	OFFER	-0.30103
-3.3477206	CHLORINE	-0.30103
-3.3477206	WORE	-0.30103
-3.3477206	BIGGEST	-0.30103
-3.3477206	GOVERNMENTS	-0.30103
-3.3477206	FIGURE	-0.30103
-3.3477206	MERGER	-0.30103
-3.3477206	LEVEE	-0.30103
-3.3477206	GIVES	-0.30103
-3.3477206	PICKET	-0.30103
-3.3477206	SWEATSHIRT	-0.30103
-3.3477206	COUPON	-0.30103
-3.3477206	HOLD	-0.30103
-3.3477206	DECISION	-0.30103
-3.3477206	ABOUT	-0.30103
-3.3477206	TABLETOP	-0.30103
-3.3477206	NERVOUS	-0.30103
-3.3477206	TREASURY	-0.30103
-3.3477206	APPEARS	-0.30103
-3.3477206	GAMBLERS	-0.30103
-3.3477206	MOTIVATIONAL	-0.30103
-3.3477206	SYSTEM	-0.30103
-3.3477206	HOUSEKEEPER	-0.30103
-3.3477206	JUMPING	-0.30103
-3.3477206	SEEN	-0.30103
-3.3477206	CALLED	-0.30103
-3.3477206	GRANITE	-0.30103
-3.3477206	POWER	-0.30103
-3.3477206	INFORMATION	-0.30103
-3.3477206	WHY	-0.30103
-3.3477206	UNIONS	-0.30103
-3.3477206	RESPONSE	-0.30103
-3.3477206	MONITORED	-0.30103
-3.3477206	PERSONAL	-0.30103
-3.3477206	SUBURBS	-0.30103
-3.3477206	NATIONS	-0.30103
-3.3477206	MURDER	-0.30103
-3.3477206	CREAM	-0.30103
-3.3477206	MINUTE	-0.30103
-3.3477206	ECONOMY	-0.30103
-3.3477206	YARD	-0.30103
-3.3477206	ENGINE	-0.30103
-3.3477206	FLAT	-0.30103
-3.3477206	FREUD	-0.30103
-3.3477206	CROWN	-0.30103
-3.3477206	HEAR	-0.30103
-3.3477206	RIDING	-0.30103
-3.3477206	RAISE	-0.30103
-3.3477206	WEAR	-0.30103
-3.3477206	GUIDELINES	-0.30103
-3.3477206	ALL	-0.30103
-3.3477206	MAN	-0.30103
-3.3477206	TRIPLE	-0.30103
-3.3477206	ORGANIZATION	-0.30103
-3.3477206	PRESENCE	-0.30103
-3.3477206	GUN	-0.30103
-3.3477206	DAILY	-0.30103
-3.3477206	DESERVES	-0.30103
-3.3477206	MONTH	-0.30103
-3.3477206	HIGH	-0.30103
-3.3477206	SUCH	-0.30103
-3.3477206	TRIED	-0.30103
-3.3477206	EXASPERATION	-0.30103
-3.3477206	COLLAPSE	-0.30103
-3.3477206	TIME	-0.30103
-3.3477206	DARING	-0.30103
-3.3477206	LAST	-0.30103
-3.3477206	REQUIRES	-0.30103
-3.3477206	HAD	-0.30103
-3.3477206	COME	-0.30103
-3.3477206	CHANGED	-0.30103
-3.3477206	COURSE	-0.30103
-3.3477206	BROKEN	-0.30103
-3.3477206	DISASTER	-0.30103
-3.3477206	SWAMP	-0.30103
-3.3477206	DEWDROP	-0.30103
-3.3477206	BLAST	-0.30103
-3.3477206	PRAYER	-0.30103
-3.3477206	PERSONS	-0.30103
-3.3477206	THROUGH	-0.30103
-3.3477206	HIGHWAY	-0.30103
-3.3477206	EXPECTANCY	-0.30103
-3.3477206	THIS	-0.30103
-3.3477206	SUPER	-0.30103
-3.3477206	A	-0.30103
-3.3477206	BEEN	-0.30103
-3.3477206	VALIDATED	-0.30103
-3.3477206	MEETING	-0.30103
-3.3477206	DICTION	-0.30103
-3.3477206	LABOUR	-0.30103
-3.3477206	SERVICES	-0.30103
-3.3477206	HOLE	-0.30103
-3.3477206	YAP	-0.30103
-3.3477206	ADULT	-0.30103
-3.3477206	ME	-0.30103
-3.3477206	SHIRTS	-0.30103
-3.3477206	SEVEN	-0.30103
-3.3477206	WARM	-0.30103
-3.3477206	PRECAUTIONS	-0.30103
-3.3477206	IRREGULAR	-0.30103
-3.3477206	OBLIGATIONS	-0.30103
-3.3477206	RECTANGULAR	-0.30103
-3.3477206	RACE	-0.30103
-3.3477206	STIMULUS	-0.30103
-3.3477206	GAP	-0.30103
-3.3477206	GOES	-0.30103
-3.3477206	BREAK	-0.30103
-3.3477206	SPEED	-0.30103
-3.3477206	SUCCEED	-0.30103
-3.3477206	ANYMORE	-0.30103
-3.3477206	TOWER	-0.30103
-3.3477206	TOO	-0.30103
-3.3477206	TRAINS	-0.30103
-3.3477206	DROVE	-0.30103
-3.3477206	MOST	-0.30103
-3.3477206	PLEASE	-0.30103
-3.3477206	WINNER	-0.30103
-3.3477206	UP	-0.30103
-3.3477206	US	-0.30103
-3.3477206	COMPLAINTS	-0.30103
-3.3477206	FEELING	-0.30103
-3.3477206	PEN	-0.30103
-3.3477206	DOW	-0.30103
-3.3477206	DREAMERS	-0.30103
-3.3477206	BIKE	-0.30103
-3.3477206	COMMUNICATE	-0.30103
-3.3477206	NEEDS	-0.30103
-3.3477206	AGES	-0.30103
-3.3477206	TOMORROW	-0.30103
-3.3477206	THERE	-0.30103
-3.3477206	SUCKER	-0.30103
-3.3477206	MEDIEVAL	-0.30103
-3.3477206	FOUR	-0.30103
-3.3477206	RELATIONS	-0.30103
-3.3477206	HOUR	-0.30103
-3.3477206	PROTECT	-0.30103
-3.3477206	OCCASIONAL	-0.30103
-3.3477206	ROMAN	-0.30103
-3.3477206	SONS	-0.30103
-3.3477206	BIRD	-0.30103
-3.3477206	SPRAWLING	-0.30103
-3.3477206	BALL	-0.30103
-3.3477206	TO	-0.30103
-3.3477206	LAVATORY	-0.30103
-3.3477206	GALLERY	-0.30103
-3.3477206	WEARS	-0.30103
-3.3477206	DRY	-0.30103
-3.3477206	FEW	-0.30103
-3.3477206	PUNISHMENT	-0.30103
-3.3477206	RAPIDLY	-0.30103
-3.3477206	LEAVE	-0.30103
-3.3477206	TAPE	-0.30103
-3.3477206	THANK	-0.30103
-3.3477206	NEEDED	-0.30103
-3.3477206	LARGEST	-0.30103
-3.3477206	NOW	-0.30103
-3.3477206	RESULT	-0.30103
-3.3477206	DOUBLE	-0.30103
-3.3477206	FRIEND	-0.30103
-3.3477206	ELECTRICAL	-0.30103
-3.3477206	TRAVEL	-0.30103
-3.3477206	BLOCKED	-0.30103
-3.3477206	LUCKILY	-0.30103
-3.3477206	THE	-0.30103
-3.3477206	TIE	-0.30103
-3.3477206	WAY	-0.30103
-3.3477206	ROVER	-0.30103
-3.3477206	ONLY	-0.30103
-3.3477206	SEE	-0.30103
-3.3477206	PANEL	-0.30103
-3.3477206	MAKES	-0.30103
-3.3477206	KEEP	-0.30103
-3.3477206	WILLOWS	-0.30103
-3.3477206	SOUND	-0.30103
-3.3477206	COURT	-0.30103
-3.3477206	INCREASED	-0.30103
-3.3477206	CLOSE	-0.30103
-3.3477206	SPEECH	-0.30103
-3.3477206	SATURN	-0.30103
-3.3477206	HOME	-0.30103
-3.3477206	CAMPING	-0.30103
-3.3477206	WAS	-0.30103
-3.3477206	AVOIDED	-0.30103
-3.3477206	ALLERGIC	-0.30103
-3.3477206	VALID	-0.30103
-3.3477206	FACTS	-0.30103
-3.3477206	SCRATCH	-0.30103
-3.3477206	KIDS	-0.30103
-3.3477206	VICTIMS	-0.30103
-3.3477206	CARS	-0.30103
-3.3477206	PAID	-0.30103
-3.3477206	PRESENTATION	-0.30103
-3.3477206	CARPET	-0.30103
-3.3477206	JUMPED	-0.30103
-3.3477206	POISONOUS	-0.30103
-3.3477206	CONCENTRATE	-0.30103
-3.3477206	FOREVER	-0.30103
-3.3477206	TRY	-0.30103
-3.3477206	WATER	-0.30103
-3.3477206	CONNECTED	-0.30103
-3.3477206	TURTLENECK	-0.30103
-3.3477206	BLAZED	-0.30103
-3.3477206	FOOTBALL	-0.30103
-3.3477206	VERBS	-0.30103
-3.3477206	SOCKET	-0.30103
-3.3477206	WORK	-0.30103
-3.3477206	REQUIRE	-0.30103
-3.3477206	LOCKED	-0.30103
-3.3477206	COMPLETE	-0.30103
-3.3477206	FINGERS	-0.30103
-3.3477206	STRAINED	-0.30103
-3.3477206	COLD	-0.30103
-3.3477206	BY	-0.30103
-3.3477206	WOMEN	-0.30103
-3.3477206	CORRECTION	-0.30103
-3.3477206	GROW	-0.30103
-3.3477206	MOM	-0.30103
-3.3477206	EMPLOYEE	-0.30103
-3.3477206	THEY	-0.30103
-3.3477206	CORONATION	-0.30103
-3.3477206	CALL	-0.30103
-3.3477206	BATMAN	-0.30103
-3.3477206	HONEST	-0.30103
-3.3477206	MASK	-0.30103
-3.3477206	KING	-0.30103
-3.3477206	PEANUTS	-0.30103
-3.3477206	MAKE	-0.30103
-3.3477206	REJECTION	-0.30103
-3.3477206	BATHROOM	-0.30103
-3.3477206	BITE	-0.30103
-3.3477206	EXCELLENT	-0.30103
-3.3477206	MARCH	-0.30103
-3.3477206	CAPITAL	-0.30103
-3.3477206	WERE	-0.30103
-3.3477206	SPEEDING	-0.30103
-3.3477206	QUESTION	-0.30103
-3.3477206	MIND	-0.30103
-3.3477206	WILL	-0.30103
-3.3477206	WORKING	-0.30103
-3.3477206	RATTLE	-0.30103
-3.3477206	PREPARE	-0.30103
-3.3477206	WRITING	-0.30103
-3.3477206	SILVER	-0.30103
-3.3477206	VERY	-0.30103
-3.3477206	STYLE	-0.30103
-3.3477206	PLACE	-0.30103
-3.3477206	CROWDED	-0.30103
-3.3477206	DIFFICULT	-0.30103
-3.3477206	SQUANDER	-0.30103
-3.3477206	SWIM	-0.30103
-3.3477206	AHEAD	-0.30103
-3.3477206	TODAY	-0.30103
-3.3477206	JOIN	-0.30103
-3.3477206	SO	-0.30103
-3.3477206	TEN	-0.30103
-3.3477206	RAINDROPS	-0.30103
-3.3477206	PRINTER	-0.30103
-3.3477206	HANDICAPPED	-0.30103
-3.3477206	LIMITED	-0.30103
-3.3477206	AFRAID	-0.30103
-3.3477206	WARRANTY	-0.30103
-3.3477206	PIES	-0.30103
-3.3477206	REGISTRATION	-0.30103
-3.3477206	ORDER	-0.30103
-3.3477206	HEROIC	-0.30103
-3.3477206	DEPOT	-0.30103
-3.3477206	WORLD	-0.30103
-3.3477206	FLASHING	-0.30103
-3.3477206	DECISIONS	-0.30103
-3.3477206	LOW	-0.30103
-3.3477206	AS	-0.30103
-3.3477206	GREASY	-0.30103
-3.3477206	QUESTIONS	-0.30103
-3.3477206	WHAT	-0.30103
-3.3477206	TASTE	-0.30103
-3.3477206	EDITION	-0.30103
-3.3477206	INTERFACE	-0.30103
-3.3477206	ROUND	-0.30103
-3.3477206	SUBDIVISIONS	-0.30103
-3.3477206	QUIT	-0.30103
-3.3477206	CONSIDERATION	-0.30103
-3.3477206	BILLS	-0.30103
-3.3477206	IT	-0.30103
-3.3477206	EASY	-0.30103
-3.3477206	QUICKLY	-0.30103
-3.3477206	AT	-0.30103
-3.3477206	IMPORTANT	-0.30103
-3.3477206	MICE	-0.30103
-3.3477206	SHOULDERS	-0.30103
-3.3477206	METER	-0.30103
-3.3477206	MUST	-0.30103
-3.3477206	SOUNDS	-0.30103
-3.3477206	THOUSAND	-0.30103
-3.3477206	SKIMMED	-0.30103
-3.3477206	ETIQUETTE	-0.30103
-3.3477206	SUITE	-0.30103
-3.3477206	SUBJECTS	-0.30103
-3.3477206	UNACCEPTABLE	-0.30103
-3.3477206	SHARP	-0.30103
-3.3477206	WIND	-0.30103
-3.3477206	ONE	-0.30103
-3.3477206	PROBLEMS	-0.30103
-3.3477206	SIZE	-0.30103
-3.3477206	CUPS	-0.30103
-3.3477206	JUSTICE	-0.30103
-3.3477206	TREASURE	-0.30103
-3.3477206	COMMENT	-0.30103
-3.3477206	LIBRARY	-0.30103
-3.3477206	FIRST	-0.30103
-3.3477206	HECK	-0.30103
-3.3477206	WITH	-0.30103
-3.3477206	BOSS	-0.30103
-3.3477206	UNION	-0.30103
-3.3477206	FILE	-0.30103
-3.3477206	DISCHARGED	-0.30103
-3.3477206	POLITICAL	-0.30103
-3.3477206	LIAR	-0.30103
-3.3477206	GROWING	-0.30103
-3.3477206	SAD	-0.30103
-3.3477206	PROPOSAL	-0.30103
-3.3477206	POOREST	-0.30103
-3.3477206	YES	-0.30103
-3.3477206	MAIL	-0.30103
-3.3477206	FOLDS	-0.30103
-3.3477206	RELUCTANT	-0.30103
-3.3477206	REALLY	-0.30103
-3.3477206	STIFF	-0.30103
-3.3477206	CARD	-0.30103
-3.3477206	NEWS	-0.30103
-3.3477206	SUBJECT	-0.30103
-3.3477206	SHALL	-0.30103
-3.3477206	PRISON	-0.30103
-3.3477206	LIE	-0.30103
-3.3477206	EXCEED	-0.30103
-3.3477206	RELIGION	-0.30103
-3.3477206	LIMIT	-0.30103
-3.3477206	CANCER	-0.30103
-3.3477206	QUARTER	-0.30103
-3.3477206	LESSON	-0.30103
-3.3477206	SHIVERING	-0.30103
-3.3477206	RESTAURANT	-0.30103
-3.3477206	HOPES	-0.30103
-3.3477206	FIVE	-0.30103
-3.3477206	PLAYERS	-0.30103
-3.3477206	AMOUNT	-0.30103
-3.3477206	CHEESE	-0.30103
-3.3477206	BACK	-0.30103
-3.3477206	THINK	-0.30103
-3.3477206	FALL	-0.30103
-3.3477206	CANADA	-0.30103
-3.3477206	SCHEDULING	-0.30103
-3.3477206	SCHOOLS	-0.30103
-3.3477206	KNOCKING	-0.30103
-3.3477206	POPULATION	-0.30103
-3.3477206	TOES	-0.30103
-3.3477206	BANK	-0.30103
-3.3477206	BRING	-0.30103
-3.3477206	SICK	-0.30103
-3.3477206	TOP	-0.30103
-3.3477206	FACE	-0.30103
-3.3477206	FAVOURITE	-0.30103
-3.3477206	GROCERY	-0.30103
-3.3477206	SAVING	-0.30103
-3.3477206	REDOUBLE	-0.30103
-3.3477206	PREFER	-0.30103
-3.3477206	MINE	-0.30103
-3.3477206	NEW	-0.30103
-3.3477206	LISTEN	-0.30103
-3.3477206	GOOD	-0.30103
-3.3477206	COOKIES	-0.30103
-3.3477206	BOYS	-0.30103
-3.3477206	FAST	-0.30103
-3.3477206	HARDEST	-0.30103
-3.3477206	CAPITALIST	-0.30103
-3.3477206	TIMES	-0.30103
-3.3477206	DRIVEWAYS	-0.30103
-3.3477206	SNAKE	-0.30103
-3.3477206	LEARN	-0.30103
-3.3477206	FOOD	-0.30103
-3.3477206	BALONEY	-0.30103
-3.3477206	NEARBY	-0.30103
-3.3477206	PARTIES	-0.30103
-3.3477206	CONSEQUENCES	-0.30103
-3.3477206	CLASSICAL	-0.30103
-3.3477206	COMPLICATED	-0.30103
-3.3477206	DESERVE	-0.30103
-3.3477206	SNOW	-0.30103
-3.3477206	POLITICS	-0.30103
-3.3477206	LINE	-0.30103
-3.3477206	SADDLES	-0.30103
-3.3477206	LEFT	-0.30103
-3.3477206	MOTHER	-0.30103
-3.3477206	SUMMIT	-0.30103
-3.3477206	TRANSACTION	-0.30103
-3.3477206	SAFETY	-0.30103
-3.3477206	MATERNITY	-0.30103
-3.3477206	SPILLED	-0.30103
-3.3477206	STRANGERS	-0.30103
-3.3477206	AGREE	-0.30103
-3.3477206	SAY	-0.30103
-3.3477206	BLOW	-0.30103
-3.3477206	OR	-0.30103
-3.3477206	OFF	-0.30103
-3.3477206	THING	-0.30103
-3.3477206	SMART	-0.30103
-3.3477206	SEASON	-0.30103
-3.3477206	WATCH	-0.30103
-3.3477206	FAVORITE	-0.30103
-3.3477206	ATHLETES	-0.30103
-3.3477206	MONTHLY	-0.30103

\2-grams:
-0.12506866	ALWAYS </s>	0
-0.12506866	SIX </s>	0
-0.12506866	BENIGN </s>	0
-0.12506866	SENT </s>	0
-0.12506866	ON </s>	0
-0.12506866	PEERING </s>	0
-0.12506866	ROBIN </s>	0
-0.12506866	WOULD </s>	0
-0.12506866	WORTH </s>	0
-0.12506866	RECEIPTS </s>	0
-0.12506866	LITTLE </s>	0
-0.12506866	WORDS </s>	0
-0.12506866	WHERE </s>	0
-0.12506866	DENIAL </s>	0
-0.12506866	FELL </s>	0
-0.12506866	HOUSE </s>	0
-0.12506866	REGISTERED </s>	0
-0.12506866	RUNS </s>	0
-0.12506866	ACCOMPANIED </s>	0
-0.12506866	NEAR </s>	0
-0.12506866	LENS </s>	0
-0.12506866	HAVE </s>	0
-0.12506866	EXCITING </s>	0
-0.12506866	VALIUM </s>	0
-0.12506866	SPOT </s>	0
-0.12506866	MACHINE </s>	0
-0.12506866	NUTTY </s>	0
-0.12506866	PLAY </s>	0
-0.12506866	EVENTUALLY </s>	0
-0.12506866	IN </s>	0
-0.12506866	ABOARD </s>	0
-0.12506866	OFFENDS </s>	0
-0.12506866	ENLARGED </s>	0
-0.12506866	ANIMAL </s>	0
-0.12506866	ENVIRONMENT </s>	0
-0.12506866	MAJESTY </s>	0
-0.12506866	HE </s>	0
-0.12506866	COTTON </s>	0
-0.12506866	LOOKS </s>	0
-0.12506866	BEHIND </s>	0
-0.12506866	FULL </s>	0
-0.12506866	LAMB </s>	0
-0.12506866	BROWN </s>	0
-0.12506866	SENTENCE </s>	0
-0.12506866	NOSE </s>	0
-0.12506866	FOR </s>	0
-0.12506866	ADVANCE </s>	0
-0.12506866	JEDI </s>	0
-0.12506866	GO </s>	0
-0.12506866	ASTONISHMENT </s>	0
-0.12506866	ACUTELY </s>	0
-0.12506866	SLIP </s>	0
-0.12506866	SERVICE </s>	0
-0.12506866	CAR </s>	0
-0.12506866	FISH </s>	0
-0.12506866	WEARING </s>	0
-0.12506866	STILL </s>	0
-0.12506866	TROUBLE </s>	0
-0.12506866	FREQUENTLY </s>	0
-0.12506866	NOT </s>	0
-0.12506866	EGO </s>	0
-0.12506866	HEALTHY </s>	0
-0.12506866	SUNDAY </s>	0
-0.12506866	BEES </s>	0
-0.12506866	ACCIDENT </s>	0
-0.12506866	SAFE </s>	0
-0.12506866	STRIKE </s>	0
-0.12506866	ATE </s>	0
-0.12506866	KNOW </s>	0
-0.12506866	TRAIN </s>	0
-0.12506866	BEWARE </s>	0
-0.12506866	LENDER </s>	0
-0.12506866	STARLIGHT </s>	0
-0.12506866	EXAMPLE </s>	0
-0.12506866	REFUSE </s>	0
-0.12506866	GOSPEL </s>	0
-0.12506866	PLAYING </s>	0
-0.12506866	BUSINESS </s>	0
-0.12506866	CHILDREN </s>	0
-0.12506866	PRIZE </s>	0
-0.12506866	PREDICTABLE </s>	0
-0.12506866	SUNSET </s>	0
-0.12506866	BURGLARS </s>	0
-0.12506866	UNAVAILABLE </s>	0
-0.12506866	BELIEVE </s>	0
-0.12506866	BIRTH </s>	0
-0.12506866	GET </s>	0
-0.12506866	RECYCLING </s>	0
-0.12506866	LEARNING </s>	0
-0.12506866	DESTRUCTION </s>	0
-0.12506866	DEED </s>	0
-0.12506866	ALLOTTED </s>	0
-0.12506866	SISTER </s>	0
-0.12506866	MISSION </s>	0
-0.12506866	MONKEY </s>	0
-0.12506866	USER </s>	0
-0.12506866	OK </s>	0
-0.12506866	FAX </s>	0
-0.12506866	STEP </s>	0
-0.12506866	IF </s>	0
-0.12506866	OFFENDERS </s>	0
-0.12506866	NIGHT </s>	0
-0.12506866	QUITE </s>	0
-0.12506866	KISSING </s>	0
-0.12506866	TREASURER </s>	0
-0.12506866	FUN </s>	0
-0.12506866	DRESS </s>	0
-0.12506866	CONFERENCES </s>	0
-0.12506866	TUMOR </s>	0
-0.12506866	TOOK </s>	0
-0.12506866	DOOR </s>	0
-0.12506866	PARKWAYS </s>	0
-0.12506866	SHOUTING </s>	0
-0.12506866	STOP </s>	0
-0.12506866	WINDOW </s>	0
-0.12506866	UNICYCLE </s>	0
-0.12506866	DISCREET </s>	0
-0.12506866	LOSERS </s>	0
-0.12506866	MAKEUP </s>	0
-0.12506866	EVERY </s>	0
-0.12506866	QUACKS </s>	0
-0.12506866	THOROUGH </s>	0
-0.12506866	EVERYWHERE </s>	0
-0.12506866	FULLY </s>	0
-0.12506866	HEAT </s>	0
-0.12506866	RAGED </s>	0
-0.12506866	CHECKS </s>	0
-0.12506866	LOVELY </s>	0
-0.12506866	SAM </s>	0
-0.12506866	ARE </s>	0
-0.12506866	AWAY </s>	0
-0.12506866	EFFORTS </s>	0
-0.12506866	GAME </s>	0
-0.12506866	DREAM </s>	0
-0.12506866	SECOND </s>	0
-0.12506866	GOLDILOCKS </s>	0
-0.12506866	RED </s>	0
-0.12506866	EMAIL </s>	0
-0.12506866	MACHINERY </s>	0
-0.12506866	WINDY </s>	0
-0.12506866	I </s>	0
-0.12506866	FOURTH </s>	0
-0.12506866	BUCKLE </s>	0
-0.12506866	WIN </s>	0
-0.12506866	BREATHING </s>	0
-0.12506866	PILE </s>	0
-0.12506866	RULES </s>	0
-0.12506866	LAUGH </s>	0
-0.12506866	COMPANIES </s>	0
-0.12506866	EVENING </s>	0
-0.12506866	ASSIGNMENT </s>	0
-0.12506866	PHYSICS </s>	0
-0.12506866	MIDNIGHT </s>	0
-0.12506866	OWNED </s>	0
-0.12506866	CHOCOLATE </s>	0
-0.12506866	THIGH </s>	0
-0.12506866	SHACK </s>	0
-0.12506866	BEST </s>	0
-0.12506866	VISITED </s>	0
-0.12506866	TURN </s>	0
-0.12506866	WE </s>	0
-0.12506866	EXERCISE </s>	0
-0.12506866	PREVAILING </s>	0
-0.12506866	PRESIDENTIAL </s>	0
-0.12506866	PHOTOGRAPHS </s>	0
-0.12506866	FOUND </s>	0
-0.12506866	THREE </s>	0
-0.12506866	LIKE </s>	0
-0.12506866	MODERATION </s>	0
-0.12506866	SHE </s>	0
-0.12506866	EDUCATION </s>	0
-0.12506866	DID </s>	0
-0.12506866	SATURDAY </s>	0
-0.12506866	UNFORTUNATE </s>	0
-0.12506866	GARBAGE </s>	0
-0.12506866	MANY </s>	0
-0.12506866	JACKET </s>	0
-0.12506866	DOORS </s>	0
-0.12506866	EFFORT </s>	0
-0.12506866	OFFENSIVE </s>	0
-0.12506866	SCENE </s>	0
-0.12506866	ANY </s>	0
-0.12506866	VOICE </s>	0
-0.12506866	KEEPS </s>	0
-0.12506866	NO </s>	0
-0.12506866	BARRACKS </s>	0
-0.12506866	INTERESTING </s>	0
-0.12506866	MUCH </s>	0
-0.12506866	LYDIA </s>	0
-0.12506866	THOROUGHLY </s>	0
-0.12506866	TOSS </s>	0
-0.12506866	AMAZING </s>	0
-0.12506866	TRANSIT </s>	0
-0.12506866	TOIL </s>	0
-0.12506866	TENNIS </s>	0
-0.12506866	DOES </s>	0
-0.12506866	PRESIDENTS </s>	0
-0.12506866	MONTHS </s>	0
-0.12506866	EVER </s>	0
-0.12506866	USE </s>	0
-0.12506866	NOBODY </s>	0
-0.12506866	TURFED </s>	0
-0.12506866	FINE </s>	0
-0.12506866	SHOP </s>	0
-0.12506866	TOGETHER </s>	0
-0.12506866	OVERDRAWN </s>	0
-0.12506866	PERSISTENT </s>	0
-0.12506866	FORWARD </s>	0
-0.12506866	PICTURE </s>	0
-0.12506866	DETECTOR </s>	0
-0.12506866	HANDS </s>	0
-0.12506866	BROKE </s>	0
-0.12506866	RISEN </s>	0
-0.12506866	MUSIC </s>	0
-0.12506866	CHEMISTRY </s>	0
-0.12506866	QUESTIONING </s>	0
-0.12506866	CONSCIENCE </s>	0
-0.12506866	DOWN </s>	0
-0.12506866	COFFEE </s>	0
-0.12506866	PLUG </s>	0
-0.12506866	PLEASANT </s>	0
-0.12506866	YEAR </s>	0
-0.12506866	EXPLOSION </s>	0
-0.12506866	APPOINTMENT </s>	0
-0.12506866	ASSAULT </s>	0
-0.12506866	DIPPED </s>	0
-0.12506866	FUDGE </s>	0
-0.12506866	WEB </s>	0
-0.12506866	DUCK </s>	0
-0.12506866	SILLY </s>	0
-0.12506866	SHIP </s>	0
-0.12506866	DIPLOMACY </s>	0
-0.12506866	JOKE </s>	0
-0.12506866	LATE </s>	0
-0.12506866	CONTEST </s>	0
-0.12506866	FOLLOW </s>	0
-0.12506866	PERSON </s>	0
-0.12506866	MORE </s>	0
-0.12506866	BUS </s>	0
-0.12506866	SEMINARS </s>	0
-0.12506866	STEEP </s>	0
-0.12506866	ALGORITHM </s>	0
-0.12506866	HAMBURGER </s>	0
-0.12506866	ICE </s>	0
-0.12506866	WORRY </s>	0
-0.12506866	CANNOT </s>	0
-0.12506866	JONES </s>	0
-0.12506866	COMING </s>	0
-0.12506866	CARDS </s>	0
-0.12506866	TIRE </s>	0
-0.12506866	GENERATION </s>	0
-0.12506866	HAND </s>	0
-0.12506866	RIDICULOUS </s>	0
-0.12506866	SPEAK </s>	0
-0.12506866	BASES </s>	0
-0.12506866	COUNTRY </s>	0
-0.12506866	SYMPATHY </s>	0
-0.12506866	THAT </s>	0
-0.12506866	MORTGAGE </s>	0
-0.12506866	GETS </s>	0
-0.12506866	SPILL </s>	0
-0.12506866	BATTLES </s>	0
-0.12506866	MINIMUM </s>	0
-0.12506866	PROVIDE </s>	0
-0.12506866	OLYMPIC </s>	0
-0.12506866	GOLFERS </s>	0
-0.12506866	ACCOUNT </s>	0
-0.12506866	MICROSCOPES </s>	0
-0.12506866	WEEPING </s>	0
-0.12506866	SEEMS </s>	0
-0.12506866	AN </s>	0
-0.12506866	CITY </s>	0
-0.12506866	OBEY </s>	0
-0.12506866	RENT </s>	0
-0.12506866	WEEK </s>	0
-0.12506866	PROPRIETOR </s>	0
-0.12506866	ELECTIONS </s>	0
-0.12506866	EXPENSIVE </s>	0
-0.12506866	PUBLISHED </s>	0
-0.12506866	CARELESS </s>	0
-0.12506866	AWARE </s>	0
-0.12506866	THOSE </s>	0
-0.12506866	DINE </s>	0
-0.12506866	DELIVERY </s>	0
-0.12506866	WISDOM </s>	0
-0.12506866	COOLED </s>	0
-0.12506866	MIX </s>	0
-0.12506866	ENTER </s>	0
-0.12506866	STOCK </s>	0
-0.12506866	ENJOY </s>	0
-0.12506866	EXPENSES </s>	0
-0.12506866	JUST </s>	0
-0.12506866	DRINK </s>	0
-0.12506866	FORCE </s>	0
-0.12506866	BIG </s>	0
-0.12506866	FANS </s>	0
-0.12506866	IMAGINATION </s>	0
-0.12506866	SUBTRACTION </s>	0
-0.12506866	WALLET </s>	0
-0.12506866	BE </s>	0
-0.12506866	OBJECTIVE </s>	0
-0.12506866	YOUR </s>	0
-0.12506866	EVERYDAY </s>	0
-0.12506866	TWO </s>	0
-0.12506866	PIZZA </s>	0
-0.12506866	DOCTOR </s>	0
-0.12506866	TAKE </s>	0
-0.12506866	PAY </s>	0
-0.12506866	BORING </s>	0
-0.12506866	COURTS </s>	0
-0.12506866	DISTURBANCE </s>	0
-0.12506866	OIL </s>	0
-0.12506866	BILL </s>	0
-0.12506866	SLOW </s>	0
-0.12506866	INSURANCE </s>	0
-0.12506866	LAGOON </s>	0
-0.12506866	RAIN </s>	0
-0.12506866	EVERYONE </s>	0
-0.12506866	SOON </s>	0
-0.12506866	SYLLABUS </s>	0
-0.12506866	KNEES </s>	0
-0.12506866	VANILLA </s>	0
-0.12506866	CHANCELLOR </s>	0
-0.12506866	DRIVE </s>	0
-0.12506866	PREFERRED </s>	0
-0.12506866	ELSE </s>	0
-0.12506866	LOUDLY </s>	0
-0.12506866	ROCKS </s>	0
-0.12506866	EACH </s>	0
-0.12506866	MOVIE </s>	0
-0.12506866	LUNCH </s>	0
-0.12506866	EXAM </s>	0
-0.12506866	LOVE </s>	0
-0.12506866	HORN </s>	0
-0.12506866	TRADITIONAL </s>	0
-0.12506866	ACCEPTANCE </s>	0
-0.12506866	PROBLEM </s>	0
-0.12506866	NASTY </s>	0
-0.12506866	GLASSES </s>	0
-0.12506866	THESE </s>	0
-0.12506866	HEAD </s>	0
-0.12506866	ARGUING </s>	0
-0.12506866	WIDER </s>	0
-0.12506866	GIVE </s>	0
-0.12506866	NATION </s>	0
-0.12506866	IS </s>	0
-0.12506866	YOU </s>	0
-0.12506866	AIRPORT </s>	0
-0.12506866	PROFESSOR </s>	0
-0.12506866	CUT </s>	0
-0.12506866	PROTESTERS </s>	0
-0.12506866	EMPIRE </s>	0
-0.12506866	ASPIRATIONS </s>	0
-0.12506866	PHENOMENON </s>	0
-0.12506866	APPLE </s>	0
-0.12506866	SIDES </s>	0
-0.12506866	FIND </s>	0
-0.12506866	INVESTIGATE </s>	0
-0.12506866	REFERENDUM </s>	0
-0.12506866	SURGERY </s>	0
-0.12506866	SEASONS </s>	0
-0.12506866	ZERO </s>	0
-0.12506866	RESULTS </s>	0
-0.12506866	OPERA </s>	0
-0.12506866	FUEL </s>	0
-0.12506866	UNDERWENT </s>	0
-0.12506866	WINTER </s>	0
-0.12506866	SHRINE </s>	0
-0.12506866	PEEK </s>	0
-0.12506866	BROWSER </s>	0
-0.12506866	THIN </s>	0
-0.12506866	WANT </s>	0
-0.12506866	LASER </s>	0
-0.12506866	DESIRED </s>	0
-0.12506866	SENDS </s>	0
-0.12506866	SECURITY </s>	0
-0.12506866	RIGHT </s>	0
-0.12506866	NON </s>	0
-0.12506866	COVER </s>	0
-0.12506866	INTERACTIONS </s>	0
-0.12506866	SWORD </s>	0
-0.12506866	FEEL </s>	0
-0.12506866	AGREEMENT </s>	0
-0.12506866	ABANDONED </s>	0
-0.12506866	IMMEDIATELY </s>	0
-0.12506866	OBSERVATION </s>	0
-0.12506866	QUICK </s>	0
-0.12506866	SHEDS </s>	0
-0.12506866	BITES </s>	0
-0.12506866	HAIR </s>	0
-0.12506866	SANTA </s>	0
-0.12506866	DISCOURAGING </s>	0
-0.12506866	GREAT </s>	0
-0.12506866	UNDERSTOOD </s>	0
-0.12506866	MIGHTIER </s>	0
-0.12506866	CHALLENGED </s>	0
-0.12506866	RISK </s>	0
-0.12506866	CORRECT </s>	0
-0.12506866	ODD </s>	0
-0.12506866	PRIORITIES </s>	0
-0.12506866	LIGHT </s>	0
-0.12506866	DREAMS </s>	0
-0.12506866	RINGS </s>	0
-0.12506866	APARTMENTS </s>	0
-0.12506866	UNIVERSALLY </s>	0
-0.12506866	EXTRA </s>	0
-0.12506866	WHILE </s>	0
-0.12506866	EXTINCT </s>	0
-0.12506866	READING </s>	0
-0.12506866	SMALL </s>	0
-0.12506866	ROADS </s>	0
-0.12506866	MET </s>	0
-0.12506866	BUSY </s>	0
-0.12506866	HOURS </s>	0
-0.12506866	DEPARTMENT </s>	0
-0.12506866	ENTIRE </s>	0
-0.12506866	TONIGHT </s>	0
-0.12506866	ALMOST </s>	0
-0.12506866	MIGHT </s>	0
-0.12506866	VOTERS </s>	0
-0.12506866	ALLIGATOR </s>	0
-0.12506866	UNTIL </s>	0
-0.12506866	TALKING </s>	0
-0.12506866	FROM </s>	0
-0.12506866	BUT </s>	0
-0.12506866	BYPASS </s>	0
-0.12506866	CAPE </s>	0
-0.12506866	OCEANS </s>	0
-0.12506866	LEATHER </s>	0
-0.12506866	WROTE </s>	0
-0.12506866	FLAVORED </s>	0
-0.12506866	WENT </s>	0
-0.12506866	POWDER </s>	0
-0.12506866	FLYING </s>	0
-0.12506866	JUDGES </s>	0
-0.12506866	ANNIVERSARY </s>	0
-0.12506866	FALLING </s>	0
-0.12506866	LOOSE </s>	0
-0.12506866	AROUND </s>	0
-0.12506866	NOR </s>	0
-0.12506866	ASK </s>	0
-0.12506866	SLIPPERY </s>	0
-0.12506866	GLANCE </s>	0
-0.12506866	ENOUGH </s>	0
-0.12506866	SUGGESTS </s>	0
-0.12506866	TOUCHDOWN </s>	0
-0.12506866	CURVE </s>	0
-0.12506866	ENCOURAGEMENT </s>	0
-0.12506866	EXCITED </s>	0
-0.12506866	BETTER </s>	0
-0.12506866	PLAYED </s>	0
-0.12506866	BALANCE </s>	0
-0.12506866	CARES </s>	0
-0.12506866	STABILITY </s>	0
-0.12506866	LOOK </s>	0
-0.12506866	SOMEONE </s>	0
-0.12506866	JEWELS </s>	0
-0.12506866	RETURN </s>	0
-0.12506866	INSULATION </s>	0
-0.12506866	RATIONALE </s>	0
-0.12506866	HANDLED </s>	0
-0.12506866	WEEKENDS </s>	0
-0.12506866	INSPIRING </s>	0
-0.12506866	POPULARITY </s>	0
-0.12506866	LIVING </s>	0
-0.12506866	MEN </s>	0
-0.12506866	PERIOD </s>	0
-0.12506866	WALK </s>	0
-0.12506866	NEITHER </s>	0
-0.12506866	PUBLIC </s>	0
-0.12506866	WANTS </s>	0
-0.12506866	SOME </s>	0
-0.12506866	RUNNING </s>	0
-0.12506866	BLAZING </s>	0
-0.12506866	PRIORITY </s>	0
-0.12506866	FOREST </s>	0
-0.12506866	EXPRESS </s>	0
-0.12506866	GOVERNMENT </s>	0
-0.12506866	ORDERED </s>	0
-0.12506866	HERE </s>	0
-0.12506866	PATIO </s>	0
-0.12506866	VOTE </s>	0
-0.12506866	OBJECTS </s>	0
-0.12506866	WONDERFUL </s>	0
-0.12506866	CARE </s>	0
-0.12506866	WAVES </s>	0
-0.12506866	CHAMBER </s>	0
-0.12506866	PHRASES </s>	0
-0.12506866	PUT </s>	0
-0.12506866	CHILD </s>	0
-0.12506866	FRIENDLY </s>	0
-0.12506866	LOTTERY </s>	0
-0.12506866	SHOPPING </s>	0
-0.12506866	IDIOT </s>	0
-0.12506866	BAD </s>	0
-0.12506866	LONG </s>	0
-0.12506866	DATE </s>	0
-0.12506866	CAKE </s>	0
-0.12506866	MARY </s>	0
-0.12506866	PENALTY </s>	0
-0.12506866	RUN </s>	0
-0.12506866	EVERYBODY </s>	0
-0.12506866	MAXIMUM </s>	0
-0.12506866	FOG </s>	0
-0.12506866	TREAT </s>	0
-0.12506866	PAINTINGS </s>	0
-0.12506866	HELPS </s>	0
-0.12506866	SALESMEN </s>	0
-0.12506866	DISCOVERING </s>	0
-0.12506866	HAS </s>	0
-0.12506866	LOOSES </s>	0
-0.12506866	PROFIT </s>	0
-0.12506866	OF </s>	0
-0.12506866	PEOPLE </s>	0
-0.12506866	EARLY </s>	0
-0.12506866	BEAUTIFUL </s>	0
-0.12506866	MISSED </s>	0
-0.12506866	STREETS </s>	0
-0.12506866	RID </s>	0
-0.12506866	HIGHER </s>	0
-0.12506866	BONE </s>	0
-0.12506866	WISHFUL </s>	0
-0.12506866	EXPERIENCE </s>	0
-0.12506866	THAN </s>	0
-0.12506866	DO </s>	0
-0.12506866	BEGINNING </s>	0
-0.12506866	PARTS </s>	0
-0.12506866	LEAVING </s>	0
-0.12506866	CLOSED </s>	0
-0.12506866	HOW </s>	0
-0.12506866	LOST </s>	0
-0.12506866	INDEX </s>	0
-0.12506866	DINOSAURS </s>	0
-0.12506866	CELLS </s>	0
-0.12506866	ACCEPT </s>	0
-0.12506866	STAY </s>	0
-0.12506866	CLAUS </s>	0
-0.12506866	SIT </s>	0
-0.12506866	TAKING </s>	0
-0.12506866	DRUGS </s>	0
-0.12506866	GOT </s>	0
-0.12506866	NOON </s>	0
-0.12506866	FINER </s>	0
-0.12506866	EAT </s>	0
-0.12506866	FUTILE </s>	0
-0.12506866	RISES </s>	0
-0.12506866	DAUGHTERS </s>	0
-0.12506866	NEED </s>	0
-0.12506866	SPACE </s>	0
-0.12506866	ACCORDING </s>	0
-0.12506866	DRIVERS </s>	0
-0.12506866	WORM </s>	0
-0.12506866	BULLET </s>	0
-0.12506866	DAY </s>	0
-0.12506866	ELEVATOR </s>	0
-0.12506866	TEMPERAMENT </s>	0
-0.12506866	HATE </s>	0
-0.12506866	AM </s>	0
-0.12506866	CUSTODY </s>	0
-0.12506866	TEACHING </s>	0
-0.12506866	TRAFFIC </s>	0
-0.12506866	SPOONFUL </s>	0
-0.12506866	THEIR </s>	0
-0.12506866	FEBRUARY </s>	0
-0.12506866	JOB </s>	0
-0.12506866	AFTER </s>	0
-0.12506866	SKATE </s>	0
-0.12506866	CAT </s>	0
-0.12506866	NEVER </s>	0
-0.12506866	TRUCKS </s>	0
-0.12506866	NICE </s>	0
-0.12506866	DOLPHINS </s>	0
-0.12506866	WELL </s>	0
-0.12506866	SEES </s>	0
-0.12506866	NUMBER </s>	0
-0.12506866	LEAP </s>	0
-0.12506866	KILLER </s>	0
-0.12506866	MEET </s>	0
-0.12506866	GAS </s>	0
-0.12506866	DOG </s>	0
-0.12506866	YOUNG </s>	0
-0.12506866	BAKING </s>	0
-0.12506866	PRESCRIPTION </s>	0
-0.12506866	WITNESSES </s>	0
-0.12506866	GOING </s>	0
-0.12506866	BARE </s>	0
-0.12506866	BAROQUE </s>	0
-0.12506866	WEEKEND </s>	0
-0.12506866	LAND </s>	0
-0.12506866	PIG </s>	0
-0.12506866	PUMPING </s>	0
-0.12506866	LATER </s>	0
-0.12506866	FIT </s>	0
-0.12506866	BREAKS </s>	0
-0.12506866	REDRESS </s>	0
-0.12506866	LIFE </s>	0
-0.12506866	ELEPHANTS </s>	0
-0.12506866	CONSTRUCTION </s>	0
-0.12506866	HISTORIC </s>	0
-0.12506866	BEER </s>	0
-0.12506866	FAILURE </s>	0
-0.12506866	OVER </s>	0
-0.12506866	COMPLETELY </s>	0
-0.12506866	CHEMICAL </s>	0
-0.12506866	COALITION </s>	0
-0.12506866	FOX </s>	0
-0.12506866	RIFE </s>	0
-0.12506866	SOLD </s>	0
-0.12506866	JAMMED </s>	0
-0.12506866	SIGN </s>	0
-0.12506866	RECRUITMENT </s>	0
-0.12506866	LAUNDRY </s>	0
-0.12506866	END </s>	0
-0.12506866	USUALLY </s>	0
-0.12506866	COTTAGE </s>	0
-0.12506866	ZOOM </s>	0
-0.12506866	EIGHT </s>	0
-0.12506866	EARTH </s>	0
-0.12506866	AND </s>	0
-0.12506866	IDEA </s>	0
-0.12506866	BORROWER </s>	0
-0.12506866	BEARS </s>	0
-0.12506866	INDICATION </s>	0
-0.12506866	VIDEO </s>	0
-0.12506866	STUPID </s>	0
-0.12506866	SUNNY </s>	0
-0.12506866	SPECTACULAR </s>	0
-0.12506866	RACKETBALL </s>	0
-0.12506866	ELECTRIC </s>	0
-0.12506866	WHOLE </s>	0
-0.12506866	PROVINCES </s>	0
-0.12506866	UNIVERSITIES </s>	0
-0.12506866	DISGUSTING </s>	0
-0.12506866	BURIED </s>	0
-0.12506866	BLOODSHED </s>	0
-0.12506866	CAN </s>	0
-0.12506866	EAST </s>	0
-0.12506866	ANNOUNCE </s>	0
-0.12506866	CONTRAST </s>	0
-0.12506866	LONGER </s>	0
-0.12506866	SURE </s>	0
-0.12506866	PARK </s>	0
-0.12506866	QUAKES </s>	0
-0.12506866	DIRECTION </s>	0
-0.12506866	MYSTERY </s>	0
-0.12506866	WHEN </s>	0
-0.12506866	IDES </s>	0
-0.12506866	SPAGHETTI </s>	0
-0.12506866	BETWEEN </s>	0
-0.12506866	GEL </s>	0
-0.12506866	TESTS </s>	0
-0.12506866	EXCHANGE </s>	0
-0.12506866	TAXATION </s>	0
-0.12506866	PROVIDED </s>	0
-0.12506866	SHORT </s>	0
-0.12506866	FRONT </s>	0
-0.12506866	PSYCHOLOGY </s>	0
-0.12506866	TRAVELING </s>	0
-0.12506866	MEANS </s>	0
-0.12506866	MADE </s>	0
-0.12506866	ADDITION </s>	0
-0.12506866	FIELD </s>	0
-0.12506866	TICKETS </s>	0
-0.12506866	WATCHED </s>	0
-0.12506866	REACH </s>	0
-0.12506866	HELP </s>	0
-0.12506866	THINGS </s>	0
-0.12506866	ANYTHING </s>	0
-0.12506866	SHOULD </s>	0
-0.12506866	DORMITORY </s>	0
-0.12506866	POSTAL </s>	0
-0.12506866	STUCK </s>	0
-0.12506866	AGAIN </s>	0
-0.12506866	PIMP </s>	0
-0.12506866	HANDLE </s>	0
-0.12506866	SAYS </s>	0
-0.12506866	CRIME </s>	0
-0.12506866	NOTE </s>	0
-0.12506866	SUPERMAN </s>	0
-0.12506866	CENTURY </s>	0
-0.12506866	NOTHING </s>	0
-0.12506866	TREE </s>	0
-0.12506866	ASKED </s>	0
-0.12506866	TEAM </s>	0
-0.12506866	WINNERS </s>	0
-0.12506866	QUOTA </s>	0
-0.12506866	MY </s>	0
-0.12506866	PARKING </s>	0
-0.12506866	BEFORE </s>	0
-0.12506866	YET </s>	0
-0.12506866	BATH </s>	0
-0.12506866	WITHDRAWAL </s>	0
-0.12506866	DRIVING </s>	0
-0.12506866	INEFFICIENT </s>	0
-0.12506866	HER </s>	0
-0.12506866	STAYING </s>	0
-0.12506866	SUM </s>	0
-0.12506866	EQUATION </s>	0
-0.12506866	CIRCUMSTANCES </s>	0
-0.12506866	BOOKS </s>	0
-0.12506866	TAKES </s>	0
-0.12506866	JOBS </s>	0
-0.12506866	OPPOSING </s>	0
-0.12506866	HIM </s>	0
-0.12506866	OFFER </s>	0
-0.12506866	CHLORINE </s>	0
-0.12506866	WORE </s>	0
-0.12506866	BIGGEST </s>	0
-0.12506866	GOVERNMENTS </s>	0
-0.12506866	FIGURE </s>	0
-0.12506866	MERGER </s>	0
-0.12506866	LEVEE </s>	0
-0.12506866	GIVES </s>	0
-0.12506866	PICKET </s>	0
-0.12506866	SWEATSHIRT </s>	0
-0.12506866	COUPON </s>	0
-0.12506866	HOLD </s>	0
-0.12506866	DECISION </s>	0
-0.12506866	ABOUT </s>	0
-0.12506866	TABLETOP </s>	0
-0.12506866	NERVOUS </s>	0
-0.12506866	TREASURY </s>	0
-0.12506866	APPEARS </s>	0
-0.12506866	GAMBLERS </s>	0
-0.12506866	MOTIVATIONAL </s>	0
-0.12506866	SYSTEM </s>	0
-0.12506866	HOUSEKEEPER </s>	0
-0.12506866	JUMPING </s>	0
-0.12506866	SEEN </s>	0
-0.12506866	CALLED </s>	0
-0.12506866	GRANITE </s>	0
-0.12506866	POWER </s>	0
-0.12506866	INFORMATION </s>	0
-0.12506866	WHY </s>	0
-0.12506866	UNIONS </s>	0
-0.12506866	RESPONSE </s>	0
-0.12506866	MONITORED </s>	0
-0.12506866	PERSONAL </s>	0
-0.12506866	SUBURBS </s>	0
-0.12506866	NATIONS </s>	0
-0.12506866	MURDER </s>	0
-0.12506866	CREAM </s>	0
-0.12506866	MINUTE </s>	0
-0.12506866	ECONOMY </s>	0
-0.12506866	YARD </s>	0
-0.12506866	ENGINE </s>	0
-0.12506866	FLAT </s>	0
-0.12506866	FREUD </s>	0
-0.12506866	CROWN </s>	0
-0.12506866	HEAR </s>	0
-0.12506866	RIDING </s>	0
-0.12506866	RAISE </s>	0
-0.12506866	WEAR </s>	0
-0.12506866	GUIDELINES </s>	0
-0.12506866	ALL </s>	0
-0.12506866	MAN </s>	0
-0.12506866	TRIPLE </s>	0
-0.12506866	ORGANIZATION </s>	0
-0.12506866	PRESENCE </s>	0
-0.12506866	GUN </s>	0
-0.12506866	DAILY </s>	0
-0.12506866	DESERVES </s>	0
-0.12506866	MONTH </s>	0
-0.12506866	HIGH </s>	0
-0.12506866	SUCH </s>	0
-0.12506866	TRIED </s>	0
-0.12506866	EXASPERATION </s>	0
-0.12506866	COLLAPSE </s>	0
-0.12506866	TIME </s>	0
-0.12506866	DARING </s>	0
-0.12506866	LAST </s>	0
-0.12506866	REQUIRES </s>	0
-0.12506866	HAD </s>	0
-0.12506866	COME </s>	0
-0.12506866	CHANGED </s>	0
-0.12506866	COURSE </s>	0
-0.12506866	BROKEN </s>	0
-0.12506866	DISASTER </s>	0
-0.12506866	SWAMP </s>	0
-0.12506866	DEWDROP </s>	0
-0.12506866	BLAST </s>	0
-0.12506866	PRAYER </s>	0
-0.12506866	PERSONS </s>	0
-0.12506866	THROUGH </s>	0
-0.12506866	HIGHWAY </s>	0
-0.12506866	EXPECTANCY </s>	0
-0.12506866	THIS </s>	0
-0.12506866	SUPER </s>	0
-0.12506866	A </s>	0
-0.12506866	BEEN </s>	0
-0.12506866	VALIDATED </s>	0
-0.12506866	MEETING </s>	0
-0.12506866	DICTION </s>	0
-0.12506866	LABOUR </s>	0
-0.12506866	SERVICES </s>	0
-0.12506866	HOLE </s>	0
-0.12506866	YAP </s>	0
-0.12506866	ADULT </s>	0
-0.12506866	ME </s>	0
-0.12506866	SHIRTS </s>	0
-0.12506866	SEVEN </s>	0
-0.12506866	WARM </s>	0
-0.12506866	PRECAUTIONS </s>	0
-0.12506866	IRREGULAR </s>	0
-0.12506866	OBLIGATIONS </s>	0
-0.12506866	RECTANGULAR </s>	0
-0.12506866	RACE </s>	0
-0.12506866	STIMULUS </s>	0
-0.12506866	GAP </s>	0
-0.12506866	GOES </s>	0
-0.12506866	BREAK </s>	0
-0.12506866	SPEED </s>	0
-0.12506866	SUCCEED </s>	0
-0.12506866	ANYMORE </s>	0
-0.12506866	TOWER </s>	0
-0.12506866	TOO </s>	0
-0.12506866	TRAINS </s>	0
-0.12506866	DROVE </s>	0
-0.12506866	MOST </s>	0
-0.12506866	PLEASE </s>	0
-0.12506866	WINNER </s>	0
-0.12506866	UP </s>	0
-0.12506866	US </s>	0
-0.12506866	COMPLAINTS </s>	0
-0.12506866	FEELING </s>	0
-0.12506866	PEN </s>	0
-0.12506866	DOW </s>	0
-0.12506866	DREAMERS </s>	0
-0.12506866	BIKE </s>	0
-0.12506866	COMMUNICATE </s>	0
-0.12506866	NEEDS </s>	0
-0.12506866	AGES </s>	0
-0.12506866	TOMORROW </s>	0
-0.12506866	THERE </s>	0
-0.12506866	SUCKER </s>	0
-0.12506866	MEDIEVAL </s>	0
-0.12506866	FOUR </s>	0
-0.12506866	RELATIONS </s>	0
-0.12506866	HOUR </s>	0
-0.12506866	PROTECT </s>	0
-0.12506866	OCCASIONAL </s>	0
-0.12506866	ROMAN </s>	0
-0.12506866	SONS </s>	0
-0.12506866	BIRD </s>	0
-0.12506866	SPRAWLING </s>	0
-0.12506866	BALL </s>	0
-0.12506866	TO </s>	0
-0.12506866	LAVATORY </s>	0
-0.12506866	GALLERY </s>	0
-0.12506866	WEARS </s>	0
-0.12506866	DRY </s>	0
-0.12506866	FEW </s>	0
-0.12506866	PUNISHMENT </s>	0
-0.12506866	RAPIDLY </s>	0
-0.12506866	LEAVE </s>	0
-0.12506866	TAPE </s>	0
-0.12506866	THANK </s>	0
-0.12506866	NEEDED </s>	0
-0.12506866	LARGEST </s>	0
-0.12506866	NOW </s>	0
-0.12506866	RESULT </s>	0
-0.12506866	DOUBLE </s>	0
-0.12506866	FRIEND </s>	0
-0.12506866	ELECTRICAL </s>	0
-0.12506866	TRAVEL </s>	0
-0.12506866	BLOCKED </s>	0
-0.12506866	LUCKILY </s>	0
-0.12506866	THE </s>	0
-0.12506866	TIE </s>	0
-0.12506866	WAY </s>	0
-0.12506866	ROVER </s>	0
-0.12506866	ONLY </s>	0
-0.12506866	SEE </s>	0
-0.12506866	PANEL </s>	0
-0.12506866	MAKES </s>	0
-0.12506866	KEEP </s>	0
-0.12506866	WILLOWS </s>	0
-0.12506866	SOUND </s>	0
-0.12506866	COURT </s>	0
-0.12506866	INCREASED </s>	0
-0.12506866	CLOSE </s>	0
-0.12506866	SPEECH </s>	0
-0.12506866	SATURN </s>	0
-0.12506866	HOME </s>	0
-0.12506866	CAMPING </s>	0
-0.12506866	WAS </s>	0
-0.12506866	AVOIDED </s>	0
-0.12506866	ALLERGIC </s>	0
-0.12506866	VALID </s>	0
-0.12506866	FACTS </s>	0
-0.12506866	SCRATCH </s>	0
-0.12506866	KIDS </s>	0
-0.12506866	VICTIMS </s>	0
-0.12506866	CARS </s>	0
-0.12506866	PAID </s>	0
-0.12506866	PRESENTATION </s>	0
-0.12506866	CARPET </s>	0
-0.12506866	JUMPED </s>	0
-0.12506866	POISONOUS </s>	0
-0.12506866	CONCENTRATE </s>	0
-0.12506866	FOREVER </s>	0
-0.12506866	TRY </s>	0
-0.12506866	WATER </s>	0
-0.12506866	CONNECTED </s>	0
-0.12506866	TURTLENECK </s>	0
-0.12506866	BLAZED </s>	0
-0.12506866	FOOTBALL </s>	0
-0.12506866	VERBS </s>	0
-0.12506866	SOCKET </s>	0
-0.12506866	WORK </s>	0
-0.12506866	REQUIRE </s>	0
-0.12506866	LOCKED </s>	0
-0.12506866	COMPLETE </s>	0
-0.12506866	FINGERS </s>	0
-0.12506866	STRAINED </s>	0
-0.12506866	COLD </s>	0
-0.12506866	BY </s>	0
-0.12506866	WOMEN </s>	0
-0.12506866	CORRECTION </s>	0
-0.12506866	GROW </s>	0
-0.12506866	MOM </s>	0
-0.12506866	EMPLOYEE </s>	0
-0.12506866	THEY </s>	0
-0.12506866	CORONATION </s>	0
-0.12506866	CALL </s>	0
-0.12506866	BATMAN </s>	0
-0.12506866	HONEST </s>	0
-0.12506866	MASK </s>	0
-0.12506866	KING </s>	0
-0.12506866	PEANUTS </s>	0
-0.12506866	MAKE </s>	0
-0.12506866	REJECTION </s>	0
-0.12506866	BATHROOM </s>	0
-0.12506866	BITE </s>	0
-0.12506866	EXCELLENT </s>	0
-0.12506866	MARCH </s>	0
-0.12506866	CAPITAL </s>	0
-0.12506866	WERE </s>	0
-0.12506866	SPEEDING </s>	0
-0.12506866	QUESTION </s>	0
-0.12506866	MIND </s>	0
-0.12506866	WILL </s>	0
-0.12506866	WORKING </s>	0
-0.12506866	RATTLE </s>	0
-0.12506866	PREPARE </s>	0
-0.12506866	WRITING </s>	0
-0.12506866	SILVER </s>	0
-0.12506866	VERY </s>	0
-0.12506866	STYLE </s>	0
-0.12506866	PLACE </s>	0
-0.12506866	CROWDED </s>	0
-0.12506866	DIFFICULT </s>	0
-0.12506866	SQUANDER </s>	0
-0.12506866	SWIM </s>	0
-0.12506866	AHEAD </s>	0
-0.12506866	TODAY </s>	0
-0.12506866	JOIN </s>	0
-0.12506866	SO </s>	0
-0.12506866	TEN </s>	0
-0.12506866	RAINDROPS </s>	0
-0.12506866	PRINTER </s>	0
-0.12506866	HANDICAPPED </s>	0
-0.12506866	LIMITED </s>	0
-0.12506866	AFRAID </s>	0
-0.12506866	WARRANTY </s>	0
-0.12506866	PIES </s>	0
-0.12506866	REGISTRATION </s>	0
-0.12506866	ORDER </s>	0
-0.12506866	HEROIC </s>	0
-0.12506866	DEPOT </s>	0
-0.12506866	WORLD </s>	0
-0.12506866	FLASHING </s>	0
-0.12506866	DECISIONS </s>	0
-0.12506866	LOW </s>	0
-0.12506866	AS </s>	0
-0.12506866	GREASY </s>	0
-0.12506866	QUESTIONS </s>	0
-0.12506866	WHAT </s>	0
-0.12506866	TASTE </s>	0
-0.12506866	EDITION </s>	0
-0.12506866	INTERFACE </s>	0
-0.12506866	ROUND </s>	0
-0.12506866	SUBDIVISIONS </s>	0
-0.12506866	QUIT </s>	0
-0.12506866	CONSIDERATION </s>	0
-0.12506866	BILLS </s>	0
-0.12506866	IT </s>	0
-0.12506866	EASY </s>	0
-0.12506866	QUICKLY </s>	0
-0.12506866	AT </s>	0
-0.12506866	IMPORTANT </s>	0
-0.12506866	MICE </s>	0
-0.12506866	SHOULDERS </s>	0
-0.12506866	METER </s>	0
-0.12506866	MUST </s>	0
-0.12506866	SOUNDS </s>	0
-0.12506866	THOUSAND </s>	0
-0.12506866	SKIMMED </s>	0
-0.12506866	ETIQUETTE </s>	0
-0.12506866	SUITE </s>	0
-0.12506866	SUBJECTS </s>	0
-0.12506866	UNACCEPTABLE </s>	0
-0.12506866	SHARP </s>	0
-0.12506866	WIND </s>	0
-0.12506866	ONE </s>	0
-0.12506866	PROBLEMS </s>	0
-0.12506866	SIZE </s>	0
-0.12506866	CUPS </s>	0
-0.12506866	JUSTICE </s>	0
-0.12506866	TREASURE </s>	0
-0.12506866	COMMENT </s>	0
-0.12506866	LIBRARY </s>	0
-0.12506866	FIRST </s>	0
-0.12506866	HECK </s>	0
-0.12506866	WITH </s>	0
-0.12506866	BOSS </s>	0
-0.12506866	UNION </s>	0
-0.12506866	FILE </s>	0
-0.12506866	DISCHARGED </s>	0
-0.12506866	POLITICAL </s>	0
-0.12506866	LIAR </s>	0
-0.12506866	GROWING </s>	0
-0.12506866	SAD </s>	0
-0.12506866	PROPOSAL </s>	0
-0.12506866	POOREST </s>	0
-0.12506866	YES </s>	0
-0.12506866	MAIL </s>	0
-0.12506866	FOLDS </s>	0
-0.12506866	RELUCTANT </s>	0
-0.12506866	REALLY </s>	0
-0.12506866	STIFF </s>	0
-0.12506866	CARD </s>	0
-0.12506866	NEWS </s>	0
-0.12506866	SUBJECT </s>	0
-0.12506866	SHALL </s>	0
-0.12506866	PRISON </s>	0
-0.12506866	LIE </s>	0
-0.12506866	EXCEED </s>	0
-0.12506866	RELIGION </s>	0
-0.12506866	LIMIT </s>	0
-0.12506866	CANCER </s>	0
-0.12506866	QUARTER </s>	0
-0.12506866	LESSON </s>	0
-0.12506866	SHIVERING </s>	0
-0.12506866	RESTAURANT </s>	0
-0.12506866	HOPES </s>	0
-0.12506866	FIVE </s>	0
-0.12506866	PLAYERS </s>	0
-0.12506866	AMOUNT </s>	0
-0.12506866	CHEESE </s>	0
-0.12506866	BACK </s>	0
-0.12506866	THINK </s>	0
-0.12506866	FALL </s>	0
-0.12506866	CANADA </s>	0
-0.12506866	SCHEDULING </s>	0
-0.12506866	SCHOOLS </s>	0
-0.12506866	KNOCKING </s>	0
-0.12506866	POPULATION </s>	0
-0.12506866	TOES </s>	0
-0.12506866	BANK </s>	0
-0.12506866	BRING </s>	0
-0.12506866	SICK </s>	0
-0.12506866	TOP </s>	0
-0.12506866	FACE </s>	0
-0.12506866	FAVOURITE </s>	0
-0.12506866	GROCERY </s>	0
-0.12506866	SAVING </s>	0
-0.12506866	REDOUBLE </s>	0
-0.12506866	PREFER </s>	0
-0.12506866	MINE </s>	0
-0.12506866	NEW </s>	0
-0.12506866	LISTEN </s>	0
-0.12506866	GOOD </s>	0
-0.12506866	COOKIES </s>	0
-0.12506866	BOYS </s>	0
-0.12506866	FAST </s>	0
-0.12506866	HARDEST </s>	0
-0.12506866	CAPITALIST </s>	0
-0.12506866	TIMES </s>	0
-0.12506866	DRIVEWAYS </s>	0
-0.12506866	SNAKE </s>	0
-0.12506866	LEARN </s>	0
-0.12506866	FOOD </s>	0
-0.12506866	BALONEY </s>	0
-0.12506866	NEARBY </s>	0
-0.12506866	PARTIES </s>	0
-0.12506866	CONSEQUENCES </s>	0
-0.12506866	CLASSICAL </s>	0
-0.12506866	COMPLICATED </s>	0
-0.12506866	DESERVE </s>	0
-0.12506866	SNOW </s>	0
-0.12506866	POLITICS </s>	0
-0.12506866	LINE </s>	0
-0.12506866	SADDLES </s>	0
-0.12506866	LEFT </s>	0
-0.12506866	MOTHER </s>	0
-0.12506866	SUMMIT </s>	0
-0.12506866	TRANSACTION </s>	0
-0.12506866	SAFETY </s>	0
-0.12506866	MATERNITY </s>	0
-0.12506866	SPILLED </s>	0
-0.12506866	STRANGERS </s>	0
-0.12506866	AGREE </s>	0
-0.12506866	SAY </s>	0
-0.12506866	BLOW </s>	0
-0.12506866	OR </s>	0
-0.12506866	OFF </s>	0
-0.12506866	THING </s>	0
-0.12506866	SMART </s>	0
-0.12506866	SEASON </s>	0
-0.12506866	WATCH </s>	0
-0.12506866	FAVORITE </s>	0
-0.12506866	ATHLETES </s>	0
-0.12506866	MONTHLY </s>	0
-3.1717591	<s> ALWAYS	-0.30103
-3.1717591	<s> SIX	-0.30103
-3.1717591	<s> BENIGN	-0.30103
-3.1717591	<s> SENT	-0.30103
-3.1717591	<s> ON	-0.30103
-3.1717591	<s> PEERING	-0.30103
-3.1717591	<s> ROBIN	-0.30103
-3.1717591	<s> WOULD	-0.30103
-3.1717591	<s> WORTH	-0.30103
-3.1717591	<s> RECEIPTS	-0.30103
-3.1717591	<s> LITTLE	-0.30103
-3.1717591	<s> WORDS	-0.30103
-3.1717591	<s> WHERE	-0.30103
-3.1717591	<s> DENIAL	-0.30103
-3.1717591	<s> FELL	-0.30103
-3.1717591	<s> HOUSE	-0.30103
-3.1717591	<s> REGISTERED	-0.30103
-3.1717591	<s> RUNS	-0.30103
-3.1717591	<s> ACCOMPANIED	-0.30103
-3.1717591	<s> NEAR	-0.30103
-3.1717591	<s> LENS	-0.30103
-3.1717591	<s> HAVE	-0.30103
-3.1717591	<s> EXCITING	-0.30103
-3.1717591	<s> VALIUM	-0.30103
-3.1717591	<s> SPOT	-0.30103
-3.1717591	<s> MACHINE	-0.30103
-3.1717591	<s> NUTTY	-0.30103
-3.1717591	<s> PLAY	-0.30103
-3.1717591	<s> EVENTUALLY	-0.30103
-3.1717591	<s> IN	-0.30103
-3.1717591	<s> ABOARD	-0.30103
-3.1717591	<s> OFFENDS	-0.30103
-3.1717591	<s> ENLARGED	-0.30103
-3.1717591	<s> ANIMAL	-0.30103
-3.1717591	<s> ENVIRONMENT	-0.30103
-3.1717591	<s> MAJESTY	-0.30103
-3.1717591	<s> HE	-0.30103
-3.1717591	<s> COTTON	-0.30103
-3.1717591	<s> LOOKS	-0.30103
-3.1717591	<s> BEHIND	-0.30103
-3.1717591	<s> FULL	-0.30103
-3.1717591	<s> LAMB	-0.30103
-3.1717591	<s> BROWN	-0.30103
-3.1717591	<s> SENTENCE	-0.30103
-3.1717591	<s> NOSE	-0.30103
-3.1717591	<s> FOR	-0.30103
-3.1717591	<s> ADVANCE	-0.30103
-3.1717591	<s> JEDI	-0.30103
-3.1717591	<s> GO	-0.30103
-3.1717591	<s> ASTONISHMENT	-0.30103
-3.1717591	<s> ACUTELY	-0.30103
-3.1717591	<s> SLIP	-0.30103
-3.1717591	<s> SERVICE	-0.30103
-3.1717591	<s> CAR	-0.30103
-3.1717591	<s> FISH	-0.30103
-3.1717591	<s> WEARING	-0.30103
-3.1717591	<s> STILL	-0.30103
-3.1717591	<s> TROUBLE	-0.30103
-3.1717591	<s> FREQUENTLY	-0.30103
-3.1717591	<s> NOT	-0.30103
-3.1717591	<s> EGO	-0.30103
-3.1717591	<s> HEALTHY	-0.30103
-3.1717591	<s> SUNDAY	-0.30103
-3.1717591	<s> BEES	-0.30103
-3.1717591	<s> ACCIDENT	-0.30103
-3.1717591	<s> SAFE	-0.30103
-3.1717591	<s> STRIKE	-0.30103
-3.1717591	<s> ATE	-0.30103
-3.1717591	<s> KNOW	-0.30103
-3.1717591	<s> TRAIN	-0.30103
-3.1717591	<s> BEWARE	-0.30103
-3.1717591	<s> LENDER	-0.30103
-3.1717591	<s> STARLIGHT	-0.30103
-3.1717591	<s> EXAMPLE	-0.30103
-3.1717591	<s> REFUSE	-0.30103
-3.1717591	<s> GOSPEL	-0.30103
-3.1717591	<s> PLAYING	-0.30103
-3.1717591	<s> BUSINESS	-0.30103
-3.1717591	<s> CHILDREN	-0.30103
-3.1717591	<s> PRIZE	-0.30103
-3.1717591	<s> PREDICTABLE	-0.30103
-3.1717591	<s> SUNSET	-0.30103
-3.1717591	<s> BURGLARS	-0.30103
-3.1717591	<s> UNAVAILABLE	-0.30103
-3.1717591	<s> BELIEVE	-0.30103
-3.1717591	<s> BIRTH	-0.30103
-3.1717591	<s> GET	-0.30103
-3.1717591	<s> RECYCLING	-0.30103
-3.1717591	<s> LEARNING	-0.30103
-3.1717591	<s> DESTRUCTION	-0.30103
-3.1717591	<s> DEED	-0.30103
-3.1717591	<s> ALLOTTED	-0.30103
-3.1717591	<s> SISTER	-0.30103
-3.1717591	<s> MISSION	-0.30103
-3.1717591	<s> MONKEY	-0.30103
-3.1717591	<s> USER	-0.30103
-3.1717591	<s> OK	-0.30103
-3.1717591	<s> FAX	-0.30103
-3.1717591	<s> STEP	-0.30103
-3.1717591	<s> IF	-0.30103
-3.1717591	<s> OFFENDERS	-0.30103
-3.1717591	<s> NIGHT	-0.30103
-3.1717591	<s> QUITE	-0.30103
-3.1717591	<s> KISSING	-0.30103
-3.1717591	<s> TREASURER	-0.30103
-3.1717591	<s> FUN	-0.30103
-3.1717591	<s> DRESS	-0.30103
-3.1717591	<s> CONFERENCES	-0.30103
-3.1717591	<s> TUMOR	-0.30103
-3.1717591	<s> TOOK	-0.30103
-3.1717591	<s> DOOR	-0.30103
-3.1717591	<s> PARKWAYS	-0.30103
-3.1717591	<s> SHOUTING	-0.30103
-3.1717591	<s> STOP	-0.30103
-3.1717591	<s> WINDOW	-0.30103
-3.1717591	<s> UNICYCLE	-0.30103
-3.1717591	<s> DISCREET	-0.30103
-3.1717591	<s> LOSERS	-0.30103
-3.1717591	<s> MAKEUP	-0.30103
-3.1717591	<s> EVERY	-0.30103
-3.1717591	<s> QUACKS	-0.30103
-3.1717591	<s> THOROUGH	-0.30103
-3.1717591	<s> EVERYWHERE	-0.30103
-3.1717591	<s> FULLY	-0.30103
-3.1717591	<s> HEAT	-0.30103
-3.1717591	<s> RAGED	-0.30103
-3.1717591	<s> CHECKS	-0.30103
-3.1717591	<s> LOVELY	-0.30103
-3.1717591	<s> SAM	-0.30103
-3.1717591	<s> ARE	-0.30103
-3.1717591	<s> AWAY	-0.30103
-3.1717591	<s> EFFORTS	-0.30103
-3.1717591	<s> GAME	-0.30103
-3.1717591	<s> DREAM	-0.30103
-3.1717591	<s> SECOND	-0.30103
-3.1717591	<s> GOLDILOCKS	-0.30103
-3.1717591	<s> RED	-0.30103
-3.1717591	<s> EMAIL	-0.30103
-3.1717591	<s> MACHINERY	-0.30103
-3.1717591	<s> WINDY	-0.30103
-3.1717591	<s> I	-0.30103
-3.1717591	<s> FOURTH	-0.30103
-3.1717591	<s> BUCKLE	-0.30103
-3.1717591	<s> WIN	-0.30103
-3.1717591	<s> BREATHING	-0.30103
-3.1717591	<s> PILE	-0.30103
-3.1717591	<s> RULES	-0.30103
-3.1717591	<s> LAUGH	-0.30103
-3.1717591	<s> COMPANIES	-0.30103
-3.1717591	<s> EVENING	-0.30103
-3.1717591	<s> ASSIGNMENT	-0.30103
-3.1717591	<s> PHYSICS	-0.30103
-3.1717591	<s> MIDNIGHT	-0.30103
-3.1717591	<s> OWNED	-0.30103
-3.1717591	<s> CHOCOLATE	-0.30103
-3.1717591	<s> THIGH	-0.30103
-3.1717591	<s> SHACK	-0.30103
-3.1717591	<s> BEST	-0.30103
-3.1717591	<s> VISITED	-0.30103
-3.1717591	<s> TURN	-0.30103
-3.1717591	<s> WE	-0.30103
-3.1717591	<s> EXERCISE	-0.30103
-3.1717591	<s> PREVAILING	-0.30103
-3.1717591	<s> PRESIDENTIAL	-0.30103
-3.1717591	<s> PHOTOGRAPHS	-0.30103
-3.1717591	<s> FOUND	-0.30103
-3.1717591	<s> THREE	-0.30103
-3.1717591	<s> LIKE	-0.30103
-3.1717591	<s> MODERATION	-0.30103
-3.1717591	<s> SHE	-0.30103
-3.1717591	<s> EDUCATION	-0.30103
-3.1717591	<s> DID	-0.30103
-3.1717591	<s> SATURDAY	-0.30103
-3.1717591	<s> UNFORTUNATE	-0.30103
-3.1717591	<s> GARBAGE	-0.30103
-3.1717591	<s> MANY	-0.30103
-3.1717591	<s> JACKET	-0.30103
-3.1717591	<s> DOORS	-0.30103
-3.1717591	<s> EFFORT	-0.30103
-3.1717591	<s> OFFENSIVE	-0.30103
-3.1717591	<s> SCENE	-0.30103
-3.1717591	<s> ANY	-0.30103
-3.1717591	<s> VOICE	-0.30103
-3.1717591	<s> KEEPS	-0.30103
-3.1717591	<s> NO	-0.30103
-3.1717591	<s> BARRACKS	-0.30103
-3.1717591	<s> INTERESTING	-0.30103
-3.1717591	<s> MUCH	-0.30103
-3.1717591	<s> LYDIA	-0.30103
-3.1717591	<s> THOROUGHLY	-0.30103
-3.1717591	<s> TOSS	-0.30103
-3.1717591	<s> AMAZING	-0.30103
-3.1717591	<s> TRANSIT	-0.30103
-3.1717591	<s> TOIL	-0.30103
-3.1717591	<s> TENNIS	-0.30103
-3.1717591	<s> DOES	-0.30103
-3.1717591	<s> PRESIDENTS	-0.30103
-3.1717591	<s> MONTHS	-0.30103
-3.1717591	<s> EVER	-0.30103
-3.1717591	<s> USE	-0.30103
-3.1717591	<s> NOBODY	-0.30103
-3.1717591	<s> TURFED	-0.30103
-3.1717591	<s> FINE	-0.30103
-3.1717591	<s> SHOP	-0.30103
-3.1717591	<s> TOGETHER	-0.30103
-3.1717591	<s> OVERDRAWN	-0.30103
-3.1717591	<s> PERSISTENT	-0.30103
-3.1717591	<s> FORWARD	-0.30103
-3.1717591	<s> PICTURE	-0.30103
-3.1717591	<s> DETECTOR	-0.30103
-3.1717591	<s> HANDS	-0.30103
-3.1717591	<s> BROKE	-0.30103
-3.1717591	<s> RISEN	-0.30103
-3.1717591	<s> MUSIC	-0.30103
-3.1717591	<s> CHEMISTRY	-0.30103
-3.1717591	<s> QUESTIONING	-0.30103
-3.1717591	<s> CONSCIENCE	-0.30103
-3.1717591	<s> DOWN	-0.30103
-3.1717591	<s> COFFEE	-0.30103
-3.1717591	<s> PLUG	-0.30103
-3.1717591	<s> PLEASANT	-0.30103
-3.1717591	<s> YEAR	-0.30103
-3.1717591	<s> EXPLOSION	-0.30103
-3.1717591	<s> APPOINTMENT	-0.30103
-3.1717591	<s> ASSAULT	-0.30103
-3.1717591	<s> DIPPED	-0.30103
-3.1717591	<s> FUDGE	-0.30103
-3.1717591	<s> WEB	-0.30103
-3.1717591	<s> DUCK	-0.30103
-3.1717591	<s> SILLY	-0.30103
-3.1717591	<s> SHIP	-0.30103
-3.1717591	<s> DIPLOMACY	-0.30103
-3.1717591	<s> JOKE	-0.30103
-3.1717591	<s> LATE	-0.30103
-3.1717591	<s> CONTEST	-0.30103
-3.1717591	<s> FOLLOW	-0.30103
-3.1717591	<s> PERSON	-0.30103
-3.1717591	<s> MORE	-0.30103
-3.1717591	<s> BUS	-0.30103
-3.1717591	<s> SEMINARS	-0.30103
-3.1717591	<s> STEEP	-0.30103
-3.1717591	<s> ALGORITHM	-0.30103
-3.1717591	<s> HAMBURGER	-0.30103
-3.1717591	<s> ICE	-0.30103
-3.1717591	<s> WORRY	-0.30103
-3.1717591	<s> CANNOT	-0.30103
-3.1717591	<s> JONES	-0.30103
-3.1717591	<s> COMING	-0.30103
-3.1717591	<s> CARDS	-0.30103
-3.1717591	<s> TIRE	-0.30103
-3.1717591	<s> GENERATION	-0.30103
-3.1717591	<s> HAND	-0.30103
-3.1717591	<s> RIDICULOUS	-0.30103
-3.1717591	<s> SPEAK	-0.30103
-3.1717591	<s> BASES	-0.30103
-3.1717591	<s> COUNTRY	-0.30103
-3.1717591	<s> SYMPATHY	-0.30103
-3.1717591	<s> THAT	-0.30103
-3.1717591	<s> MORTGAGE	-0.30103
-3.1717591	<s> GETS	-0.30103
-3.1717591	<s> SPILL	-0.30103
-3.1717591	<s> BATTLES	-0.30103
-3.1717591	<s> MINIMUM	-0.30103
-3.1717591	<s> PROVIDE	-0.30103
-3.1717591	<s> OLYMPIC	-0.30103
-3.1717591	<s> GOLFERS	-0.30103
-3.1717591	<s> ACCOUNT	-0.30103
-3.1717591	<s> MICROSCOPES	-0.30103
-3.1717591	<s> WEEPING	-0.30103
-3.1717591	<s> SEEMS	-0.30103
-3.1717591	<s> AN	-0.30103
-3.1717591	<s> CITY	-0.30103
-3.1717591	<s> OBEY	-0.30103
-3.1717591	<s> RENT	-0.30103
-3.1717591	<s> WEEK	-0.30103
-3.1717591	<s> PROPRIETOR	-0.30103
-3.1717591	<s> ELECTIONS	-0.30103
-3.1717591	<s> EXPENSIVE	-0.30103
-3.1717591	<s> PUBLISHED	-0.30103
-3.1717591	<s> CARELESS	-0.30103
-3.1717591	<s> AWARE	-0.30103
-3.1717591	<s> THOSE	-0.30103
-3.1717591	<s> DINE	-0.30103
-3.1717591	<s> DELIVERY	-0.30103
-3.1717591	<s> WISDOM	-0.30103
-3.1717591	<s> COOLED	-0.30103
-3.1717591	<s> MIX	-0.30103
-3.1717591	<s> ENTER	-0.30103
-3.1717591	<s> STOCK	-0.30103
-3.1717591	<s> ENJOY	-0.30103
-3.1717591	<s> EXPENSES	-0.30103
-3.1717591	<s> JUST	-0.30103
-3.1717591	<s> DRINK	-0.30103
-3.1717591	<s> FORCE	-0.30103
-3.1717591	<s> BIG	-0.30103
-3.1717591	<s> FANS	-0.30103
-3.1717591	<s> IMAGINATION	-0.30103
-3.1717591	<s> SUBTRACTION	-0.30103
-3.1717591	<s> WALLET	-0.30103
-3.1717591	<s> BE	-0.30103
-3.1717591	<s> OBJECTIVE	-0.30103
-3.1717591	<s> YOUR	-0.30103
-3.1717591	<s> EVERYDAY	-0.30103
-3.1717591	<s> TWO	-0.30103
-3.1717591	<s> PIZZA	-0.30103
-3.1717591	<s> DOCTOR	-0.30103
-3.1717591	<s> TAKE	-0.30103
-3.1717591	<s> PAY	-0.30103
-3.1717591	<s> BORING	-0.30103
-3.1717591	<s> COURTS	-0.30103
-3.1717591	<s> DISTURBANCE	-0.30103
-3.1717591	<s> OIL	-0.30103
-3.1717591	<s> BILL	-0.30103
-3.1717591	<s> SLOW	-0.30103
-3.1717591	<s> INSURANCE	-0.30103
-3.1717591	<s> LAGOON	-0.30103
-3.1717591	<s> RAIN	-0.30103
-3.1717591	<s> EVERYONE	-0.30103
-3.1717591	<s> SOON	-0.30103
-3.1717591	<s> SYLLABUS	-0.30103
-3.1717591	<s> KNEES	-0.30103
-3.1717591	<s> VANILLA	-0.30103
-3.1717591	<s> CHANCELLOR	-0.30103
-3.1717591	<s> DRIVE	-0.30103
-3.1717591	<s> PREFERRED	-0.30103
-3.1717591	<s> ELSE	-0.30103
-3.1717591	<s> LOUDLY	-0.30103
-3.1717591	<s> ROCKS	-0.30103
-3.1717591	<s> EACH	-0.30103
-3.1717591	<s> MOVIE	-0.30103
-3.1717591	<s> LUNCH	-0.30103
-3.1717591	<s> EXAM	-0.30103
-3.1717591	<s> LOVE	-0.30103
-3.1717591	<s> HORN	-0.30103
-3.1717591	<s> TRADITIONAL	-0.30103
-3.1717591	<s> ACCEPTANCE	-0.30103
-3.1717591	<s> PROBLEM	-0.30103
-3.1717591	<s> NASTY	-0.30103
-3.1717591	<s> GLASSES	-0.30103
-3.1717591	<s> THESE	-0.30103
-3.1717591	<s> HEAD	-0.30103
-3.1717591	<s> ARGUING	-0.30103
-3.1717591	<s> WIDER	-0.30103
-3.1717591	<s> GIVE	-0.30103
-3.1717591	<s> NATION	-0.30103
-3.1717591	<s> IS	-0.30103
-3.1717591	<s> YOU	-0.30103
-3.1717591	<s> AIRPORT	-0.30103
-3.1717591	<s> PROFESSOR	-0.30103
-3.1717591	<s> CUT	-0.30103
-3.1717591	<s> PROTESTERS	-0.30103
-3.1717591	<s> EMPIRE	-0.30103
-3.1717591	<s> ASPIRATIONS	-0.30103
-3.1717591	<s> PHENOMENON	-0.30103
-3.1717591	<s> APPLE	-0.30103
-3.1717591	<s> SIDES	-0.30103
-3.1717591	<s> FIND	-0.30103
-3.1717591	<s> INVESTIGATE	-0.30103
-3.1717591	<s> REFERENDUM	-0.30103
-3.1717591	<s> SURGERY	-0.30103
-3.1717591	<s> SEASONS	-0.30103
-3.1717591	<s> ZERO	-0.30103
-3.1717591	<s> RESULTS	-0.30103
-3.1717591	<s> OPERA	-0.30103
-3.1717591	<s> FUEL	-0.30103
-3.1717591	<s> UNDERWENT	-0.30103
-3.1717591	<s> WINTER	-0.30103
-3.1717591	<s> SHRINE	-0.30103
-3.1717591	<s> PEEK	-0.30103
-3.1717591	<s> BROWSER	-0.30103
-3.1717591	<s> THIN	-0.30103
-3.1717591	<s> WANT	-0.30103
-3.1717591	<s> LASER	-0.30103
-3.1717591	<s> DESIRED	-0.30103
-3.1717591	<s> SENDS	-0.30103
-3.1717591	<s> SECURITY	-0.30103
-3.1717591	<s> RIGHT	-0.30103
-3.1717591	<s> NON	-0.30103
-3.1717591	<s> COVER	-0.30103
-3.1717591	<s> INTERACTIONS	-0.30103
-3.1717591	<s> SWORD	-0.30103
-3.1717591	<s> FEEL	-0.30103
-3.1717591	<s> AGREEMENT	-0.30103
-3.1717591	<s> ABANDONED	-0.30103
-3.1717591	<s> IMMEDIATELY	-0.30103
-3.1717591	<s> OBSERVATION	-0.30103
-3.1717591	<s> QUICK	-0.30103
-3.1717591	<s> SHEDS	-0.30103
-3.1717591	<s> BITES	-0.30103
-3.1717591	<s> HAIR	-0.30103
-3.1717591	<s> SANTA	-0.30103
-3.1717591	<s> DISCOURAGING	-0.30103
-3.1717591	<s> GREAT	-0.30103
-3.1717591	<s> UNDERSTOOD	-0.30103
-3.1717591	<s> MIGHTIER	-0.30103
-3.1717591	<s> CHALLENGED	-0.30103
-3.1717591	<s> RISK	-0.30103
-3.1717591	<s> CORRECT	-0.30103
-3.1717591	<s> ODD	-0.30103
-3.1717591	<s> PRIORITIES	-0.30103
-3.1717591	<s> LIGHT	-0.30103
-3.1717591	<s> DREAMS	-0.30103
-3.1717591	<s> RINGS	-0.30103
-3.1717591	<s> APARTMENTS	-0.30103
-3.1717591	<s> UNIVERSALLY	-0.30103
-3.1717591	<s> EXTRA	-0.30103
-3.1717591	<s> WHILE	-0.30103
-3.1717591	<s> EXTINCT	-0.30103
-3.1717591	<s> READING	-0.30103
-3.1717591	<s> SMALL	-0.30103
-3.1717591	<s> ROADS	-0.30103
-3.1717591	<s> MET	-0.30103
-3.1717591	<s> BUSY	-0.30103
-3.1717591	<s> HOURS	-0.30103
-3.1717591	<s> DEPARTMENT	-0.30103
-3.1717591	<s> ENTIRE	-0.30103
-3.1717591	<s> TONIGHT	-0.30103
-3.1717591	<s> ALMOST	-0.30103
-3.1717591	<s> MIGHT	-0.30103
-3.1717591	<s> VOTERS	-0.30103
-3.1717591	<s> ALLIGATOR	-0.30103
-3.1717591	<s> UNTIL	-0.30103
-3.1717591	<s> TALKING	-0.30103
-3.1717591	<s> FROM	-0.30103
-3.1717591	<s> BUT	-0.30103
-3.1717591	<s> BYPASS	-0.30103
-3.1717591	<s> CAPE	-0.30103
-3.1717591	<s> OCEANS	-0.30103
-3.1717591	<s> LEATHER	-0.30103
-3.1717591	<s> WROTE	-0.30103
-3.1717591	<s> FLAVORED	-0.30103
-3.1717591	<s> WENT	-0.30103
-3.1717591	<s> POWDER	-0.30103
-3.1717591	<s> FLYING	-0.30103
-3.1717591	<s> JUDGES	-0.30103
-3.1717591	<s> ANNIVERSARY	-0.30103
-3.1717591	<s> FALLING	-0.30103
-3.1717591	<s> LOOSE	-0.30103
-3.1717591	<s> AROUND	-0.30103
-3.1717591	<s> NOR	-0.30103
-3.1717591	<s> ASK	-0.30103
-3.1717591	<s> SLIPPERY	-0.30103
-3.1717591	<s> GLANCE	-0.30103
-3.1717591	<s> ENOUGH	-0.30103
-3.1717591	<s> SUGGESTS	-0.30103
-3.1717591	<s> TOUCHDOWN	-0.30103
-3.1717591	<s> CURVE	-0.30103
-3.1717591	<s> ENCOURAGEMENT	-0.30103
-3.1717591	<s> EXCITED	-0.30103
-3.1717591	<s> BETTER	-0.30103
-3.1717591	<s> PLAYED	-0.30103
-3.1717591	<s> BALANCE	-0.30103
-3.1717591	<s> CARES	-0.30103
-3.1717591	<s> STABILITY	-0.30103
-3.1717591	<s> LOOK	-0.30103
-3.1717591	<s> SOMEONE	-0.30103
-3.1717591	<s> JEWELS	-0.30103
-3.1717591	<s> RETURN	-0.30103
-3.1717591	<s> INSULATION	-0.30103
-3.1717591	<s> RATIONALE	-0.30103
-3.1717591	<s> HANDLED	-0.30103
-3.1717591	<s> WEEKENDS	-0.30103
-3.1717591	<s> INSPIRING	-0.30103
-3.1717591	<s> POPULARITY	-0.30103
-3.1717591	<s> LIVING	-0.30103
-3.1717591	<s> MEN	-0.30103
-3.1717591	<s> PERIOD	-0.30103
-3.1717591	<s> WALK	-0.30103
-3.1717591	<s> NEITHER	-0.30103
-3.1717591	<s> PUBLIC	-0.30103
-3.1717591	<s> WANTS	-0.30103
-3.1717591	<s> SOME	-0.30103
-3.1717591	<s> RUNNING	-0.30103
-3.1717591	<s> BLAZING	-0.30103
-3.1717591	<s> PRIORITY	-0.30103
-3.1717591	<s> FOREST	-0.30103
-3.1717591	<s> EXPRESS	-0.30103
-3.1717591	<s> GOVERNMENT	-0.30103
-3.1717591	<s> ORDERED	-0.30103
-3.1717591	<s> HERE	-0.30103
-3.1717591	<s> PATIO	-0.30103
-3.1717591	<s> VOTE	-0.30103
-3.1717591	<s> OBJECTS	-0.30103
-3.1717591	<s> WONDERFUL	-0.30103
-3.1717591	<s> CARE	-0.30103
-3.1717591	<s> WAVES	-0.30103
-3.1717591	<s> CHAMBER	-0.30103
-3.1717591	<s> PHRASES	-0.30103
-3.1717591	<s> PUT	-0.30103
-3.1717591	<s> CHILD	-0.30103
-3.1717591	<s> FRIENDLY	-0.30103
-3.1717591	<s> LOTTERY	-0.30103
-3.1717591	<s> SHOPPING	-0.30103
-3.1717591	<s> IDIOT	-0.30103
-3.1717591	<s> BAD	-0.30103
-3.1717591	<s> LONG	-0.30103
-3.1717591	<s> DATE	-0.30103
-3.1717591	<s> CAKE	-0.30103
-3.1717591	<s> MARY	-0.30103
-3.1717591	<s> PENALTY	-0.30103
-3.1717591	<s> RUN	-0.30103
-3.1717591	<s> EVERYBODY	-0.30103
-3.1717591	<s> MAXIMUM	-0.30103
-3.1717591	<s> FOG	-0.30103
-3.1717591	<s> TREAT	-0.30103
-3.1717591	<s> PAINTINGS	-0.30103
-3.1717591	<s> HELPS	-0.30103
-3.1717591	<s> SALESMEN	-0.30103
-3.1717591	<s> DISCOVERING	-0.30103
-3.1717591	<s> HAS	-0.30103
-3.1717591	<s> LOOSES	-0.30103
-3.1717591	<s> PROFIT	-0.30103
-3.1717591	<s> OF	-0.30103
-3.1717591	<s> PEOPLE	-0.30103
-3.1717591	<s> EARLY	-0.30103
-3.1717591	<s> BEAUTIFUL	-0.30103
-3.1717591	<s> MISSED	-0.30103
-3.1717591	<s> STREETS	-0.30103
-3.1717591	<s> RID	-0.30103
-3.1717591	<s> HIGHER	-0.30103
-3.1717591	<s> BONE	-0.30103
-3.1717591	<s> WISHFUL	-0.30103
-3.1717591	<s> EXPERIENCE	-0.30103
-3.1717591	<s> THAN	-0.30103
-3.1717591	<s> DO	-0.30103
-3.1717591	<s> BEGINNING	-0.30103
-3.1717591	<s> PARTS	-0.30103
-3.1717591	<s> LEAVING	-0.30103
-3.1717591	<s> CLOSED	-0.30103
-3.1717591	<s> HOW	-0.30103
-3.1717591	<s> LOST	-0.30103
-3.1717591	<s> INDEX	-0.30103
-3.1717591	<s> DINOSAURS	-0.30103
-3.1717591	<s> CELLS	-0.30103
-3.1717591	<s> ACCEPT	-0.30103
-3.1717591	<s> STAY	-0.30103
-3.1717591	<s> CLAUS	-0.30103
-3.1717591	<s> SIT	-0.30103
-3.1717591	<s> TAKING	-0.30103
-3.1717591	<s> DRUGS	-0.30103
-3.1717591	<s> GOT	-0.30103
-3.1717591	<s> NOON	-0.30103
-3.1717591	<s> FINER	-0.30103
-3.1717591	<s> EAT	-0.30103
-3.1717591	<s> FUTILE	-0.30103
-3.1717591	<s> RISES	-0.30103
-3.1717591	<s> DAUGHTERS	-0.30103
-3.1717591	<s> NEED	-0.30103
-3.1717591	<s> SPACE	-0.30103
-3.1717591	<s> ACCORDING	-0.30103
-3.1717591	<s> DRIVERS	-0.30103
-3.1717591	<s> WORM	-0.30103
-3.1717591	<s> BULLET	-0.30103
-3.1717591	<s> DAY	-0.30103
-3.1717591	<s> ELEVATOR	-0.30103
-3.1717591	<s> TEMPERAMENT	-0.30103
-3.1717591	<s> HATE	-0.30103
-3.1717591	<s> AM	-0.30103
-3.1717591	<s> CUSTODY	-0.30103
-3.1717591	<s> TEACHING	-0.30103
-3.1717591	<s> TRAFFIC	-0.30103
-3.1717591	<s> SPOONFUL	-0.30103
-3.1717591	<s> THEIR	-0.30103
-3.1717591	<s> FEBRUARY	-0.30103
-3.1717591	<s> JOB	-0.30103
-3.1717591	<s> AFTER	-0.30103
-3.1717591	<s> SKATE	-0.30103
-3.1717591	<s> CAT	-0.30103
-3.1717591	<s> NEVER	-0.30103
-3.1717591	<s> TRUCKS	-0.30103
-3.1717591	<s> NICE	-0.30103
-3.1717591	<s> DOLPHINS	-0.30103
-3.1717591	<s> WELL	-0.30103
-3.1717591	<s> SEES	-0.30103
-3.1717591	<s> NUMBER	-0.30103
-3.1717591	<s> LEAP	-0.30103
-3.1717591	<s> KILLER	-0.30103
-3.1717591	<s> MEET	-0.30103
-3.1717591	<s> GAS	-0.30103
-3.1717591	<s> DOG	-0.30103
-3.1717591	<s> YOUNG	-0.30103
-3.1717591	<s> BAKING	-0.30103
-3.1717591	<s> PRESCRIPTION	-0.30103
-3.1717591	<s> WITNESSES	-0.30103
-3.1717591	<s> GOING	-0.30103
-3.1717591	<s> BARE	-0.30103
-3.1717591	<s> BAROQUE	-0.30103
-3.1717591	<s> WEEKEND	-0.30103
-3.1717591	<s> LAND	-0.30103
-3.1717591	<s> PIG	-0.30103
-3.1717591	<s> PUMPING	-0.30103
-3.1717591	<s> LATER	-0.30103
-3.1717591	<s> FIT	-0.30103
-3.1717591	<s> BREAKS	-0.30103
-3.1717591	<s> REDRESS	-0.30103
-3.1717591	<s> LIFE	-0.30103
-3.1717591	<s> ELEPHANTS	-0.30103
-3.1717591	<s> CONSTRUCTION	-0.30103
-3.1717591	<s> HISTORIC	-0.30103
-3.1717591	<s> BEER	-0.30103
-3.1717591	<s> FAILURE	-0.30103
-3.1717591	<s> OVER	-0.30103
-3.1717591	<s> COMPLETELY	-0.30103
-3.1717591	<s> CHEMICAL	-0.30103
-3.1717591	<s> COALITION	-0.30103
-3.1717591	<s> FOX	-0.30103
-3.1717591	<s> RIFE	-0.30103
-3.1717591	<s> SOLD	-0.30103
-3.1717591	<s> JAMMED	-0.30103
-3.1717591	<s> SIGN	-0.30103
-3.1717591	<s> RECRUITMENT	-0.30103
-3.1717591	<s> LAUNDRY	-0.30103
-3.1717591	<s> END	-0.30103
-3.1717591	<s> USUALLY	-0.30103
-3.1717591	<s> COTTAGE	-0.30103
-3.1717591	<s> ZOOM	-0.30103
-3.1717591	<s> EIGHT	-0.30103
-3.1717591	<s> EARTH	-0.30103
-3.1717591	<s> AND	-0.30103
-3.1717591	<s> IDEA	-0.30103
-3.1717591	<s> BORROWER	-0.30103
-3.1717591	<s> BEARS	-0.30103
-3.1717591	<s> INDICATION	-0.30103
-3.1717591	<s> VIDEO	-0.30103
-3.1717591	<s> STUPID	-0.30103
-3.1717591	<s> SUNNY	-0.30103
-3.1717591	<s> SPECTACULAR	-0.30103
-3.1717591	<s> RACKETBALL	-0.30103
-3.1717591	<s> ELECTRIC	-0.30103
-3.1717591	<s> WHOLE	-0.30103
-3.1717591	<s> PROVINCES	-0.30103
-3.1717591	<s> UNIVERSITIES	-0.30103
-3.1717591	<s> DISGUSTING	-0.30103
-3.1717591	<s> BURIED	-0.30103
-3.1717591	<s> BLOODSHED	-0.30103
-3.1717591	<s> CAN	-0.30103
-3.1717591	<s> EAST	-0.30103
-3.1717591	<s> ANNOUNCE	-0.30103
-3.1717591	<s> CONTRAST	-0.30103
-3.1717591	<s> LONGER	-0.30103
-3.1717591	<s> SURE	-0.30103
-3.1717591	<s> PARK	-0.30103
-3.1717591	<s> QUAKES	-0.30103
-3.1717591	<s> DIRECTION	-0.30103
-3.1717591	<s> MYSTERY	-0.30103
-3.1717591	<s> WHEN	-0.30103
-3.1717591	<s> IDES	-0.30103
-3.1717591	<s> SPAGHETTI	-0.30103
-3.1717591	<s> BETWEEN	-0.30103
-3.1717591	<s> GEL	-0.30103
-3.1717591	<s> TESTS	-0.30103
-3.1717591	<s> EXCHANGE	-0.30103
-3.1717591	<s> TAXATION	-0.30103
-3.1717591	<s> PROVIDED	-0.30103
-3.1717591	<s> SHORT	-0.30103
-3.1717591	<s> FRONT	-0.30103
-3.1717591	<s> PSYCHOLOGY	-0.30103
-3.1717591	<s> TRAVELING	-0.30103
-3.1717591	<s> MEANS	-0.30103
-3.1717591	<s> MADE	-0.30103
-3.1717591	<s> ADDITION	-0.30103
-3.1717591	<s> FIELD	-0.30103
-3.1717591	<s> TICKETS	-0.30103
-3.1717591	<s> WATCHED	-0.30103
-3.1717591	<s> REACH	-0.30103
-3.1717591	<s> HELP	-0.30103
-3.1717591	<s> THINGS	-0.30103
-3.1717591	<s> ANYTHING	-0.30103
-3.1717591	<s> SHOULD	-0.30103
-3.1717591	<s> DORMITORY	-0.30103
-3.1717591	<s> POSTAL	-0.30103
-3.1717591	<s> STUCK	-0.30103
-3.1717591	<s> AGAIN	-0.30103
-3.1717591	<s> PIMP	-0.30103
-3.1717591	<s> HANDLE	-0.30103
-3.1717591	<s> SAYS	-0.30103
-3.1717591	<s> CRIME	-0.30103
-3.1717591	<s> NOTE	-0.30103
-3.1717591	<s> SUPERMAN	-0.30103
-3.1717591	<s> CENTURY	-0.30103
-3.1717591	<s> NOTHING	-0.30103
-3.1717591	<s> TREE	-0.30103
-3.1717591	<s> ASKED	-0.30103
-3.1717591	<s> TEAM	-0.30103
-3.1717591	<s> WINNERS	-0.30103
-3.1717591	<s> QUOTA	-0.30103
-3.1717591	<s> MY	-0.30103
-3.1717591	<s> PARKING	-0.30103
-3.1717591	<s> BEFORE	-0.30103
-3.1717591	<s> YET	-0.30103
-3.1717591	<s> BATH	-0.30103
-3.1717591	<s> WITHDRAWAL	-0.30103
-3.1717591	<s> DRIVING	-0.30103
-3.1717591	<s> INEFFICIENT	-0.30103
-3.1717591	<s> HER	-0.30103
-3.1717591	<s> STAYING	-0.30103
-3.1717591	<s> SUM	-0.30103
-3.1717591	<s> EQUATION	-0.30103
-3.1717591	<s> CIRCUMSTANCES	-0.30103
-3.1717591	<s> BOOKS	-0.30103
-3.1717591	<s> TAKES	-0.30103
-3.1717591	<s> JOBS	-0.30103
-3.1717591	<s> OPPOSING	-0.30103
-3.1717591	<s> HIM	-0.30103
-3.1717591	<s> OFFER	-0.30103
-3.1717591	<s> CHLORINE	-0.30103
-3.1717591	<s> WORE	-0.30103
-3.1717591	<s> BIGGEST	-0.30103
-3.1717591	<s> GOVERNMENTS	-0.30103
-3.1717591	<s> FIGURE	-0.30103
-3.1717591	<s> MERGER	-0.30103
-3.1717591	<s> LEVEE	-0.30103
-3.1717591	<s> GIVES	-0.30103
-3.1717591	<s> PICKET	-0.30103
-3.1717591	<s> SWEATSHIRT	-0.30103
-3.1717591	<s> COUPON	-0.30103
-3.1717591	<s> HOLD	-0.30103
-3.1717591	<s> DECISION	-0.30103
-3.1717591	<s> ABOUT	-0.30103
-3.1717591	<s> TABLETOP	-0.30103
-3.1717591	<s> NERVOUS	-0.30103
-3.1717591	<s> TREASURY	-0.30103
-3.1717591	<s> APPEARS	-0.30103
-3.1717591	<s> GAMBLERS	-0.30103
-3.1717591	<s> MOTIVATIONAL	-0.30103
-3.1717591	<s> SYSTEM	-0.30103
-3.1717591	<s> HOUSEKEEPER	-0.30103
-3.1717591	<s> JUMPING	-0.30103
-3.1717591	<s> SEEN	-0.30103
-3.1717591	<s> CALLED	-0.30103
-3.1717591	<s> GRANITE	-0.30103
-3.1717591	<s> POWER	-0.30103
-3.1717591	<s> INFORMATION	-0.30103
-3.1717591	<s> WHY	-0.30103
-3.1717591	<s> UNIONS	-0.30103
-3.1717591	<s> RESPONSE	-0.30103
-3.1717591	<s> MONITORED	-0.30103
-3.1717591	<s> PERSONAL	-0.30103
-3.1717591	<s> SUBURBS	-0.30103
-3.1717591	<s> NATIONS	-0.30103
-3.1717591	<s> MURDER	-0.30103
-3.1717591	<s> CREAM	-0.30103
-3.1717591	<s> MINUTE	-0.30103
-3.1717591	<s> ECONOMY	-0.30103
-3.1717591	<s> YARD	-0.30103
-3.1717591	<s> ENGINE	-0.30103
-3.1717591	<s> FLAT	-0.30103
-3.1717591	<s> FREUD	-0.30103
-3.1717591	<s> CROWN	-0.30103
-3.1717591	<s> HEAR	-0.30103
-3.1717591	<s> RIDING	-0.30103
-3.1717591	<s> RAISE	-0.30103
-3.1717591	<s> WEAR	-0.30103
-3.1717591	<s> GUIDELINES	-0.30103
-3.1717591	<s> ALL	-0.30103
-3.1717591	<s> MAN	-0.30103
-3.1717591	<s> TRIPLE	-0.30103
-3.1717591	<s> ORGANIZATION	-0.30103
-3.1717591	<s> PRESENCE	-0.30103
-3.1717591	<s> GUN	-0.30103
-3.1717591	<s> DAILY	-0.30103
-3.1717591	<s> DESERVES	-0.30103
-3.1717591	<s> MONTH	-0.30103
-3.1717591	<s> HIGH	-0.30103
-3.1717591	<s> SUCH	-0.30103
-3.1717591	<s> TRIED	-0.30103
-3.1717591	<s> EXASPERATION	-0.30103
-3.1717591	<s> COLLAPSE	-0.30103
-3.1717591	<s> TIME	-0.30103
-3.1717591	<s> DARING	-0.30103
-3.1717591	<s> LAST	-0.30103
-3.1717591	<s> REQUIRES	-0.30103
-3.1717591	<s> HAD	-0.30103
-3.1717591	<s> COME	-0.30103
-3.1717591	<s> CHANGED	-0.30103
-3.1717591	<s> COURSE	-0.30103
-3.1717591	<s> BROKEN	-0.30103
-3.1717591	<s> DISASTER	-0.30103
-3.1717591	<s> SWAMP	-0.30103
-3.1717591	<s> DEWDROP	-0.30103
-3.1717591	<s> BLAST	-0.30103
-3.1717591	<s> PRAYER	-0.30103
-3.1717591	<s> PERSONS	-0.30103
-3.1717591	<s> THROUGH	-0.30103
-3.1717591	<s> HIGHWAY	-0.30103
-3.1717591	<s> EXPECTANCY	-0.30103
-3.1717591	<s> THIS	-0.30103
-3.1717591	<s> SUPER	-0.30103
-3.1717591	<s> A	-0.30103
-3.1717591	<s> BEEN	-0.30103
-3.1717591	<s> VALIDATED	-0.30103
-3.1717591	<s> MEETING	-0.30103
-3.1717591	<s> DICTION	-0.30103
-3.1717591	<s> LABOUR	-0.30103
-3.1717591	<s> SERVICES	-0.30103
-3.1717591	<s> HOLE	-0.30103
-3.1717591	<s> YAP	-0.30103
-3.1717591	<s> ADULT	-0.30103
-3.1717591	<s> ME	-0.30103
-3.1717591	<s> SHIRTS	-0.30103
-3.1717591	<s> SEVEN	-0.30103
-3.1717591	<s> WARM	-0.30103
-3.1717591	<s> PRECAUTIONS	-0.30103
-3.1717591	<s> IRREGULAR	-0.30103
-3.1717591	<s> OBLIGATIONS	-0.30103
-3.1717591	<s> RECTANGULAR	-0.30103
-3.1717591	<s> RACE	-0.30103
-3.1717591	<s> STIMULUS	-0.30103
-3.1717591	<s> GAP	-0.30103
-3.1717591	<s> GOES	-0.30103
-3.1717591	<s> BREAK	-0.30103
-3.1717591	<s> SPEED	-0.30103
-3.1717591	<s> SUCCEED	-0.30103
-3.1717591	<s> ANYMORE	-0.30103
-3.1717591	<s> TOWER	-0.30103
-3.1717591	<s> TOO	-0.30103
-3.1717591	<s> TRAINS	-0.30103
-3.1717591	<s> DROVE	-0.30103
-3.1717591	<s> MOST	-0.30103
-3.1717591	<s> PLEASE	-0.30103
-3.1717591	<s> WINNER	-0.30103
-3.1717591	<s> UP	-0.30103
-3.1717591	<s> US	-0.30103
-3.1717591	<s> COMPLAINTS	-0.30103
-3.1717591	<s> FEELING	-0.30103
-3.1717591	<s> PEN	-0.30103
-3.1717591	<s> DOW	-0.30103
-3.1717591	<s> DREAMERS	-0.30103
-3.1717591	<s> BIKE	-0.30103
-3.1717591	<s> COMMUNICATE	-0.30103
-3.1717591	<s> NEEDS	-0.30103
-3.1717591	<s> AGES	-0.30103
-3.1717591	<s> TOMORROW	-0.30103
-3.1717591	<s> THERE	-0.30103
-3.1717591	<s> SUCKER	-0.30103
-3.1717591	<s> MEDIEVAL	-0.30103
-3.1717591	<s> FOUR	-0.30103
-3.1717591	<s> RELATIONS	-0.30103
-3.1717591	<s> HOUR	-0.30103
-3.1717591	<s> PROTECT	-0.30103
-3.1717591	<s> OCCASIONAL	-0.30103
-3.1717591	<s> ROMAN	-0.30103
-3.1717591	<s> SONS	-0.30103
-3.1717591	<s> BIRD	-0.30103
-3.1717591	<s> SPRAWLING	-0.30103
-3.1717591	<s> BALL	-0.30103
-3.1717591	<s> TO	-0.30103
-3.1717591	<s> LAVATORY	-0.30103
-3.1717591	<s> GALLERY	-0.30103
-3.1717591	<s> WEARS	-0.30103
-3.1717591	<s> DRY	-0.30103
-3.1717591	<s> FEW	-0.30103
-3.1717591	<s> PUNISHMENT	-0.30103
-3.1717591	<s> RAPIDLY	-0.30103
-3.1717591	<s> LEAVE	-0.30103
-3.1717591	<s> TAPE	-0.30103
-3.1717591	<s> THANK	-0.30103
-3.1717591	<s> NEEDED	-0.30103
-3.1717591	<s> LARGEST	-0.30103
-3.1717591	<s> NOW	-0.30103
-3.1717591	<s> RESULT	-0.30103
-3.1717591	<s> DOUBLE	-0.30103
-3.1717591	<s> FRIEND	-0.30103
-3.1717591	<s> ELECTRICAL	-0.30103
-3.1717591	<s> TRAVEL	-0.30103
-3.1717591	<s> BLOCKED	-0.30103
-3.1717591	<s> LUCKILY	-0.30103
-3.1717591	<s> THE	-0.30103
-3.1717591	<s> TIE	-0.30103
-3.1717591	<s> WAY	-0.30103
-3.1717591	<s> ROVER	-0.30103
-3.1717591	<s> ONLY	-0.30103
-3.1717591	<s> SEE	-0.30103
-3.1717591	<s> PANEL	-0.30103
-3.1717591	<s> MAKES	-0.30103
-3.1717591	<s> KEEP	-0.30103
-3.1717591	<s> WILLOWS	-0.30103
-3.1717591	<s> SOUND	-0.30103
-3.1717591	<s> COURT	-0.30103
-3.1717591	<s> INCREASED	-0.30103
-3.1717591	<s> CLOSE	-0.30103
-3.1717591	<s> SPEECH	-0.30103
-3.1717591	<s> SATURN	-0.30103
-3.1717591	<s> HOME	-0.30103
-3.1717591	<s> CAMPING	-0.30103
-3.1717591	<s> WAS	-0.30103
-3.1717591	<s> AVOIDED	-0.30103
-3.1717591	<s> ALLERGIC	-0.30103
-3.1717591	<s> VALID	-0.30103
-3.1717591	<s> FACTS	-0.30103
-3.1717591	<s> SCRATCH	-0.30103
-3.1717591	<s> KIDS	-0.30103
-3.1717591	<s> VICTIMS	-0.30103
-3.1717591	<s> CARS	-0.30103
-3.1717591	<s> PAID	-0.30103
-3.1717591	<s> PRESENTATION	-0.30103
-3.1717591	<s> CARPET	-0.30103
-3.1717591	<s> JUMPED	-0.30103
-3.1717591	<s> POISONOUS	-0.30103
-3.1717591	<s> CONCENTRATE	-0.30103
-3.1717591	<s> FOREVER	-0.30103
-3.1717591	<s> TRY	-0.30103
-3.1717591	<s> WATER	-0.30103
-3.1717591	<s> CONNECTED	-0.30103
-3.1717591	<s> TURTLENECK	-0.30103
-3.1717591	<s> BLAZED	-0.30103
-3.1717591	<s> FOOTBALL	-0.30103
-3.1717591	<s> VERBS	-0.30103
-3.1717591	<s> SOCKET	-0.30103
-3.1717591	<s> WORK	-0.30103
-3.1717591	<s> REQUIRE	-0.30103
-3.1717591	<s> LOCKED	-0.30103
-3.1717591	<s> COMPLETE	-0.30103
-3.1717591	<s> FINGERS	-0.30103
-3.1717591	<s> STRAINED	-0.30103
-3.1717591	<s> COLD	-0.30103
-3.1717591	<s> BY	-0.30103
-3.1717591	<s> WOMEN	-0.30103
-3.1717591	<s> CORRECTION	-0.30103
-3.1717591	<s> GROW	-0.30103
-3.1717591	<s> MOM	-0.30103
-3.1717591	<s> EMPLOYEE	-0.30103
-3.1717591	<s> THEY	-0.30103
-3.1717591	<s> CORONATION	-0.30103
-3.1717591	<s> CALL	-0.30103
-3.1717591	<s> BATMAN	-0.30103
-3.1717591	<s> HONEST	-0.30103
-3.1717591	<s> MASK	-0.30103
-3.1717591	<s> KING	-0.30103
-3.1717591	<s> PEANUTS	-0.30103
-3.1717591	<s> MAKE	-0.30103
-3.1717591	<s> REJECTION	-0.30103
-3.1717591	<s> BATHROOM	-0.30103
-3.1717591	<s> BITE	-0.30103
-3.1717591	<s> EXCELLENT	-0.30103
-3.1717591	<s> MARCH	-0.30103
-3.1717591	<s> CAPITAL	-0.30103
-3.1717591	<s> WERE	-0.30103
-3.1717591	<s> SPEEDING	-0.30103
-3.1717591	<s> QUESTION	-0.30103
-3.1717591	<s> MIND	-0.30103
-3.1717591	<s> WILL	-0.30103
-3.1717591	<s> WORKING	-0.30103
-3.1717591	<s> RATTLE	-0.30103
-3.1717591	<s> PREPARE	-0.30103
-3.1717591	<s> WRITING	-0.30103
-3.1717591	<s> SILVER	-0.30103
-3.1717591	<s> VERY	-0.30103
-3.1717591	<s> STYLE	-0.30103
-3.1717591	<s> PLACE	-0.30103
-3.1717591	<s> CROWDED	-0.30103
-3.1717591	<s> DIFFICULT	-0.30103
-3.1717591	<s> SQUANDER	-0.30103
-3.1717591	<s> SWIM	-0.30103
-3.1717591	<s> AHEAD	-0.30103
-3.1717591	<s> TODAY	-0.30103
-3.1717591	<s> JOIN	-0.30103
-3.1717591	<s> SO	-0.30103
-3.1717591	<s> TEN	-0.30103
-3.1717591	<s> RAINDROPS	-0.30103
-3.1717591	<s> PRINTER	-0.30103
-3.1717591	<s> HANDICAPPED	-0.30103
-3.1717591	<s> LIMITED	-0.30103
-3.1717591	<s> AFRAID	-0.30103
-3.1717591	<s> WARRANTY	-0.30103
-3.1717591	<s> PIES	-0.30103
-3.1717591	<s> REGISTRATION	-0.30103
-3.1717591	<s> ORDER	-0.30103
-3.1717591	<s> HEROIC	-0.30103
-3.1717591	<s> DEPOT	-0.30103
-3.1717591	<s> WORLD	-0.30103
-3.1717591	<s> FLASHING	-0.30103
-3.1717591	<s> DECISIONS	-0.30103
-3.1717591	<s> LOW	-0.30103
-3.1717591	<s> AS	-0.30103
-3.1717591	<s> GREASY	-0.30103
-3.1717591	<s> QUESTIONS	-0.30103
-3.1717591	<s> WHAT	-0.30103
-3.1717591	<s> TASTE	-0.30103
-3.1717591	<s> EDITION	-0.30103
-3.1717591	<s> INTERFACE	-0.30103
-3.1717591	<s> ROUND	-0.30103
-3.1717591	<s> SUBDIVISIONS	-0.30103
-3.1717591	<s> QUIT	-0.30103
-3.1717591	<s> CONSIDERATION	-0.30103
-3.1717591	<s> BILLS	-0.30103
-3.1717591	<s> IT	-0.30103
-3.1717591	<s> EASY	-0.30103
-3.1717591	<s> QUICKLY	-0.30103
-3.1717591	<s> AT	-0.30103
-3.1717591	<s> IMPORTANT	-0.30103
-3.1717591	<s> MICE	-0.30103
-3.1717591	<s> SHOULDERS	-0.30103
-3.1717591	<s> METER	-0.30103
-3.1717591	<s> MUST	-0.30103
-3.1717591	<s> SOUNDS	-0.30103
-3.1717591	<s> THOUSAND	-0.30103
-3.1717591	<s> SKIMMED	-0.30103
-3.1717591	<s> ETIQUETTE	-0.30103
-3.1717591	<s> SUITE	-0.30103
-3.1717591	<s> SUBJECTS	-0.30103
-3.1717591	<s> UNACCEPTABLE	-0.30103
-3.1717591	<s> SHARP	-0.30103
-3.1717591	<s> WIND	-0.30103
-3.1717591	<s> ONE	-0.30103
-3.1717591	<s> PROBLEMS	-0.30103
-3.1717591	<s> SIZE	-0.30103
-3.1717591	<s> CUPS	-0.30103
-3.1717591	<s> JUSTICE	-0.30103
-3.1717591	<s> TREASURE	-0.30103
-3.1717591	<s> COMMENT	-0.30103
-3.1717591	<s> LIBRARY	-0.30103
-3.1717591	<s> FIRST	-0.30103
-3.1717591	<s> HECK	-0.30103
-3.1717591	<s> WITH	-0.30103
-3.1717591	<s> BOSS	-0.30103
-3.1717591	<s> UNION	-0.30103
-3.1717591	<s> FILE	-0.30103
-3.1717591	<s> DISCHARGED	-0.30103
-3.1717591	<s> POLITICAL	-0.30103
-3.1717591	<s> LIAR	-0.30103
-3.1717591	<s> GROWING	-0.30103
-3.1717591	<s> SAD	-0.30103
-3.1717591	<s> PROPOSAL	-0.30103
-3.1717591	<s> POOREST	-0.30103
-3.1717591	<s> YES	-0.30103
-3.1717591	<s> MAIL	-0.30103
-3.1717591	<s> FOLDS	-0.30103
-3.1717591	<s> RELUCTANT	-0.30103
-3.1717591	<s> REALLY	-0.30103
-3.1717591	<s> STIFF	-0.30103
-3.1717591	<s> CARD	-0.30103
-3.1717591	<s> NEWS	-0.30103
-3.1717591	<s> SUBJECT	-0.30103
-3.1717591	<s> SHALL	-0.30103
-3.1717591	<s> PRISON	-0.30103
-3.1717591	<s> LIE	-0.30103
-3.1717591	<s> EXCEED	-0.30103
-3.1717591	<s> RELIGION	-0.30103
-3.1717591	<s> LIMIT	-0.30103
-3.1717591	<s> CANCER	-0.30103
-3.1717591	<s> QUARTER	-0.30103
-3.1717591	<s> LESSON	-0.30103
-3.1717591	<s> SHIVERING	-0.30103
-3.1717591	<s> RESTAURANT	-0.30103
-3.1717591	<s> HOPES	-0.30103
-3.1717591	<s> FIVE	-0.30103
-3.1717591	<s> PLAYERS	-0.30103
-3.1717591	<s> AMOUNT	-0.30103
-3.1717591	<s> CHEESE	-0.30103
-3.1717591	<s> BACK	-0.30103
-3.1717591	<s> THINK	-0.30103
-3.1717591	<s> FALL	-0.30103
-3.1717591	<s> CANADA	-0.30103
-3.1717591	<s> SCHEDULING	-0.30103
-3.1717591	<s> SCHOOLS	-0.30103
-3.1717591	<s> KNOCKING	-0.30103
-3.1717591	<s> POPULATION	-0.30103
-3.1717591	<s> TOES	-0.30103
-3.1717591	<s> BANK	-0.30103
-3.1717591	<s> BRING	-0.30103
-3.1717591	<s> SICK	-0.30103
-3.1717591	<s> TOP	-0.30103
-3.1717591	<s> FACE	-0.30103
-3.1717591	<s> FAVOURITE	-0.30103
-3.1717591	<s> GROCERY	-0.30103
-3.1717591	<s> SAVING	-0.30103
-3.1717591	<s> REDOUBLE	-0.30103
-3.1717591	<s> PREFER	-0.30103
-3.1717591	<s> MINE	-0.30103
-3.1717591	<s> NEW	-0.30103
-3.1717591	<s> LISTEN	-0.30103
-3.1717591	<s> GOOD	-0.30103
-3.1717591	<s> COOKIES	-0.30103
-3.1717591	<s> BOYS	-0.30103
-3.1717591	<s> FAST	-0.30103
-3.1717591	<s> HARDEST	-0.30103
-3.1717591	<s> CAPITALIST	-0.30103
-3.1717591	<s> TIMES	-0.30103
-3.1717591	<s> DRIVEWAYS	-0.30103
-3.1717591	<s> SNAKE	-0.30103
-3.1717591	<s> LEARN	-0.30103
-3.1717591	<s> FOOD	-0.30103
-3.1717591	<s> BALONEY	-0.30103
-3.1717591	<s> NEARBY	-0.30103
-3.1717591	<s> PARTIES	-0.30103
-3.1717591	<s> CONSEQUENCES	-0.30103
-3.1717591	<s> CLASSICAL	-0.30103
-3.1717591	<s> COMPLICATED	-0.30103
-3.1717591	<s> DESERVE	-0.30103
-3.1717591	<s> SNOW	-0.30103
-3.1717591	<s> POLITICS	-0.30103
-3.1717591	<s> LINE	-0.30103
-3.1717591	<s> SADDLES	-0.30103
-3.1717591	<s> LEFT	-0.30103
-3.1717591	<s> MOTHER	-0.30103
-3.1717591	<s> SUMMIT	-0.30103
-3.1717591	<s> TRANSACTION	-0.30103
-3.1717591	<s> SAFETY	-0.30103
-3.1717591	<s> MATERNITY	-0.30103
-3.1717591	<s> SPILLED	-0.30103
-3.1717591	<s> STRANGERS	-0.30103
-3.1717591	<s> AGREE	-0.30103
-3.1717591	<s> SAY	-0.30103
-3.1717591	<s> BLOW	-0.30103
-3.1717591	<s> OR	-0.30103
-3.1717591	<s> OFF	-0.30103
-3.1717591	<s> THING	-0.30103
-3.1717591	<s> SMART	-0.30103
-3.1717591	<s> SEASON	-0.30103
-3.1717591	<s> WATCH	-0.30103
-3.1717591	<s> FAVORITE	-0.30103
-3.1717591	<s> ATHLETES	-0.30103
-3.1717591	<s> MONTHLY	-0.30103

\3-grams:
-0.05804763	<s> ALWAYS </s>	0
-0.05804763	<s> SIX </s>	0
-0.05804763	<s> BENIGN </s>	0
-0.05804763	<s> SENT </s>	0
-0.05804763	<s> ON </s>	0
-0.05804763	<s> PEERING </s>	0
-0.05804763	<s> ROBIN </s>	0
-0.05804763	<s> WOULD </s>	0
-0.05804763	<s> WORTH </s>	0
-0.05804763	<s> RECEIPTS </s>	0
-0.05804763	<s> LITTLE </s>	0
-0.05804763	<s> WORDS </s>	0
-0.05804763	<s> WHERE </s>	0
-0.05804763	<s> DENIAL </s>	0
-0.05804763	<s> FELL </s>	0
-0.05804763	<s> HOUSE </s>	0
-0.05804763	<s> REGISTERED </s>	0
-0.05804763	<s> RUNS </s>	0
-0.05804763	<s> ACCOMPANIED </s>	0
-0.05804763	<s> NEAR </s>	0
-0.05804763	<s> LENS </s>	0
-0.05804763	<s> HAVE </s>	0
-0.05804763	<s> EXCITING </s>	0
-0.05804763	<s> VALIUM </s>	0
-0.05804763	<s> SPOT </s>	0
-0.05804763	<s> MACHINE </s>	0
-0.05804763	<s> NUTTY </s>	0
-0.05804763	<s> PLAY </s>	0
-0.05804763	<s> EVENTUALLY </s>	0
-0.05804763	<s> IN </s>	0
-0.05804763	<s> ABOARD </s>	0
-0.05804763	<s> OFFENDS </s>	0
-0.05804763	<s> ENLARGED </s>	0
-0.05804763	<s> ANIMAL </s>	0
-0.05804763	<s> ENVIRONMENT </s>	0
-0.05804763	<s> MAJESTY </s>	0
-0.05804763	<s> HE </s>	0
-0.05804763	<s> COTTON </s>	0
-0.05804763	<s> LOOKS </s>	0
-0.05804763	<s> BEHIND </s>	0
-0.05804763	<s> FULL </s>	0
-0.05804763	<s> LAMB </s>	0
-0.05804763	<s> BROWN </s>	0
-0.05804763	<s> SENTENCE </s>	0
-0.05804763	<s> NOSE </s>	0
-0.05804763	<s> FOR </s>	0
-0.05804763	<s> ADVANCE </s>	0
-0.05804763	<s> JEDI </s>	0
-0.05804763	<s> GO </s>	0
-0.05804763	<s> ASTONISHMENT </s>	0
-0.05804763	<s> ACUTELY </s>	0
-0.05804763	<s> SLIP </s>	0
-0.05804763	<s> SERVICE </s>	0
-0.05804763	<s> CAR </s>	0
-0.05804763	<s> FISH </s>	0
-0.05804763	<s> WEARING </s>	0
-0.05804763	<s> STILL </s>	0
-0.05804763	<s> TROUBLE </s>	0
-0.05804763	<s> FREQUENTLY </s>	0
-0.05804763	<s> NOT </s>	0
-0.05804763	<s> EGO </s>	0
-0.05804763	<s> HEALTHY </s>	0
-0.05804763	<s> SUNDAY </s>	0
-0.05804763	<s> BEES </s>	0
-0.05804763	<s> ACCIDENT </s>	0
-0.05804763	<s> SAFE </s>	0
-0.05804763	<s> STRIKE </s>	0
-0.05804763	<s> ATE </s>	0
-0.05804763	<s> KNOW </s>	0
-0.05804763	<s> TRAIN </s>	0
-0.05804763	<s> BEWARE </s>	0
-0.05804763	<s> LENDER </s>	0
-0.05804763	<s> STARLIGHT </s>	0
-0.05804763	<s> EXAMPLE </s>	0
-0.05804763	<s> REFUSE </s>	0
-0.05804763	<s> GOSPEL </s>	0
-0.05804763	<s> PLAYING </s>	0
-0.05804763	<s> BUSINESS </s>	0
-0.05804763	<s> CHILDREN </s>	0
-0.05804763	<s> PRIZE </s>	0
-0.05804763	<s> PREDICTABLE </s>	0
-0.05804763	<s> SUNSET </s>	0
-0.05804763	<s> BURGLARS </s>	0
-0.05804763	<s> UNAVAILABLE </s>	0
-0.05804763	<s> BELIEVE </s>	0
-0.05804763	<s> BIRTH </s>	0
-0.05804763	<s> GET </s>	0
-0.05804763	<s> RECYCLING </s>	0
-0.05804763	<s> LEARNING </s>	0
-0.05804763	<s> DESTRUCTION </s>	0
-0.05804763	<s> DEED </s>	0
-0.05804763	<s> ALLOTTED </s>	0
-0.05804763	<s> SISTER </s>	0
-0.05804763	<s> MISSION </s>	0
-0.05804763	<s> MONKEY </s>	0
-0.05804763	<s> USER </s>	0
-0.05804763	<s> OK </s>	0
-0.05804763	<s> FAX </s>	0
-0.05804763	<s> STEP </s>	0
-0.05804763	<s> IF </s>	0
-0.05804763	<s> OFFENDERS </s>	0
-0.05804763	<s> NIGHT </s>	0
-0.05804763	<s> QUITE </s>	0
-0.05804763	<s> KISSING </s>	0
-0.05804763	<s> TREASURER </s>	0
-0.05804763	<s> FUN </s>	0
-0.05804763	<s> DRESS </s>	0
-0.05804763	<s> CONFERENCES </s>	0
-0.05804763	<s> TUMOR </s>	0
-0.05804763	<s> TOOK </s>	0
-0.05804763	<s> DOOR </s>	0
-0.05804763	<s> PARKWAYS </s>	0
-0.05804763	<s> SHOUTING </s>	0
-0.05804763	<s> STOP </s>	0
-0.05804763	<s> WINDOW </s>	0
-0.05804763	<s> UNICYCLE </s>	0
-0.05804763	<s> DISCREET </s>	0
-0.05804763	<s> LOSERS </s>	0
-0.05804763	<s> MAKEUP </s>	0
-0.05804763	<s> EVERY </s>	0
-0.05804763	<s> QUACKS </s>	0
-0.05804763	<s> THOROUGH </s>	0
-0.05804763	<s> EVERYWHERE </s>	0
-0.05804763	<s> FULLY </s>	0
-0.05804763	<s> HEAT </s>	0
-0.05804763	<s> RAGED </s>	0
-0.05804763	<s> CHECKS </s>	0
-0.05804763	<s> LOVELY </s>	0
-0.05804763	<s> SAM </s>	0
-0.05804763	<s> ARE </s>	0
-0.05804763	<s> AWAY </s>	0
-0.05804763	<s> EFFORTS </s>	0
-0.05804763	<s> GAME </s>	0
-0.05804763	<s> DREAM </s>	0
-0.05804763	<s> SECOND </s>	0
-0.05804763	<s> GOLDILOCKS </s>	0
-0.05804763	<s> RED </s>	0
-0.05804763	<s> EMAIL </s>	0
-0.05804763	<s> MACHINERY </s>	0
-0.05804763	<s> WINDY </s>	0
-0.05804763	<s> I </s>	0
-0.05804763	<s> FOURTH </s>	0
-0.05804763	<s> BUCKLE </s>	0
-0.05804763	<s> WIN </s>	0
-0.05804763	<s> BREATHING </s>	0
-0.05804763	<s> PILE </s>	0
-0.05804763	<s> RULES </s>	0
-0.05804763	<s> LAUGH </s>	0
-0.05804763	<s> COMPANIES </s>	0
-0.05804763	<s> EVENING </s>	0
-0.05804763	<s> ASSIGNMENT </s>	0
-0.05804763	<s> PHYSICS </s>	0
-0.05804763	<s> MIDNIGHT </s>	0
-0.05804763	<s> OWNED </s>	0
-0.05804763	<s> CHOCOLATE </s>	0
-0.05804763	<s> THIGH </s>	0
-0.05804763	<s> SHACK </s>	0
-0.05804763	<s> BEST </s>	0
-0.05804763	<s> VISITED </s>	0
-0.05804763	<s> TURN </s>	0
-0.05804763	<s> WE </s>	0
-0.05804763	<s> EXERCISE </s>	0
-0.05804763	<s> PREVAILING </s>	0
-0.05804763	<s> PRESIDENTIAL </s>	0
-0.05804763	<s> PHOTOGRAPHS </s>	0
-0.05804763	<s> FOUND </s>	0
-0.05804763	<s> THREE </s>	0
-0.05804763	<s> LIKE </s>	0
-0.05804763	<s> MODERATION </s>	0
-0.05804763	<s> SHE </s>	0
-0.05804763	<s> EDUCATION </s>	0
-0.05804763	<s> DID </s>	0
-0.05804763	<s> SATURDAY </s>	0
-0.05804763	<s> UNFORTUNATE </s>	0
-0.05804763	<s> GARBAGE </s>	0
-0.05804763	<s> MANY </s>	0
-0.05804763	<s> JACKET </s>	0
-0.05804763	<s> DOORS </s>	0
-0.05804763	<s> EFFORT </s>	0
-0.05804763	<s> OFFENSIVE </s>	0
-0.05804763	<s> SCENE </s>	0
-0.05804763	<s> ANY </s>	0
-0.05804763	<s> VOICE </s>	0
-0.05804763	<s> KEEPS </s>	0
-0.05804763	<s> NO </s>	0
-0.05804763	<s> BARRACKS </s>	0
-0.05804763	<s> INTERESTING </s>	0
-0.05804763	<s> MUCH </s>	0
-0.05804763	<s> LYDIA </s>	0
-0.05804763	<s> THOROUGHLY </s>	0
-0.05804763	<s> TOSS </s>	0
-0.05804763	<s> AMAZING </s>	0
-0.05804763	<s> TRANSIT </s>	0
-0.05804763	<s> TOIL </s>	0
-0.05804763	<s> TENNIS </s>	0
-0.05804763	<s> DOES </s>	0
-0.05804763	<s> PRESIDENTS </s>	0
-0.05804763	<s> MONTHS </s>	0
-0.05804763	<s> EVER </s>	0
-0.05804763	<s> USE </s>	0
-0.05804763	<s> NOBODY </s>	0
-0.05804763	<s> TURFED </s>	0
