\data\
ngram 1=29
ngram 2=388
ngram 3=1998
ngram 4=3547
ngram 5=3718

\1-grams:
-2.4285347	<unk>	0
0	<s>	-1.3908926
-1.2474679	</s>	0
-1.1918234	A	-0.72155625
-1.2677218	L	-0.632289
-1.5495592	W	-0.3626255
-1.4142944	Y	-0.42728835
-1.2677218	S	-0.5823835
-1.209591	I	-0.7047372
-1.9926275	X	-0.36146426
-1.5911646	B	-0.29146525
-1.1918234	E	-0.73325986
-1.4443687	N	-0.45211175
-1.4766817	G	-0.38602138
-1.3348536	T	-0.61694425
-1.2281166	O	-0.64557517
-1.4766817	P	-0.503315
-1.3861684	R	-0.52529407
-1.3113043	U	-0.5664716
-1.4142944	D	-0.5390383
-1.637182	H	-0.40534407
-1.4766817	C	-0.5006855
-1.5911646	F	-0.38375524
-1.4443687	M	-0.48756963
-1.637182	V	-0.49518788
-1.8945401	J	-0.3330918
-1.5911646	K	-0.5335685
-1.8945401	Q	-0.43448997
-1.9926275	Z	-0.2932756

\2-grams:
-1.381466	A </s>	0
-1.3424714	L </s>	0
-1.2950937	W </s>	0
-0.48787284	Y </s>	0
-0.7451864	S </s>	0
-1.753211	I </s>	0
-0.6554088	X </s>	0
-1.2196735	B </s>	0
-1.0452311	E </s>	0
-1.0496278	N </s>	0
-1.1534011	G </s>	0
-0.9490867	T </s>	0
-1.2393094	O </s>	0
-0.9542633	P </s>	0
-1.3686765	R </s>	0
-1.6552222	U </s>	0
-0.9203198	D </s>	0
-1.1781359	H </s>	0
-1.5678616	C </s>	0
-1.2546259	F </s>	0
-0.9690106	M </s>	0
-0.6537697	K </s>	0
-1.2610339	<s> A	-0.43354517
-0.8897972	L A	-0.33206663
-0.656707	W A	-0.37212813
-1.3966465	Y A	-0.25644788
-1.1188251	S A	-0.25581664
-1.6061724	I A	-0.22698176
-0.9828275	X A	-0.25644788
-1.0396225	B A	-0.2497013
-1.1856036	E A	-0.35979035
-1.0931499	N A	-0.28688172
-1.0215442	G A	-0.25644788
-1.1028807	T A	-0.29882845
-1.6793817	O A	-0.25644788
-1.0797242	P A	-0.23737022
-0.9559755	R A	-0.29766756
-1.3957926	U A	-0.21991733
-1.0297122	D A	-0.33462566
-0.95777744	H A	-0.27482957
-1.1840037	C A	-0.23880833
-1.3026572	F A	-0.23779866
-0.8956708	M A	-0.24437574
-0.6957462	V A	-0.26125592
-0.9575465	J A	-0.25644788
-1.3951046	K A	-0.25644788
-0.8622917	Z A	-0.25644788
-1.3258468	<s> L	-0.80517995
-1.0912089	A L	-0.4618624
-1.2592227	L L	-0.33475405
-1.3612523	W L	-0.25644788
-1.3861555	Y L	-0.25644788
-1.6923481	S L	-0.25644788
-1.1711954	I L	-0.35780382
-0.9467756	B L	-0.30293757
-1.1421312	E L	-0.34521008
-1.5457218	N L	-0.25644788
-1.3937924	G L	-0.18622254
-1.6322744	T L	-0.20839281
-1.2877026	O L	-0.29803672
-1.096943	P L	-0.33455655
-1.6389539	R L	-0.25644788
-0.95434433	U L	-0.31367347
-1.3285565	D L	-0.2404287
-1.3474452	H L	-0.21991733
-1.5376403	C L	-0.25644788
-1.3959906	F L	-0.25644788
-1.4289389	K L	-0.25644788
-1.2876772	<s> W	-0.8014639
-2.0204537	A W	-0.21991733
-1.8813086	L W	-0.25644788
-1.5746379	Y W	-0.25644788
-1.867569	S W	-0.25644788
-1.6295607	E W	-0.21494073
-1.847108	T W	-0.25644788
-1.3953996	O W	-0.30789435
-1.8160231	R W	-0.25644788
-1.615785	H W	-0.25644788
-1.527237	K W	-0.25644788
-2.1489263	<s> Y	-0.25510758
-1.4798958	A Y	-0.34043717
-0.948188	L Y	-0.56945014
-1.5106072	S Y	-0.23175602
-1.3736309	B Y	-0.20839281
-1.7799076	E Y	-0.40567052
-1.6382221	N Y	-0.21991733
-1.5254683	G Y	-0.25644788
-1.3359903	T Y	-0.5175704
-1.8212031	O Y	-0.25644788
-1.2692239	R Y	-0.46298414
-1.6333857	D Y	-0.18622254
-1.410599	H Y	-0.20839281
-1.3661277	C Y	-0.18622254
-1.5692656	M Y	-0.20839281
-0.9309208	<s> S	-0.7461574
-1.0912089	A S	-0.37544802
-1.6118939	L S	-0.2745323
-1.3047822	W S	-0.20839281
-1.0034053	Y S	-0.19938843
-1.457113	S S	-0.2553753
-1.0468744	I S	-0.3185871
-1.2992363	B S	-0.20839281
-1.0267854	E S	-0.59957755
-1.2629378	N S	-0.3298942
-1.3937924	G S	-0.18622254
-1.1168089	T S	-0.6267148
-1.243724	O S	-0.264432
-1.096943	P S	-0.35003597
-1.3765519	R S	-0.293233
-0.9975801	U S	-0.34508392
-1.0437956	D S	-0.5175704
-1.4167515	H S	-0.18622254
-1.5811276	C S	-0.25644788
-1.260954	M S	-0.2745323
-1.2634739	K S	-0.28073177
-1.6326381	<s> I	-0.49270344
-1.2796328	A I	-0.3144115
-0.8918271	L I	-0.35335016
-1.2001562	W I	-0.23519862
-1.3566366	Y I	-0.18622254
-1.0240178	S I	-0.30966258
-1.0689005	X I	-0.25644788
-1.2011011	B I	-0.23519862
-1.6801369	E I	-0.25644788
-0.9903047	N I	-0.2851633
-0.93614215	G I	-0.2666895
-0.9117475	T I	-0.35220882
-1.3734764	O I	-0.23119277
-1.0106752	P I	-0.22400755
-0.92776316	R I	-0.3785074
-1.4034147	U I	-0.2666895
-0.8660761	D I	-0.31731185
-0.8873781	H I	-0.28984004
-1.0304874	C I	-0.20274322
-1.238308	F I	-0.24146494
-1.0370045	M I	-0.24407335
-0.6975261	V I	-0.22266236
-0.72098863	K I	-0.33462566
-0.9514646	Z I	-0.25644788
-2.111354	A X	-0.25644788
-2.175119	I X	-0.18622254
-2.255749	E X	-0.25644788
-2.2339706	O X	-0.25644788
-1.212322	<s> B	-0.7487678
-1.9716585	A B	-0.21494073
-1.5906439	Y B	-0.25644788
-2.062828	I B	-0.25644788
-2.0753357	E B	-0.25644788
-1.8665527	T B	-0.18622254
-1.7526712	O B	-0.22382782
-1.7652851	R B	-0.19938843
-1.7171139	U B	-0.23175602
-1.642685	M B	-0.22698176
-1.2754941	<s> E	-0.59298795
-0.8259598	L E	-0.41070706
-0.80150425	W E	-0.1971662
-1.2751247	Y E	-0.25644788
-0.90608764	S E	-0.45447057
-1.2344512	I E	-0.26392868
-1.0632309	X E	-0.25644788
-1.1921043	B E	-0.25644788
-1.1573389	E E	-0.31080377
-0.9864568	N E	-0.27399844
-0.858116	G E	-0.27704415
-0.94193137	T E	-0.44312736
-1.6793817	O E	-0.28073177
-0.8421346	P E	-0.33394364
-0.89598405	R E	-0.39178175
-1.5808119	U E	-0.25644788
-0.912315	D E	-0.29917935
-0.8209462	H E	-0.25491533
-0.86362314	C E	-0.26653898
-0.64685255	F E	-0.27000803
-0.7914606	M E	-0.4120345
-0.53993446	V E	-0.39338863
-0.522823	J E	-0.22698176
-0.6493634	K E	-0.22968413
-0.7498107	Z E	-0.25644788
-1.6189235	<s> N	-0.5668234
-1.1099608	A N	-0.40386564
-1.3794261	W N	-0.20839281
-1.8072115	S N	-0.25644788
-0.94255775	I N	-0.5448986
-1.0866497	E N	-0.50293905
-1.3168324	N N	-0.30293757
-1.5411803	G N	-0.25644788
-1.8423606	T N	-0.25644788
-1.0135489	O N	-0.380314
-1.546068	R N	-0.24305788
-0.9739181	U N	-0.25123534
-1.705263	D N	-0.25644788
-1.4953438	K N	-0.25644788
-1.5462016	<s> G	-0.49676895
-1.4301302	A G	-0.33462566
-1.8433019	L G	-0.25644788
-1.8264135	S G	-0.25644788
-1.2383236	I G	-0.3222896
-1.9484317	E G	-0.21991733
-1.325108	N G	-0.31824285
-1.4961147	G G	-0.18622254
-1.8615892	T G	-0.25644788
-1.711696	O G	-0.22698176
-1.5579711	R G	-0.2666895
-1.3733276	U G	-0.22698176
-1.7219938	D G	-0.25644788
-1.1703428	<s> T	-0.8122366
-0.98051363	A T	-0.54927385
-1.7139142	L T	-0.25644788
-1.4765868	Y T	-0.25644788
-1.0429933	S T	-0.40930524
-1.1131166	I T	-0.4210682
-1.1045662	X T	-0.25644788
-1.3869236	B T	-0.25644788
-1.1508266	E T	-0.3481804
-1.2852218	N T	-0.28502485
-1.4072561	T T	-0.21991733
-1.1785325	O T	-0.27490884
-1.5655512	P T	-0.25644788
-1.5014718	R T	-0.3445737
-1.1746924	U T	-0.296768
-1.5042229	H T	-0.25644788
-1.1304594	C T	-0.26392868
-1.3730756	F T	-0.25644788
-1.5720888	<s> O	-0.34962133
-0.96950173	L O	-0.25166732
-1.2079252	W O	-0.23175602
-1.366255	Y O	-0.25644788
-1.3384835	S O	-0.34277278
-1.4569228	I O	-0.32468143
-1.0523425	B O	-0.23983167
-1.7952269	E O	-0.25644788
-1.1030574	N O	-0.23248598
-1.1468986	G O	-0.22957937
-1.1623304	T O	-0.282146
-1.1266679	O O	-0.31000465
-0.9511132	P O	-0.21525438
-0.9012723	R O	-0.2821665
-1.6417037	U O	-0.25644788
-1.2012672	D O	-0.2506587
-0.96583945	H O	-0.2598004
-1.1072304	C O	-0.24312426
-1.0732396	F O	-0.3165485
-1.040989	M O	-0.28688172
-1.1585957	V O	-0.20839281
-0.87925804	J O	-0.25644788
-0.9565897	Z O	-0.25644788
-1.1295236	<s> P	-0.80087197
-1.4301302	A P	-0.22537959
-1.7873206	L P	-0.25644788
-1.544294	Y P	-0.25644788
-1.4075259	S P	-0.2553753
-1.6153418	I P	-0.18622254
-1.1367023	X P	-0.25644788
-1.612278	E P	-0.22698176
-1.4448334	O P	-0.25562254
-1.5517762	P P	-0.20839281
-1.7743635	R P	-0.25644788
-1.2768838	U P	-0.23175602
-1.0829843	M P	-0.26500797
-1.3143084	<s> R	-0.83703434
-1.0286759	A R	-0.3343102
-1.4209646	W R	-0.25644788
-1.152022	I R	-0.2954769
-1.2806925	B R	-0.25644788
-1.0379285	E R	-0.5213455
-1.3752486	G R	-0.19938843
-1.3301681	T R	-0.30789435
-1.0333904	O R	-0.42952394
-1.3405898	P R	-0.19558585
-1.5231977	R R	-0.2684201
-1.0628048	U R	-0.24626769
-1.0620675	D R	-0.24305788
-1.3994149	H R	-0.25644788
-1.2355291	C R	-0.23119277
-1.3954866	F R	-0.25644788
-1.8327587	<s> U	-0.63620037
-1.5217448	A U	-0.20839281
-1.3600513	L U	-0.23175602
-1.3647984	S U	-0.25021654
-1.8784046	I U	-0.25644788
-1.0789578	B U	-0.24636689
-1.896387	E U	-0.25644788
-1.5186774	N U	-0.2745323
-0.95647365	G U	-0.21494073
-1.2405374	T U	-0.40369868
-1.1086583	O U	-0.37811178
-1.5528216	P U	-0.25644788
-1.3927443	R U	-0.25644788
-1.3425682	D U	-0.19938843
-1.217666	C U	-0.20839281
-0.8671764	F U	-0.362306
-1.4447272	M U	-0.25644788
-0.98679477	J U	-0.25644788
-0.18692496	Q U	-0.30101374
-1.2917268	<s> D	-0.83092844
-1.3653105	A D	-0.2721323
-1.3846561	L D	-0.37583393
-1.3679446	W D	-0.25644788
-1.4519931	Y D	-0.25644788
-1.7888228	S D	-0.25644788
-1.121802	I D	-0.43164515
-1.4309121	B D	-0.25644788
-1.1078892	E D	-0.57728803
-1.3087114	N D	-0.31620902
-1.5006256	O D	-0.21991733
-1.4270612	R D	-0.25547272
-1.4787999	U D	-0.21991733
-1.6333857	D D	-0.25644788
-1.4918289	H D	-0.25644788
-1.4647571	<s> H	-0.7926151
-2.1195161	A H	-0.25644788
-1.4418826	W H	-0.23175602
-1.4385408	S H	-0.2684201
-2.1497927	E H	-0.25644788
-1.4593172	G H	-0.20274322
-1.1614926	T H	-0.3235597
-1.3981026	P H	-0.25644788
-0.9070273	C H	-0.33934498
-1.1295236	<s> C	-0.8386028
-1.1730033	A C	-0.3160464
-1.4763607	Y C	-0.25644788
-1.4075259	S C	-0.23119277
-1.1276902	I C	-0.4477542
-1.1367023	X C	-0.25644788
-1.3339643	E C	-0.32436565
-1.325108	N C	-0.362306
-1.8615892	T C	-0.25644788
-1.3829948	O C	-0.3432769
-1.5579711	R C	-0.25644788
-1.1312891	U C	-0.36931866
-1.566601	C C	-0.22698176
-1.303984	<s> F	-0.7067005
-1.9716585	A F	-0.25644788
-1.9016367	L F	-0.25644788
-1.6435722	I F	-0.20839281
-1.7304003	E F	-0.23175602
-1.6555812	N F	-0.21991733
-1.9143795	O F	-0.22698176
-1.8384541	R F	-0.25644788
-1.6343478	H F	-0.25644788
-1.1509848	F F	-0.24494565
-1.3081893	<s> M	-0.77839863
-1.2787524	A M	-0.30086124
-1.8254771	L M	-0.25644788
-1.3718766	Y M	-0.20839281
-1.7582638	S M	-0.25644788
-1.2782831	I M	-0.21264222
-1.5334146	E M	-0.1921576
-1.5893666	N M	-0.28073177
-1.5557826	T M	-0.2745323
-1.23309	O M	-0.3457992
-1.6937157	R M	-0.19938843
-1.0698818	U M	-0.293233
-1.505708	H M	-0.25644788
-1.3101346	M M	-0.27085474
-1.9974463	<s> V	-0.299736
-1.3959359	A V	-0.2818214
-1.9229631	L V	-0.25644788
-1.3510673	I V	-0.5112616
-1.6475599	E V	-0.45682305
-1.7559094	N V	-0.25644788
-1.551605	O V	-0.3865567
-1.8621072	R V	-0.22698176
-1.7962191	D V	-0.25644788
-1.9417567	<s> J	-0.3865567
-2.2489622	A J	-0.25644788
-1.5356708	B J	-0.18622254
-2.2858787	E J	-0.25644788
-1.930731	N J	-0.25644788
-2.1266356	<s> K	-0.30626008
-1.5132246	A K	-0.3540901
-1.9016367	L K	-0.25644788
-1.7477922	S K	-0.22698176
-1.9374995	I K	-0.28073177
-2.0753357	E K	-0.20839281
-1.6555812	N K	-0.20839281
-1.7526712	O K	-0.20839281
-1.8384541	R K	-0.19938843
-1.2736229	C K	-0.36590856
-2.05838	<s> Q	-0.84500325
-2.0213544	S Q	-0.25644788
-2.213974	I Q	-0.25644788
-2.1278362	E Q	-0.28073177
-2.1926177	O Q	-0.25644788
-2.933836	<s> Z	-0.25644788
-2.2136345	A Z	-0.20839281
-1.8513222	I Z	-0.21991733
-1.0675943	Z Z	-0.25644788

\3-grams:
-1.6431539	<s> A </s>	0
-1.477865	L A </s>	0
-0.9437655	I A </s>	0
-1.5102417	E A </s>	0
-1.2907215	T A </s>	0
-1.3692796	R A </s>	0
-1.2235357	D A </s>	0
-0.60907906	Z A </s>	0
-0.67677605	A L </s>	0
-0.8643688	L L </s>	0
-1.0859909	I L </s>	0
-0.6881695	E L </s>	0
-1.301514	U L </s>	0
-0.8842876	E W </s>	0
-0.62121904	O W </s>	0
-0.28608418	A Y </s>	0
-0.15079321	L Y </s>	0
-0.51294065	S Y </s>	0
-0.36279097	B Y </s>	0
-0.13381001	E Y </s>	0
-0.43140897	N Y </s>	0
-0.20334613	G Y </s>	0
-0.13586968	T Y </s>	0
-0.48304528	O Y </s>	0
-0.21791743	R Y </s>	0
-0.25142825	D Y </s>	0
-0.36279097	H Y </s>	0
-0.4132526	C Y </s>	0
-0.36279097	M Y </s>	0
-0.79729635	A S </s>	0
-0.34426796	L S </s>	0
-0.46375576	W S </s>	0
-0.5967175	Y S </s>	0
-0.6149417	S S </s>	0
-0.85623527	I S </s>	0
-0.46375576	B S </s>	0
-0.3817795	E S </s>	0
-0.52521837	N S </s>	0
-0.33178687	G S </s>	0
-0.12106524	T S </s>	0
-0.31424376	P S </s>	0
-0.4757903	R S </s>	0
-0.5483779	U S </s>	0
-0.16291025	D S </s>	0
-0.33178687	H S </s>	0
-0.26314923	C S </s>	0
-0.34426796	M S </s>	0
-0.24390972	K S </s>	0
-1.628666	<s> I </s>	0
-1.6864263	T I </s>	0
-1.5673157	D I </s>	0
-0.56678927	A X </s>	0
-0.3074109	I X </s>	0
-0.7059167	E X </s>	0
-0.24530926	O X </s>	0
-0.5911105	E B </s>	0
-1.0676997	O B </s>	0
-0.9032817	M B </s>	0
-0.57005894	L E </s>	0
-1.0250767	W E </s>	0
-0.6128245	S E </s>	0
-0.8590617	I E </s>	0
-1.074539	B E </s>	0
-0.78977054	E E </s>	0
-0.96876323	N E </s>	0
-0.8806572	G E </s>	0
-0.7561437	T E </s>	0
-1.2193421	P E </s>	0
-0.9783024	R E </s>	0
-0.8566275	U E </s>	0
-1.1422427	D E </s>	0
-0.9392218	H E </s>	0
-0.7530581	C E </s>	0
-1.0228041	F E </s>	0
-0.8378339	M E </s>	0
-0.66382766	V E </s>	0
-0.8093459	K E </s>	0
-0.7020776	Z E </s>	0
-1.0314609	A N </s>	0
-0.5410973	W N </s>	0
-1.0138533	I N </s>	0
-0.7742437	E N </s>	0
-0.5648002	G N </s>	0
-0.7622949	O N </s>	0
-0.5390901	R N </s>	0
-0.9395338	U N </s>	0
-1.0972501	I G </s>	0
-0.7530604	N G </s>	0
-0.7420039	O G </s>	0
-0.88326144	U G </s>	0
-0.9455139	A T </s>	0
-0.7599921	L T </s>	0
-0.7495745	S T </s>	0
-0.80432993	I T </s>	0
-0.5262581	E T </s>	0
-0.7854087	N T </s>	0
-0.6544576	O T </s>	0
-0.7599921	P T </s>	0
-0.7479795	R T </s>	0
-0.5567034	U T </s>	0
-0.6758299	H T </s>	0
-0.97955155	C T </s>	0
-0.5447443	F T </s>	0
-0.96607095	W O </s>	0
-1.1983285	S O </s>	0
-1.0807462	I O </s>	0
-0.7433258	E O </s>	0
-1.2424866	N O </s>	0
-1.011565	G O </s>	0
-1.3193353	T O </s>	0
-1.3057116	O O </s>	0
-1.3604082	R O </s>	0
-1.1923634	D O </s>	0
-0.73249334	A P </s>	0
-0.67735225	L P </s>	0
-0.79713327	I P </s>	0
-0.8676722	E P </s>	0
-0.7656361	O P </s>	0
-0.67735225	R P </s>	0
-0.7413745	U P </s>	0
-0.95792794	M P </s>	0
-1.1390427	A R </s>	0
-1.2027771	I R </s>	0
-0.5693238	E R </s>	0
-0.79924726	O R </s>	0
-1.3827796	U R </s>	0
-1.6083837	O U </s>	0
-0.60034585	A D </s>	0
-0.3650405	L D </s>	0
-0.6290729	I D </s>	0
-0.26194015	E D </s>	0
-0.69713116	N D </s>	0
-0.79702044	O D </s>	0
-0.7065237	R D </s>	0
-0.7354406	U D </s>	0
-0.6671344	D D </s>	0
-1.1371176	S H </s>	0
-0.89015496	G H </s>	0
-0.8772085	T H </s>	0
-0.5793185	C H </s>	0
-0.7713415	I C </s>	0
-0.9635394	I F </s>	0
-0.91300005	O F </s>	0
-0.8817879	F F </s>	0
-0.7065137	A M </s>	0
-0.94957215	I M </s>	0
-0.8781178	E M </s>	0
-0.69853	O M </s>	0
-0.6833166	R M </s>	0
-0.52652216	U M </s>	0
-0.5490179	H M </s>	0
-0.8304547	A K </s>	0
-0.4610014	L K </s>	0
-0.56690264	S K </s>	0
-0.54363173	E K </s>	0
-0.43200597	N K </s>	0
-0.5958714	O K </s>	0
-0.55328816	R K </s>	0
-0.52690655	C K </s>	0
-0.6561434	<s> L A	-0.14996737
-1.2364858	A L A	-0.12903264
-0.8940178	L L A	-0.12903264
-1.1195605	I L A	-0.12903264
-0.9211686	B L A	-0.12903264
-1.1146929	E L A	-0.12903264
-0.5310883	N L A	-0.12903264
-0.36386573	G L A	-0.12903264
-1.0326399	O L A	-0.12903264
-0.92895615	P L A	-0.12903264
-0.66886073	U L A	-0.22088823
-0.73779625	C L A	-0.12903264
-0.5310883	F L A	-0.12903264
-0.6683358	<s> W A	-0.18003565
-0.5125689	A W A	-0.12903264
-0.24558868	L W A	-0.12903264
-0.6314846	S W A	-0.12903264
-0.63075525	E W A	-0.12903264
-0.46204323	R W A	-0.12903264
-0.24558868	H W A	-0.12903264
-0.24558868	K W A	-0.12903264
-0.96069163	<s> Y A	-0.12903264
-1.0275031	<s> S A	-0.15717605
-1.3240386	A S A	-0.12903264
-1.0612704	S S A	-0.12903264
-1.2753857	I S A	-0.12903264
-1.1975154	N S A	-0.12903264
-1.0561618	O S A	-0.12903264
-1.0792758	R S A	-0.12903264
-1.2175624	U S A	-0.12903264
-1.6110048	L I A	-0.12903264
-1.5131338	N I A	-0.12903264
-1.6243905	T I A	-0.12903264
-1.3873713	D I A	-0.12903264
-0.68552446	A X A	-0.12903264
-0.8795432	E X A	-0.12903264
-0.6759433	<s> B A	-0.23674497
-0.92316693	A B A	-0.12903264
-0.38917398	T B A	-0.17196256
-0.705187	R B A	-0.12903264
-1.0315238	<s> E A	-0.15717605
-1.3496373	L E A	-0.12903264
-1.0020046	W E A	-0.12903264
-0.95679086	Y E A	-0.12903264
-1.4479883	S E A	-0.12903264
-1.1521791	B E A	-0.12903264
-1.2733823	N E A	-0.12903264
-1.4528863	T E A	-0.12903264
-1.0470114	P E A	-0.12903264
-0.9392037	R E A	-0.19614084
-1.3018802	D E A	-0.12903264
-1.1677151	H E A	-0.1456989
-1.2307884	C E A	-0.12903264
-1.3417394	M E A	-0.12903264
-1.126236	<s> N A	-0.15717605
-1.3720344	A N A	-0.12903264
-0.57237965	S N A	-0.12903264
-1.4652075	I N A	-0.12903264
-1.4715954	E N A	-0.12903264
-1.1591356	O N A	-0.15717605
-1.1137909	U N A	-0.12903264
-0.77288705	<s> G A	-0.14287639
-1.0727385	A G A	-0.12903264
-1.0371519	I G A	-0.17196256
-0.30218682	T G A	-0.12903264
-0.93854105	R G A	-0.12903264
-1.009358	<s> T A	-0.17268005
-0.9815888	S T A	-0.12903264
-1.3488089	I T A	-0.12903264
-1.1471714	N T A	-0.12903264
-0.9859044	T T A	-0.12903264
-1.1449088	O T A	-0.12903264
-0.8090926	P T A	-0.12903264
-1.2279663	R T A	-0.12903264
-0.8786478	C T A	-0.14996737
-1.2104616	B O A	-0.12903264
-1.6119117	R O A	-0.12903264
-1.4506985	C O A	-0.12903264
-0.940401	<s> P A	-0.28103915
-1.0620042	A P A	-0.12903264
-0.30798241	Y P A	-0.12903264
-1.0418084	S P A	-0.12903264
-0.9241179	E P A	-0.17196256
-1.022146	M P A	-0.12903264
-0.81342256	<s> R A	-0.18793093
-1.0847136	I R A	-0.12903264
-0.8224473	B R A	-0.12903264
-1.1471598	E R A	-0.1882616
-0.67900723	G R A	-0.12903264
-0.5706824	T R A	-0.14996737
-0.7691154	P R A	-0.12903264
-0.8729811	R R A	-0.12903264
-0.9292142	U R A	-0.15717605
-0.91594625	D R A	-0.17196256
-0.76244897	H R A	-0.12903264
-0.9410529	C R A	-0.12903264
-0.76244897	F R A	-0.12903264
-1.2449074	S U A	-0.12903264
-1.2486589	T U A	-0.12903264
-1.0150393	R U A	-0.12903264
-0.78801835	Q U A	-0.12903264
-1.131192	<s> D A	-0.12903264
-1.074637	A D A	-0.12903264
-0.5611183	Y D A	-0.12903264
-1.2266505	I D A	-0.12903264
-1.1960588	N D A	-0.12903264
-0.9506836	O D A	-0.12903264
-1.0343353	R D A	-0.12903264
-0.5449157	<s> H A	-0.24277383
-0.8571129	W H A	-0.12903264
-1.0151832	S H A	-0.12903264
-1.1493508	T H A	-0.12903264
-0.90389305	P H A	-0.12903264
-0.90093493	C H A	-0.1456989
-0.63541216	<s> C A	-0.36872476
-0.7375456	I C A	-0.29412457
-1.2422144	E C A	-0.12903264
-1.2057031	U C A	-0.12903264
-0.89277124	C C A	-0.12903264
-0.7950911	<s> F A	-0.1542782
-0.7538764	R F A	-0.12903264
-0.57621396	<s> M A	-0.16934459
-1.0465608	A M A	-0.12903264
-0.53250575	S M A	-0.12903264
-0.9051067	I M A	-0.12903264
-0.91281843	E M A	-0.12903264
-0.7469937	T M A	-0.12903264
-0.99594647	O M A	-0.12903264
-0.65792525	R M A	-0.12903264
-0.5179872	<s> V A	-0.2212093
-0.77287984	A V A	-0.12903264
-1.0032785	I V A	-0.12903264
-0.6400336	E V A	-0.12903264
-0.6805549	R V A	-0.12903264
-0.25369096	D V A	-0.12903264
-1.0218467	<s> J A	-0.12903264
-0.9466812	S K A	-0.12903264
-0.7116594	I Z A	-0.12903264
-0.28230935	Z Z A	-0.12903264
-0.91958565	<s> A L	-0.25520843
-1.1224418	W A L	-0.12903264
-0.88944805	S A L	-0.12903264
-0.7268945	I A L	-0.17196256
-0.9840927	B A L	-0.14996737
-1.2570722	E A L	-0.12903264
-1.0000513	N A L	-0.12903264
-1.024754	G A L	-0.12903264
-0.9878742	T A L	-0.14996737
-0.71318734	O A L	-0.12903264
-0.86637366	U A L	-0.17196256
-1.0982438	H A L	-0.17196256
-0.99818563	C A L	-0.12903264
-0.988752	F A L	-0.12903264
-1.1002564	M A L	-0.12903264
-0.9424988	V A L	-0.12903264
-0.51611197	A L L	-0.3809833
-0.5960648	Y L L	-0.12903264
-0.58475435	I L L	-0.2234081
-1.073795	E L L	-0.1456989
-1.1468811	O L L	-0.12903264
-1.1528926	U L L	-0.12903264
-0.8610079	A W L	-0.12903264
-1.00688	S Y L	-0.12903264
-1.1181118	T Y L	-0.12903264
-1.8347656	<s> S L	-0.15717605
-0.65861464	A I L	-0.12903264
-0.987435	W I L	-0.12903264
-1.3048311	S I L	-0.12903264
-0.8574259	B I L	-0.12903264
-1.2773376	N I L	-0.12903264
-1.1501492	T I L	-0.12903264
-0.93150806	O I L	-0.17196256
-1.0765432	P I L	-0.12903264
-1.2919884	D I L	-0.12903264
-1.0910585	H I L	-0.12903264
-1.0795556	F I L	-0.12903264
-1.0240964	K I L	-0.12903264
-1.0739888	<s> B L	-0.25686327
-0.7732962	A B L	-0.17196256
-0.8386185	O B L	-0.12903264
-0.73866993	U B L	-0.12903264
-0.80627704	M B L	-0.12903264
-1.0234143	<s> E L	-0.39730057
-0.9833828	W E L	-0.12903264
-1.1730788	I E L	-0.12903264
-1.1293344	B E L	-0.12903264
-1.2956795	E E L	-0.12903264
-1.2445798	N E L	-0.12903264
-1.1916316	G E L	-0.12903264
-1.1967405	T E L	-0.25686327
-1.2840399	P E L	-0.12903264
-1.3645605	R E L	-0.12903264
-0.88897157	U E L	-0.12903264
-1.2005086	D E L	-0.17196256
-1.2193037	H E L	-0.12903264
-0.9423577	C E L	-0.25686327
-1.1646705	F E L	-0.12903264
-1.1814759	V E L	-0.12903264
-1.7605977	E N L	-0.12903264
-1.638171	O N L	-0.12903264
-1.4601722	<s> G L	-0.17196256
-1.0677296	R G L	-0.12903264
-1.5018742	N T L	-0.12903264
-0.9946881	T T L	-0.17196256
-1.4682862	R T L	-0.12903264
-1.4153553	<s> O L	-0.12903264
-1.2176793	S O L	-0.12903264
-1.1491721	G O L	-0.12903264
-1.2331274	O O L	-0.12903264
-1.2270931	P O L	-0.12903264
-1.2160777	D O L	-0.12903264
-0.9678151	H O L	-0.14996737
-1.1793928	C O L	-0.12903264
-1.1282885	F O L	-0.12903264
-1.045269	<s> P L	-0.3291044
-0.8561238	I P L	-0.12903264
-0.71451104	X P L	-0.12903264
-1.1039767	O P L	-0.12903264
-0.9071704	P P L	-0.12903264
-0.8372199	M P L	-0.1456989
-1.5884465	A R L	-0.12903264
-1.733976	O R L	-0.12903264
-0.92702264	A U L	-0.12903264
-0.93522924	S U L	-0.12903264
-0.92541856	B U L	-0.12903264
-0.77637476	G U L	-0.17196256
-1.1514513	O U L	-0.17196256
-0.8217821	P U L	-0.12903264
-0.8668718	R U L	-0.12903264
-0.6784619	D U L	-0.12903264
-0.83493817	C U L	-0.12903264
-0.40776056	F U L	-0.31811932
-0.8668718	M U L	-0.12903264
-1.3752569	I D L	-0.12903264
-1.2863629	N D L	-0.12903264
-0.85458744	U D L	-0.12903264
-0.7578314	D D L	-0.12903264
-1.0761611	G H L	-0.12903264
-1.2976643	T H L	-0.12903264
-1.3561559	C H L	-0.12903264
-1.4754653	<s> C L	-0.17196256
-0.621531	Y C L	-0.12903264
-1.2902601	<s> F L	-0.2212093
-1.243651	C K L	-0.12903264
-1.8198992	<s> A W	-0.17196256
-1.5750997	R A W	-0.12903264
-1.7434952	A L W	-0.12903264
-1.3035499	R Y W	-0.12903264
-1.675462	<s> S W	-0.12903264
-1.3250932	B E W	-0.12903264
-1.5076926	N E W	-0.12903264
-1.5385783	D E W	-0.12903264
-1.3733364	F E W	-0.12903264
-1.4820638	V E W	-0.12903264
-0.9867271	J E W	-0.12903264
-2.089535	<s> T W	-0.12903264
-1.628375	E T W	-0.12903264
-1.4767051	<s> O W	-0.12903264
-0.9075773	L O W	-0.31811932
-1.0055658	N O W	-0.25686327
-1.4106177	T O W	-0.12903264
-1.2808198	P O W	-0.12903264
-1.0241407	R O W	-0.14996737
-0.90445536	D O W	-0.17196256
-1.3288685	H O W	-0.12903264
-1.9367956	E R W	-0.12903264
-1.8071183	O R W	-0.12903264
-1.1491685	G H W	-0.12903264
-0.9667559	R K W	-0.12903264
-1.5323305	L A Y	-0.12903264
-0.5613885	W A Y	-0.25686327
-1.350571	S A Y	-0.12903264
-1.4432918	T A Y	-0.12903264
-1.2492055	P A Y	-0.12903264
-1.513923	R A Y	-0.12903264
-0.48547232	D A Y	-0.47871196
-1.5813457	<s> L Y	-0.12903264
-0.9203222	L L Y	-0.25686327
-1.0982463	I L Y	-0.17196256
-1.0972075	E L Y	-0.17196256
-0.5445479	N L Y	-0.12903264
-0.66078997	T L Y	-0.12903264
-1.0726465	O L Y	-0.12903264
-0.6755643	R L Y	-0.12903264
-0.45541474	D L Y	-0.25686327
-0.6157244	H L Y	-0.17196256
-0.5445479	F L Y	-0.12903264
-0.5445479	K L Y	-0.12903264
-1.7819145	<s> S Y	-0.12903264
-1.547026	A S Y	-0.12903264
-1.0549859	P S Y	-0.12903264
-1.3960593	U S Y	-0.12903264
-1.7532209	<s> B Y	-0.12903264
-0.93584883	R B Y	-0.12903264
-1.3615057	B E Y	-0.12903264
-1.5620309	N E Y	-0.12903264
-1.5301818	H E Y	-0.12903264
-1.380543	K E Y	-0.12903264
-1.5903815	A N Y	-0.14996737
-1.1726685	N N Y	-0.12903264
-0.9711363	O G Y	-0.12903264
-0.8631319	L T Y	-0.12903264
-1.2128506	S T Y	-0.15717605
-1.0068414	I T Y	-0.381802
-1.421991	E T Y	-0.12903264
-1.3632988	N T Y	-0.12903264
-1.0780728	T T Y	-0.12903264
-1.5680512	L O Y	-0.12903264
-1.2347901	B O Y	-0.12903264
-1.0107641	J O Y	-0.12903264
-1.109563	A R Y	-0.381802
-0.9956231	E R Y	-0.37558416
-0.9365088	T R Y	-0.25686327
-1.5240363	O R Y	-0.12903264
-0.9858092	R R Y	-0.12903264
-1.2415564	U R Y	-0.17196256
-1.0513005	D R Y	-0.17196256
-1.5256126	N D Y	-0.12903264
-0.9948422	O D Y	-0.17196256
-1.01274	W H Y	-0.12903264
-1.3232863	T H Y	-0.17196256
-1.069397	P H Y	-0.12903264
-1.3539938	A C Y	-0.12903264
-1.5456674	I C Y	-0.12903264
-1.3313689	E C Y	-0.12903264
-1.1987147	N C Y	-0.12903264
-1.7652013	<s> M Y	-0.12903264
-1.3975962	O M Y	-0.12903264
-0.91958565	<s> A S	-0.15304217
-0.83903533	L A S	-0.15717605
-1.217238	W A S	-0.12903264
-1.1474745	S A S	-0.12903264
-0.71318734	X A S	-0.12903264
-1.0820992	B A S	-0.12903264
-0.97973096	E A S	-0.14996737
-1.1021926	N A S	-0.12903264
-1.024754	G A S	-0.12903264
-1.2209558	T A S	-0.12903264
-1.075261	P A S	-0.12903264
-1.2031646	R A S	-0.12903264
-1.1770498	H A S	-0.12903264
-1.091112	C A S	-0.12903264
-0.988752	F A S	-0.12903264
-1.1712666	M A S	-0.12903264
-1.3514726	L L S	-0.17196256
-1.396889	E L S	-0.12903264
-1.3960303	O L S	-0.12903264
-1.0272171	E W S	-0.12903264
-1.1675904	O W S	-0.12903264
-0.9853797	A Y S	-0.17196256
-0.87774146	S Y S	-0.12903264
-0.6911767	O Y S	-0.12903264
-0.6776703	H Y S	-0.12903264
-0.6776703	M Y S	-0.12903264
-1.1941366	A S S	-0.1456989
-1.3706819	I S S	-0.15717605
-1.148506	E S S	-0.20416568
-1.1838847	O S S	-0.17196256
-1.3306255	<s> I S	-0.12903264
-1.1088749	A I S	-0.12903264
-1.0805569	L I S	-0.15717605
-0.9357764	W I S	-0.12903264
-1.1559513	S I S	-0.17196256
-0.9842895	N I S	-0.15717605
-0.94968146	G I S	-0.12903264
-0.99027556	O I S	-0.12903264
-1.2314775	R I S	-0.12903264
-1.2089137	D I S	-0.12903264
-1.0336237	H I S	-0.12903264
-0.8432691	C I S	-0.12903264
-1.0173795	F I S	-0.12903264
-0.97955036	M I S	-0.12903264
-0.93121517	V I S	-0.17196256
-1.0857428	K I S	-0.12903264
-0.9686833	O B S	-0.12903264
-0.76648295	R B S	-0.17196256
-0.7971729	L E S	-0.20416568
-0.8981986	Y E S	-0.12903264
-0.88283855	S E S	-0.47871196
-0.6925764	I E S	-0.381802
-1.0635113	B E S	-0.12903264
-0.8870758	E E S	-0.2212093
-0.96043575	N E S	-0.16303036
-0.71553385	G E S	-0.17196256
-0.90620106	T E S	-0.22088823
-0.27956384	O E S	-0.25686327
-1.2064928	P E S	-0.12903264
-0.83354276	R E S	-0.17244071
-0.84991723	U E S	-0.12903264
-0.9907956	D E S	-0.1456989
-1.1393871	H E S	-0.12903264
-1.0574914	C E S	-0.17196256
-1.095718	F E S	-0.12903264
-1.2465941	M E S	-0.12903264
-0.7804018	V E S	-0.2212093
-0.8388188	J E S	-0.12903264
-1.059205	K E S	-0.12903264
-1.2553707	A N S	-0.14996737
-1.4133962	I N S	-0.14996737
-1.3556389	E N S	-0.14996737
-1.0786076	O N S	-0.15304217
-1.2054567	U N S	-0.12903264
-1.1938074	N G S	-0.12903264
-0.9464038	U G S	-0.12903264
-1.4922643	A T S	-0.12903264
-0.812971	L T S	-0.12903264
-1.3636038	S T S	-0.12903264
-1.049589	E T S	-0.25686327
-0.9925089	N T S	-0.25686327
-0.812971	P T S	-0.12903264
-0.7895077	R T S	-0.381802
-1.1016811	U T S	-0.12903264
-1.0695381	C T S	-0.17196256
-1.038723	L O S	-0.14996737
-1.0841115	B O S	-0.12903264
-1.1542251	N O S	-0.12903264
-1.1297823	G O S	-0.12903264
-1.322102	T O S	-0.12903264
-1.3082255	O O S	-0.12903264
-0.90650964	P O S	-0.12903264
-1.36345	R O S	-0.12903264
-1.2507124	H O S	-0.12903264
-1.0575528	M O S	-0.17196256
-1.7441103	<s> P S	-0.12903264
-1.0717584	A P S	-0.12903264
-0.71451104	L P S	-0.12903264
-1.0360847	E P S	-0.12903264
-1.1039767	O P S	-0.12903264
-0.9163606	U P S	-0.12903264
-1.141178	A R S	-0.381802
-1.3231958	I R S	-0.12903264
-0.79597116	E R S	-0.45713043
-1.5928019	O R S	-0.12903264
-1.295364	U R S	-0.15717605
-0.7569536	<s> U S	-0.14996737
-0.9516224	A U S	-0.12903264
-0.8751738	L U S	-0.12903264
-0.84103554	B U S	-0.14996737
-0.903058	G U S	-0.12903264
-0.9002001	O U S	-0.20114231
-0.9516224	C U S	-0.12903264
-1.0542477	F U S	-0.12903264
-0.8859254	M U S	-0.12903264
-0.68959635	J U S	-0.12903264
-1.0829283	A D S	-0.12903264
-1.0574912	L D S	-0.12903264
-1.2347984	I D S	-0.12903264
-1.3112592	E D S	-0.17196256
-0.986486	N D S	-0.25686327
-0.9577021	O D S	-0.12903264
-0.9446055	R D S	-0.17196256
-1.4345648	T H S	-0.12903264
-1.0709426	P H S	-0.12903264
-1.5247838	I C S	-0.17196256
-1.2703532	A M S	-0.12903264
-1.1983582	I M S	-0.12903264
-1.0059953	E M S	-0.17196256
-1.1396141	U M S	-0.12903264
-1.1326927	A K S	-0.12903264
-0.9663213	O K S	-0.12903264
-0.77907485	C K S	-0.381802
-1.5720481	<s> A I	-0.12903264
-1.4158155	L A I	-0.12903264
-1.1042941	G A I	-0.12903264
-1.1702409	P A I	-0.12903264
-1.1481376	R A I	-0.14996737
-1.1881027	D A I	-0.12903264
-1.2893195	H A I	-0.12903264
-1.0648863	F A I	-0.12903264
-1.1997498	M A I	-0.17196256
-1.0064648	V A I	-0.17196256
-0.6563287	<s> L I	-0.13589936
-1.057644	A L I	-0.12903264
-1.0937444	L L I	-0.12903264
-0.2864907	W L I	-0.12903264
-0.53157985	S L I	-0.12903264
-1.0624613	I L I	-0.12903264
-0.8209158	B L I	-0.12903264
-0.6972779	E L I	-0.1882616
-1.0340588	O L I	-0.12903264
-1.0152977	P L I	-0.12903264
-0.6581206	R L I	-0.12903264
-1.0449222	U L I	-0.12903264
-0.7385876	C L I	-0.12903264
-0.61711174	<s> W I	-0.34638566
-0.83436286	S W I	-0.12903264
-1.2297844	O W I	-0.12903264
-1.106765	A Y I	-0.17196256
-1.309649	L Y I	-0.12903264
-1.1300892	<s> S I	-0.13821262
-1.2577688	A S I	-0.12903264
-0.8268883	Y S I	-0.12903264
-0.9125905	S S I	-0.12903264
-1.1471206	I S I	-0.15717605
-1.3801464	E S I	-0.12903264
-0.87441444	N S I	-0.12903264
-1.0089353	O S I	-0.12903264
-1.032632	R S I	-0.12903264
-1.0769092	U S I	-0.12903264
-0.7079083	A X I	-0.12903264
-0.92489463	<s> B I	-0.1669776
-0.99108654	A B I	-0.12903264
-1.0597851	O B I	-0.12903264
-1.885371	<s> E I	-0.12903264
-1.5273176	N E I	-0.12903264
-1.4964359	H E I	-0.12903264
-1.458705	C E I	-0.12903264
-1.2711996	<s> N I	-0.12903264
-0.9137356	A N I	-0.12903264
-1.4394562	I N I	-0.12903264
-1.2286603	E N I	-0.12903264
-0.45046556	N N I	-0.14996737
-1.1062219	O N I	-0.12903264
-0.75779325	R N I	-0.12903264
-0.91271645	U N I	-0.1456989
-0.29877564	D N I	-0.12903264
-1.2313663	<s> G I	-0.17196256
-0.9317796	A G I	-0.17196256
-1.0711813	I G I	-0.12903264
-0.6123141	E G I	-0.12903264
-0.9988558	N G I	-0.12903264
-0.89827955	R G I	-0.12903264
-1.1898326	<s> T I	-0.1456989
-0.5483926	A T I	-0.85892326
-1.0408309	S T I	-0.13937387
-0.7938611	I T I	-0.16556375
-0.53631186	X T I	-0.12903264
-1.0873173	E T I	-0.12903264
-0.90079165	N T I	-0.12903264
-0.8874264	T T I	-0.12903264
-1.0232184	O T I	-0.12903264
-0.74623495	P T I	-0.12903264
-1.1029648	R T I	-0.12903264
-0.71735626	U T I	-0.12903264
-0.66446495	H T I	-0.12903264
-0.6605591	C T I	-0.28032357
-1.4647486	<s> O I	-0.12903264
-1.1838696	G O I	-0.12903264
-1.3986236	T O I	-0.12903264
-1.1588448	P O I	-0.12903264
-1.4484069	R O I	-0.12903264
-0.8464142	V O I	-0.12903264
-0.94832444	J O I	-0.12903264
-1.092409	<s> P I	-0.14087148
-0.93484366	A P I	-0.12903264
-0.70549715	S P I	-0.15717605
-0.98948854	E P I	-0.12903264
-0.87060094	P P I	-0.12903264
-0.88091874	U P I	-0.12903264
-0.64502794	M P I	-0.14996737
-0.8103781	<s> R I	-0.20994668
-1.0668125	A R I	-0.15717605
-0.5399975	W R I	-0.12903264
-1.0652986	I R I	-0.12903264
-0.81073153	B R I	-0.12903264
-1.2375443	E R I	-0.14996737
-0.83154225	T R I	-0.12903264
-0.84670293	O R I	-0.20416568
-0.7571974	P R I	-0.12903264
-0.91394085	U R I	-0.15717605
-0.9802908	D R I	-0.12903264
-0.75222725	H R I	-0.12903264
-0.83315647	C R I	-0.12903264
-0.75222725	F R I	-0.12903264
-1.2479181	S U I	-0.12903264
-0.9075971	G U I	-0.12903264
-1.0167849	R U I	-0.12903264
-1.0482192	Q U I	-0.12903264
-0.592314	<s> D I	-0.31130943
-0.8982871	A D I	-0.12903264
-0.9712619	L D I	-0.12903264
-0.5252141	Y D I	-0.12903264
-1.0499886	I D I	-0.12903264
-0.28285882	B D I	-0.12903264
-0.8000684	E D I	-0.12903264
-1.0232768	N D I	-0.17196256
-0.9350621	R D I	-0.12903264
-0.64962244	D D I	-0.12903264
-0.96338475	<s> H I	-0.20114231
-0.8229443	W H I	-0.12903264
-0.72382617	S H I	-0.1456989
-0.2858764	E H I	-0.12903264
-0.78860533	T H I	-0.28032357
-0.8680134	P H I	-0.12903264
-1.017565	C H I	-0.12903264
-1.6591504	<s> C I	-0.12903264
-0.98175126	S C I	-0.12903264
-1.3338237	I C I	-0.12903264
-0.69832337	X C I	-0.12903264
-1.152402	E C I	-0.12903264
-0.7874507	R C I	-0.12903264
-0.8402389	C C I	-0.12903264
-0.7454251	<s> F I	-0.20498528
-0.9085331	O F I	-0.12903264
-0.62543756	F F I	-0.25686327
-0.6884563	<s> M I	-0.22277217
-1.0654529	I M I	-0.12903264
-0.9122219	E M I	-0.12903264
-1.1593275	O M I	-0.12903264
-0.83205354	R M I	-0.12903264
-0.85883534	M M I	-0.12903264
-0.6582659	<s> V I	-0.12903264
-0.77399	A V I	-0.17196256
-0.74267936	I V I	-0.15717605
-0.47605488	N V I	-0.12903264
-0.73986125	O V I	-0.12903264
-0.68157315	R V I	-0.12903264
-0.4392308	<s> K I	-0.12903264
-0.79152006	A K I	-0.17196256
-0.4837215	L K I	-0.12903264
-0.6948279	S K I	-0.12903264
-0.71674055	O K I	-0.12903264
-0.5856882	R K I	-0.17196256
-0.91048336	C K I	-0.12903264
-0.5204591	A Z I	-0.17196256
-1.6330587	T A X	-0.12903264
-1.2202679	F A X	-0.12903264
-1.5910175	M A X	-0.12903264
-1.7035197	S I X	-0.12903264
-1.4189324	M I X	-0.12903264
-0.57280517	<s> E X	-0.3809833
-1.7003107	D E X	-0.12903264
-1.2809625	F O X	-0.12903264
-1.5569333	<s> A B	-0.15717605
-1.3045079	L A B	-0.12903264
-0.95491403	T A B	-0.2212093
-1.3064585	R Y B	-0.12903264
-1.7607253	L I B	-0.12903264
-1.3715943	W E B	-0.12903264
-1.4654064	F E B	-0.12903264
-1.6335605	E T B	-0.12903264
-1.4323885	O T B	-0.12903264
-0.89922905	<s> O B	-0.1456989
-1.4708455	N O B	-0.12903264
-1.5176579	R O B	-0.12903264
-1.0044464	J O B	-0.12903264
-1.6361665	A R B	-0.12903264
-1.9159079	E R B	-0.12903264
-1.4369822	U R B	-0.12903264
-1.3459698	S U B	-0.12903264
-1.4937692	O U B	-0.17196256
-1.0007961	P U B	-0.12903264
-1.0204444	A M B	-0.12903264
-1.250383	U M B	-0.12903264
-0.68889713	<s> L E	-0.32243183
-1.1385993	A L E	-0.12903264
-0.73353446	L L E	-0.17196256
-0.5147195	Y L E	-0.12903264
-0.76681495	I L E	-0.381802
-0.42268285	B L E	-0.1456989
-1.0155393	E L E	-0.12903264
-0.48829702	T L E	-0.12903264
-0.92536247	O L E	-0.12903264
-0.45003283	P L E	-0.28032357
-0.99836826	U L E	-0.12903264
-0.64722586	D L E	-0.12903264
-0.69580746	H L E	-0.12903264
-0.711744	C L E	-0.12903264
-0.5147195	K L E	-0.12903264
-0.6887871	<s> W E	-0.23185772
-0.7011589	S W E	-0.12903264
-0.7959051	E W E	-0.12903264
-0.50796497	T W E	-0.12903264
-0.77729255	O W E	-0.25686327
-0.50796497	R W E	-0.12903264
-0.68188477	<s> Y E	-0.12903264
-1.0843244	A Y E	-0.15717605
-0.74944806	O Y E	-0.12903264
-0.9011285	<s> S E	-0.22937964
-0.86637324	A S E	-0.1456989
-0.7508956	L S E	-0.12903264
-0.6468984	W S E	-0.12903264
-0.67412883	S S E	-0.15717605
-0.9488159	I S E	-0.14996737
-0.6468984	B S E	-0.12903264
-1.0293036	E S E	-0.14996737
-0.8316701	N S E	-0.12903264
-0.6393889	O S E	-0.25520843
-0.886822	P S E	-0.12903264
-0.9674251	R S E	-0.12903264
-0.85357404	U S E	-0.20114231
-1.3281972	L I E	-0.12903264
-1.3181784	N I E	-0.12903264
-1.0209966	T I E	-0.14996737
-1.2029501	P I E	-0.12903264
-0.89188796	R I E	-0.16303036
-1.3311415	D I E	-0.12903264
-0.9075619	C I E	-0.17196256
-1.107791	F I E	-0.12903264
-1.1223669	V I E	-0.12903264
-1.1706115	K I E	-0.12903264
-0.91284794	E X E	-0.12903264
-0.68598413	<s> B E	-0.16340509
-1.0558813	O B E	-0.12903264
-0.750603	M B E	-0.17196256
-0.9900184	W E E	-0.12903264
-0.9473403	Y E E	-0.12903264
-1.4296166	S E E	-0.12903264
-1.1374494	B E E	-0.12903264
-1.1798112	N E E	-0.12903264
-1.4338298	T E E	-0.12903264
-1.2123785	P E E	-0.12903264
-1.1146076	R E E	-0.20416568
-1.2831243	D E E	-0.12903264
-1.229344	H E E	-0.12903264
-1.128504	C E E	-0.17196256
-1.0763662	F E E	-0.12903264
-1.3258327	M E E	-0.12903264
-1.2872872	V E E	-0.12903264
-1.041755	K E E	-0.17196256
-0.46835715	<s> N E	-0.18166842
-1.2896664	A N E	-0.12903264
-0.67264694	W N E	-0.12903264
-0.7815714	I N E	-0.34763178
-1.2265638	E N E	-0.12903264
-0.85844344	N N E	-0.12903264
-0.2983402	T N E	-0.12903264
-0.69104725	O N E	-0.25059524
-0.55263513	K N E	-0.12903264
-0.9206346	<s> G E	-0.14996737
-0.42502448	A G E	-0.1882616
-0.5094117	N G E	-0.20416568
-0.35753554	G G E	-0.17196256
-0.76600194	O G E	-0.12903264
-0.55430925	R G E	-0.14996737
-0.28169832	D G E	-0.12903264
-1.1154538	<s> T E	-0.15717605
-0.551973	A T E	-0.44287962
-0.8284869	S T E	-0.22383258
-0.6491861	I T E	-0.29412457
-0.97385585	E T E	-0.12903264
-0.91579777	N T E	-0.14996737
-0.80669284	T T E	-0.14996737
-0.80712277	O T E	-0.1882616
-1.1239476	R T E	-0.12903264
-0.9167928	U T E	-0.12903264
-0.67370445	H T E	-0.12903264
-1.0451705	C T E	-0.12903264
-0.54317164	F T E	-0.12903264
-1.2767686	G O E	-0.12903264
-1.5411489	T O E	-0.12903264
-1.3605019	D O E	-0.12903264
-0.8653648	<s> P E	-0.2750811
-0.842483	A P E	-0.17196256
-0.6522556	S P E	-0.12903264
-0.6414158	X P E	-0.12903264
-0.88645184	E P E	-0.12903264
-0.72191477	O P E	-0.15717605
-0.68771243	P P E	-0.14996737
-0.6414158	R P E	-0.12903264
-0.79948044	U P E	-0.12903264
-0.8929523	M P E	-0.12903264
-0.3271022	<s> R E	-0.2515149
-0.874938	A R E	-0.34727037
-0.5751035	I R E	-0.1882616
-0.7969985	B R E	-0.12903264
-1.037065	E R E	-0.15717605
-0.6580397	G R E	-0.12903264
-0.97419065	T R E	-0.15717605
-0.83664507	O R E	-0.19588828
-0.74323446	P R E	-0.14087148
-0.5135368	R R E	-0.12903264
-0.7813008	U R E	-0.31811932
-0.71755326	D R E	-0.14996737
-0.74020135	H R E	-0.12903264
-0.6320731	C R E	-0.15717605
-0.74020135	F R E	-0.12903264
-1.2518585	F U E	-0.12903264
-0.5918447	Q U E	-0.12903264
-0.6604356	<s> D E	-0.20720284
-1.0013058	A D E	-0.12903264
-0.9954433	L D E	-0.12903264
-0.5364442	W D E	-0.12903264
-0.4598431	I D E	-0.15717605
-1.3159126	E D E	-0.12903264
-0.6948042	N D E	-0.31811932
-0.8877497	O D E	-0.12903264
-0.7037902	R D E	-0.15717605
-0.57496154	<s> H E	-0.25229576
-0.27603325	A H E	-0.12903264
-0.6886543	W H E	-0.15717605
-0.6980573	S H E	-0.2212093
-0.74024427	G H E	-0.12903264
-0.66849434	T H E	-0.28843403
-0.831551	P H E	-0.12903264
-0.84071374	C H E	-0.1456989
-1.5489329	<s> C E	-0.12903264
-0.7123748	A C E	-0.381802
-0.8862697	S C E	-0.12903264
-0.7469897	I C E	-0.46424735
-0.6487952	X C E	-0.12903264
-1.0404948	E C E	-0.12903264
-0.39549124	N C E	-0.20994668
-0.8799453	O C E	-0.12903264
-0.7273884	R C E	-0.12903264
-0.6562919	C C E	-0.12903264
-0.9766538	<s> F E	-0.1456989
-0.62630486	A F E	-0.12903264
-0.24345106	L F E	-0.12903264
-0.59211123	I F E	-0.17196256
-0.6849264	E F E	-0.12903264
-0.60661817	N F E	-0.12903264
-0.65189046	O F E	-0.12903264
-0.5629028	R F E	-0.12903264
-0.71670055	F F E	-0.12903264
-0.79053116	<s> M E	-0.14759083
-0.7828766	A M E	-0.12903264
-0.5051106	S M E	-0.12903264
-0.8369764	I M E	-0.15717605
-0.7766466	E M E	-0.17196256
-0.25122195	N M E	-0.25686327
-0.35363564	T M E	-0.25686327
-0.54186636	O M E	-0.20416568
-0.5051106	H M E	-0.12903264
-0.42913157	M M E	-0.15717605
-0.6929935	<s> V E	-0.17196256
-0.43004882	A V E	-0.14996737
-0.21769866	L V E	-0.12903264
-0.20442186	I V E	-0.359512
-0.22711027	E V E	-0.19260329
-0.4170416	N V E	-0.12903264
-0.2159609	O V E	-0.27111244
-0.507915	R V E	-0.15717605
-0.7619093	<s> J E	-0.12903264
-0.21311837	A J E	-0.12903264
-0.2643062	B J E	-0.17196256
-0.21311837	E J E	-0.12903264
-0.7252686	<s> K E	-0.17196256
-0.3186482	A K E	-0.29412457
-0.6533949	S K E	-0.12903264
-0.22654991	I K E	-0.25686327
-0.43036428	E K E	-0.12903264
-0.5415101	N K E	-0.12903264
-0.5934793	O K E	-0.15717605
-0.6209093	C K E	-0.20114231
-0.49276197	<s> Z E	-0.12903264
-0.587118	A Z E	-0.12903264
-0.5504109	I Z E	-0.17196256
-0.86727434	<s> A N	-0.18412915
-1.0927454	L A N	-0.15717605
-1.2277786	W A N	-0.12903264
-0.8958949	S A N	-0.15717605
-0.7886002	B A N	-0.12903264
-1.1266192	E A N	-0.15717605
-1.0335686	G A N	-0.12903264
-0.83986694	T A N	-0.20416568
-0.98690444	P A N	-0.12903264
-0.93930334	R A N	-0.14287639
-0.9891495	U A N	-0.12903264
-0.7720333	H A N	-0.12903264
-1.1018308	C A N	-0.12903264
-0.99721795	F A N	-0.12903264
-0.7962752	M A N	-0.31811932
-0.94969875	V A N	-0.12903264
-0.8644115	A W N	-0.12903264
-0.95936596	O W N	-0.15717605
-2.0882404	<s> S N	-0.12903264
-0.30641788	<s> I N	-0.19059405
-0.61595905	A I N	-0.15304217
-0.6673899	L I N	-0.4250082
-0.7797829	W I N	-0.12903264
-0.3736135	Y I N	-0.17196256
-0.9631927	S I N	-0.15717605
-0.8856622	B I N	-0.12903264
-0.8059763	N I N	-0.381802
-0.57544655	G I N	-0.12903264
-0.7514208	T I N	-0.39730057
-0.6464319	O I N	-0.12903264
-0.80296946	P I N	-0.25686327
-0.56408626	R I N	-0.34750524
-0.90144956	U I N	-0.12903264
-0.70374423	D I N	-0.28032357
-0.5419536	H I N	-0.17268005
-0.9583911	F I N	-0.12903264
-0.7571309	M I N	-0.12903264
-0.70290637	V I N	-0.15717605
-0.43832707	K I N	-0.47871196
-0.29312328	Z I N	-0.12903264
-0.8268624	<s> E N	-0.13821262
-1.1457617	L E N	-0.12903264
-0.95805794	W E N	-0.17196256
-1.1575621	S E N	-0.1456989
-1.0545458	I E N	-0.14996737
-1.0986098	B E N	-0.12903264
-1.0491773	E E N	-0.25686327
-1.1579278	G E N	-0.12903264
-1.1731985	T E N	-0.1456989
-1.1737578	P E N	-0.12903264
-1.2090291	R E N	-0.12903264
-0.87104154	U E N	-0.12903264
-1.1677808	D E N	-0.12903264
-1.1121302	H E N	-0.12903264
-0.92259026	C E N	-0.15717605
-1.1324232	F E N	-0.12903264
-0.4325437	M E N	-0.39103454
-1.2473291	V E N	-0.12903264
-1.0084026	K E N	-0.12903264
-1.448196	A N N	-0.15717605
-1.6021035	I N N	-0.12903264
-1.6278679	E N N	-0.12903264
-1.505389	O N N	-0.12903264
-1.2310966	U N N	-0.12903264
-1.2204897	I G N	-0.15717605
-1.6921391	I T N	-0.12903264
-1.033467	<s> O N	-0.12903264
-1.0790591	L O N	-0.12903264
-0.8821665	W O N	-0.12903264
-0.5580276	Y O N	-0.12903264
-0.48186982	S O N	-0.27236184
-0.45664728	I O N	-0.2667884
-0.9773751	B O N	-0.12903264
-0.693892	E O N	-0.12903264
-1.029394	N O N	-0.17196256
-0.9675942	T O N	-0.15717605
-0.78753835	O O N	-0.2212093
-0.9887044	P O N	-0.12903264
-1.0273563	R O N	-0.12903264
-1.0641023	D O N	-0.12903264
-1.1075414	H O N	-0.12903264
-1.0358229	C O N	-0.12903264
-1.0593281	M O N	-0.12903264
-0.8449897	J O N	-0.12903264
-1.640818	A R N	-0.12903264
-1.7108735	E R N	-0.12903264
-1.6884999	O R N	-0.12903264
-1.477779	U R N	-0.12903264
-0.2119698	<s> U N	-0.2750811
-0.9382902	A U N	-0.12903264
-0.8645459	L U N	-0.12903264
-1.026925	S U N	-0.12903264
-0.8912934	G U N	-0.12903264
-1.0837731	T U N	-0.12903264
-0.6351858	O U N	-0.19260329
-0.829668	P U N	-0.12903264
-0.8756292	R U N	-0.12903264
-1.0423805	F U N	-0.12903264
-0.8756292	M U N	-0.12903264
-1.493889	I D N	-0.12903264
-0.75824803	<s> K N	-0.15717605
-1.2663375	<s> A G	-0.14996737
-1.5054818	L A G	-0.12903264
-1.2360988	B A G	-0.12903264
-1.1541058	G A G	-0.12903264
-1.4195937	T A G	-0.12903264
-1.2316196	P A G	-0.12903264
-1.3924419	R A G	-0.15717605
-1.3726908	M A G	-0.12903264
-1.7336237	A L G	-0.12903264
-1.625656	I S G	-0.12903264
-0.8877611	L I G	-0.16303036
-1.2664428	S I G	-0.17196256
-1.01181	B I G	-0.12903264
-0.8431715	E I G	-0.12903264
-0.89589834	N I G	-0.2212093
-1.4155129	T I G	-0.12903264
-1.205096	P I G	-0.12903264
-1.4239177	R I G	-0.12903264
-1.1184373	H I G	-0.17196256
-1.1094457	F I G	-0.12903264
-1.1724085	M I G	-0.12903264
-1.9761987	<s> E G	-0.12903264
-1.3920882	B E G	-0.12903264
-1.7324328	R E G	-0.12903264
-1.2784337	A N G	-0.15717605
-0.55523586	I N G	-0.71325386
-1.552587	E N G	-0.12903264
-1.5106925	O N G	-0.12903264
-1.3297974	U N G	-0.12903264
-1.34755	I G G	-0.12903264
-0.96614045	U G G	-0.12903264
-1.5273677	R T G	-0.12903264
-1.5307484	L O G	-0.12903264
-1.4197682	T O G	-0.12903264
-1.3689747	D O G	-0.12903264
-1.229738	F O G	-0.12903264
-1.3578973	A R G	-0.15717605
-1.7160709	E R G	-0.12903264
-1.6946049	O R G	-0.12903264
-1.3714222	U R G	-0.15717605
-0.98426825	A U G	-0.17196256
-1.0037035	L U G	-0.12903264
-1.235847	S U G	-0.12903264
-1.3791084	O U G	-0.17196256
-1.0097556	R U G	-0.12903264
-0.7309921	U D G	-0.17196256
-1.2051885	<s> A T	-0.12903264
-0.8073771	L A T	-0.16303036
-1.1510134	W A T	-0.12903264
-1.0743558	S A T	-0.12903264
-0.8204329	I A T	-0.12903264
-0.6848767	X A T	-0.12903264
-1.0176501	B A T	-0.12903264
-0.8427663	E A T	-0.20416568
-0.5911183	N A T	-0.2212093
-0.9686014	G A T	-0.12903264
-1.1429737	T A T	-0.12903264
-0.925667	P A T	-0.12903264
-0.7963332	R A T	-0.25520843
-0.92526984	U A T	-0.12903264
-0.95154774	D A T	-0.17196256
-0.88366985	H A T	-0.15717605
-0.7690052	C A T	-0.14996737
-1.0324922	M A T	-0.12903264
-0.5226865	V A T	-0.17196256
-0.29766083	K A T	-0.12903264
-0.55141586	Z A T	-0.12903264
-1.5558746	A L T	-0.12903264
-0.7927729	U L T	-0.31811932
-0.8807429	N Y T	-0.12903264
-0.845817	<s> S T	-0.26569408
-0.58532965	A S T	-0.25059524
-0.7061704	Y S T	-0.17196256
-0.6829788	I S T	-0.18412915
-0.6711296	E S T	-0.29305083
-1.1533729	N S T	-0.12903264
-0.84017926	O S T	-0.15717605
-0.9361084	R S T	-0.12903264
-0.735759	U S T	-0.16303036
-0.79690456	M S T	-0.12903264
-1.3703629	<s> I T	-0.12903264
-0.9676074	L I T	-0.14996737
-0.964376	W I T	-0.12903264
-0.89377236	S I T	-0.14996737
-0.964376	B I T	-0.12903264
-0.8119515	E I T	-0.12903264
-1.0127904	N I T	-0.12903264
-1.1314489	P I T	-0.12903264
-0.97542703	R I T	-0.19588828
-0.60952735	U I T	-0.14996737
-1.0149041	D I T	-0.25686327
-0.8680676	C I T	-0.12903264
-0.9433211	F I T	-0.17196256
-0.81304747	M I T	-0.14996737
-0.9285816	E X T	-0.12903264
-1.007068	U B T	-0.12903264
-1.5896175	<s> E T	-0.12903264
-1.0227522	L E T	-0.14996737
-0.9451045	Y E T	-0.12903264
-1.4253246	S E T	-0.12903264
-1.1781428	I E T	-0.12903264
-1.1339905	B E T	-0.12903264
-1.2321585	E E T	-0.14996737
-1.1059039	G E T	-0.12903264
-1.2896078	P E T	-0.12903264
-1.4249676	R E T	-0.12903264
-0.8916426	U E T	-0.12903264
-1.2787449	D E T	-0.12903264
-1.2250592	H E T	-0.12903264
-1.1695673	F E T	-0.12903264
-1.3221039	M E T	-0.12903264
-1.1337645	K E T	-0.12903264
-0.99103886	A N T	-0.25059524
-1.1543999	I N T	-0.1882616
-0.67152673	E N T	-0.31149864
-1.2417982	O N T	-0.12903264
-1.2162604	U N T	-0.12903264
-1.558183	A T T	-0.17196256
-1.5270516	I T T	-0.12903264
-1.1397014	E T T	-0.15717605
-1.1720939	O T T	-0.12903264
-1.2196169	U T T	-0.12903264
-1.1791734	L O T	-0.17196256
-1.059818	I O T	-0.12903264
-1.1219425	N O T	-0.14996737
-1.0990075	G O T	-0.12903264
-1.2699927	O O T	-0.12903264
-1.0758628	P O T	-0.17196256
-1.2537428	R O T	-0.17196256
-0.3163444	U O T	-0.12903264
-1.2130909	H O T	-0.12903264
-1.2122207	C O T	-0.12903264
-1.1462636	M O T	-0.12903264
-0.9379756	V O T	-0.12903264
-0.9792797	I P T	-0.12903264
-1.2166798	E P T	-0.12903264
-1.1714494	A R T	-0.12903264
-1.2442406	I R T	-0.12903264
-1.0559869	O R T	-0.17268005
-1.3497013	U R T	-0.12903264
-0.92488414	A U T	-0.17196256
-1.0284015	B U T	-0.12903264
-0.40604773	N U T	-0.12903264
-1.2835702	O U T	-0.12903264
-0.8987848	P U T	-0.12903264
-0.92488414	C U T	-0.12903264
-1.1329161	F U T	-0.12903264
-0.971382	G H T	-0.12903264
-0.9549202	A C T	-0.15717605
-1.1648309	I C T	-0.14996737
-0.5293348	E C T	-0.19614084
-1.1149297	N C T	-0.12903264
-1.1068558	O C T	-0.12903264
-1.0691227	U C T	-0.12903264
-0.8698126	A F T	-0.12903264
-1.0036403	E F T	-0.12903264
-0.59209144	<s> L O	-0.20807719
-1.2962744	A L O	-0.12903264
-0.78183246	L L O	-0.14996737
-0.5491213	S L O	-0.12903264
-1.1774818	I L O	-0.12903264
-0.9619936	B L O	-0.12903264
-1.0868219	O L O	-0.12903264
-0.77295804	P L O	-0.12903264
-1.0970725	U L O	-0.12903264
-0.7541461	H L O	-0.12903264
-0.76720047	C L O	-0.12903264
-0.7636094	<s> W O	-0.45150304
-0.8362044	S W O	-0.12903264
-0.58956146	T W O	-0.12903264
-0.6937	<s> Y O	-0.25686327
-1.2568231	R Y O	-0.12903264
-1.1846251	<s> S O	-0.14759083
-1.4596683	A S O	-0.12903264
-1.1544605	S S O	-0.12903264
-1.3200661	I S O	-0.17196256
-1.1678462	R S O	-0.12903264
-0.9704098	S I O	-0.381802
-1.4443295	N I O	-0.12903264
-1.0830023	G I O	-0.12903264
-0.8475894	T I O	-0.46424735
-1.4468338	R I O	-0.12903264
-1.4510123	D I O	-0.12903264
-1.0969877	<s> B O	-0.14287639
-0.8134101	A B O	-0.15717605
-0.30534178	Y B O	-0.12903264
-0.9892968	O B O	-0.12903264
-1.5848871	P E O	-0.12903264
-1.5986335	D E O	-0.12903264
-1.5771604	M E O	-0.12903264
-0.47684932	<s> N O	-0.16359258
-0.57401884	S N O	-0.12903264
-1.5274557	I N O	-0.12903264
-1.2863237	E N O	-0.12903264
-1.022239	N N O	-0.12903264
-1.2984983	O N O	-0.12903264
-0.57401884	K N O	-0.12903264
-0.5434849	<s> G O	-0.1456989
-1.1334903	A G O	-0.12903264
-0.31385452	L G O	-0.12903264
-0.81118864	E G O	-0.12903264
-0.78786707	<s> T O	-0.13536729
-1.4433167	A T O	-0.17196256
-0.8837248	S T O	-0.12903264
-1.3067596	I T O	-0.17196256
-1.2388985	E T O	-0.12903264
-1.0122668	T T O	-0.12903264
-1.178689	O T O	-0.12903264
-1.0911767	C T O	-0.17196256
-1.149318	L O O	-0.12903264
-1.14819	S O O	-0.12903264
-1.0336108	B O O	-0.12903264
-1.1725819	N O O	-0.12903264
-0.9688688	G O O	-0.12903264
-1.1745262	T O O	-0.12903264
-1.0501461	P O O	-0.12903264
-1.2796538	R O O	-0.12903264
-1.1319575	D O O	-0.12903264
-1.1814743	H O O	-0.12903264
-1.1794753	C O O	-0.12903264
-1.0675797	F O O	-0.12903264
-0.31217247	Z O O	-0.12903264
-0.9698116	<s> P O	-0.15717605
-0.87975144	S P O	-0.12903264
-0.9548555	E P O	-0.12903264
-1.0157958	O P O	-0.12903264
-0.7316632	P P O	-0.12903264
-0.67642736	R P O	-0.12903264
-0.85400033	U P O	-0.12903264
-1.0331554	M P O	-0.12903264
-0.9988189	<s> R O	-0.12903264
-1.1349351	A R O	-0.12903264
-0.5338441	W R O	-0.12903264
-1.0467144	I R O	-0.12903264
-0.79932344	B R O	-0.12903264
-1.3125825	E R O	-0.12903264
-0.77339685	G R O	-0.12903264
-1.0474519	T R O	-0.12903264
-1.2063084	O R O	-0.12903264
-0.8424945	P R O	-0.12903264
-0.8477712	R R O	-0.12903264
-0.71954936	D R O	-0.15717605
-0.7422405	H R O	-0.12903264
-0.82044375	C R O	-0.12903264
-0.7422405	F R O	-0.12903264
-1.2517769	Q U O	-0.12903264
-0.7577245	<s> D O	-0.14415708
-0.31803322	S D O	-0.12903264
-1.4870781	E D O	-0.12903264
-1.2259629	N D O	-0.12903264
-0.5886673	H D O	-0.12903264
-0.5863828	<s> H O	-0.21392915
-0.86084414	W H O	-0.12903264
-1.0201248	S H O	-0.12903264
-1.1552854	T H O	-0.12903264
-0.9078199	P H O	-0.12903264
-0.90415484	C H O	-0.12903264
-0.3829178	<s> C O	-0.4331623
-0.90880746	S C O	-0.12903264
-1.107675	E C O	-0.17196256
-1.1050463	N C O	-0.12903264
-1.0967227	O C O	-0.12903264
-0.86802465	C C O	-0.12903264
-0.62245554	<s> F O	-0.27111244
-0.9070344	E F O	-0.12903264
-0.6473017	N F O	-0.17196256
-0.95167476	F F O	-0.12903264
-0.6518063	<s> M O	-0.24916154
-1.1441987	A M O	-0.12903264
-0.30420202	L M O	-0.12903264
-0.68832475	Y M O	-0.12903264
-1.1617049	O M O	-0.12903264
-1.0413616	U M O	-0.12903264
-0.8129698	<s> V O	-0.15717605
-0.7795993	A V O	-0.14996737
-0.8849083	R V O	-0.12903264
-0.5241884	<s> J O	-0.1456989
-0.2847411	N J O	-0.12903264
-0.54637176	<s> Z O	-0.12903264
-1.2663375	<s> A P	-0.2212093
-1.5054818	L A P	-0.12903264
-0.6134085	Y A P	-0.12903264
-1.5381658	E A P	-0.12903264
-1.1541058	G A P	-0.12903264
-1.4195937	T A P	-0.12903264
-1.3924419	R A P	-0.12903264
-1.124482	C A P	-0.12903264
-1.585844	E L P	-0.12903264
-1.4426458	O L P	-0.12903264
-0.7790508	B Y P	-0.12903264
-1.0593002	<s> S P	-0.27017778
-1.3922099	A S P	-0.12903264
-1.672186	E S P	-0.12903264
-1.3355738	N S P	-0.12903264
-1.2923176	O S P	-0.12903264
-1.6150907	L I P	-0.12903264
-0.90336573	E I P	-0.12903264
-1.5047847	R I P	-0.12903264
-1.5191528	D I P	-0.12903264
-1.3749998	H I P	-0.12903264
-0.94017947	E X P	-0.12903264
-1.6601136	L E P	-0.12903264
-1.2133417	E E P	-0.1456989
-1.6874484	T E P	-0.12903264
-1.7252448	R E P	-0.12903264
-1.5314571	D E P	-0.12903264
-1.4354597	C E P	-0.12903264
-1.3968421	<s> O P	-0.12903264
-0.7732906	E O P	-0.12903264
-1.1198729	T O P	-0.25686327
-1.3032521	P O P	-0.12903264
-1.3992056	R O P	-0.12903264
-1.2329488	H O P	-0.12903264
-1.3567007	C O P	-0.12903264
-1.1259679	A P P	-0.14996737
-0.97692287	I P P	-0.17196256
-1.159717	O P P	-0.12903264
-1.639268	A R P	-0.12903264
-1.4590874	I R P	-0.12903264
-1.3969938	<s> U P	-0.12903264
-1.1937296	S U P	-0.12903264
-0.5981524	E U P	-0.12903264
-1.2117927	T U P	-0.12903264
-1.4258689	O U P	-0.12903264
-1.0847965	C U P	-0.12903264
-0.90193504	A M P	-0.12903264
-0.5473029	Y M P	-0.12903264
-1.0126911	I M P	-0.12903264
-0.93377817	E M P	-0.12903264
-1.1862233	O M P	-0.12903264
-0.95158654	U M P	-0.15717605
-1.2343268	<s> A R	-0.12903264
-0.9227806	L A R	-0.1456989
-0.738561	W A R	-0.1456989
-0.5609229	Y A R	-0.12903264
-1.1069444	S A R	-0.12903264
-0.83954495	I A R	-0.12903264
-1.0465332	B A R	-0.12903264
-0.648695	E A R	-0.23185772
-1.0679462	N A R	-0.12903264
-0.9938988	G A R	-0.12903264
-1.1776226	T A R	-0.12903264
-0.69785553	O A R	-0.12903264
-0.7614186	P A R	-0.20114231
-1.2139246	R A R	-0.12903264
-0.8428669	U A R	-0.12903264
-1.0764372	D A R	-0.12903264
-0.9034872	H A R	-0.12903264
-1.0539473	C A R	-0.12903264
-1.0627972	M A R	-0.12903264
-1.744334	<s> W R	-0.12903264
-1.39256	<s> I R	-0.12903264
-1.056452	A I R	-0.12903264
-1.2919534	S I R	-0.12903264
-0.98002785	B I R	-0.12903264
-0.8223818	E I R	-0.12903264
-1.2903719	T I R	-0.17196256
-1.0672321	P I R	-0.12903264
-0.99208814	U I R	-0.12903264
-1.2796959	D I R	-0.12903264
-1.181232	H I R	-0.12903264
-1.0003295	C I R	-0.12903264
-1.0705462	F I R	-0.12903264
-1.08228	V I R	-0.12903264
-0.989247	<s> B R	-0.29412457
-0.32332757	I B R	-0.12903264
-0.5985929	E B R	-0.12903264
-1.2599097	L E R	-0.12903264
-0.93436354	W E R	-0.12903264
-0.9027557	Y E R	-0.12903264
-0.72752404	S E R	-0.23613264
-1.1091517	I E R	-0.12903264
-0.3038902	X E R	-0.12903264
-1.0701957	B E R	-0.12903264
-1.1621113	E E R	-0.12903264
-0.82409054	N E R	-0.14287639
-1.0484465	G E R	-0.14996737
-0.6410903	T E R	-0.31440708
-0.50819397	P E R	-0.18166842
-1.336325	R E R	-0.12903264
-0.6648818	D E R	-0.2230611
-0.7922972	H E R	-0.23613264
-1.0639306	C E R	-0.12903264
-0.6755261	F E R	-0.15717605
-1.1727287	M E R	-0.12903264
-0.6625925	V E R	-0.19614084
-1.0662471	K E R	-0.12903264
-0.70023	Z E R	-0.12903264
-0.8187018	<s> G R	-0.20416568
-1.2215258	A G R	-0.12903264
-0.9424123	O G R	-0.12903264
-0.6454164	<s> T R	-0.4166686
-1.037149	S T R	-0.15304217
-0.60401344	X T R	-0.12903264
-0.32619512	B T R	-0.12903264
-1.0637265	N T R	-0.15717605
-1.2729938	C T R	-0.12903264
-0.9026356	<s> O R	-0.14996737
-1.0918802	L O R	-0.12903264
-0.768169	W O R	-0.13937387
-1.1011705	S O R	-0.12903264
-1.0017884	I O R	-0.12903264
-0.9877713	B O R	-0.12903264
-1.1096551	N O R	-0.12903264
-1.0217276	G O R	-0.12903264
-0.7316874	T O R	-0.19260329
-1.1047823	O O R	-0.12903264
-1.0000083	P O R	-0.17196256
-1.0765123	D O R	-0.12903264
-0.8851998	H O R	-0.12903264
-1.0476462	C O R	-0.12903264
-0.50241	F O R	-0.14996737
-0.6017381	M O R	-0.1456989
-0.88063675	V O R	-0.12903264
-0.48727235	<s> P R	-0.6894066
-1.1552253	S P R	-0.12903264
-0.7596019	X P R	-0.12903264
-1.2244446	O P R	-0.12903264
-1.5369378	A R R	-0.17196256
-1.3828529	I R R	-0.12903264
-1.7960672	E R R	-0.12903264
-1.1863475	O R R	-0.14996737
-0.88257825	A U R	-0.12903264
-0.90283054	L U R	-0.12903264
-0.79996514	S U R	-0.1456989
-0.64282787	B U R	-0.14996737
-0.9338215	G U R	-0.12903264
-0.3597924	T U R	-0.16760801
-0.7237019	O U R	-0.2336884
-0.88257825	C U R	-0.12903264
-0.9126809	M U R	-0.12903264
-0.70830864	<s> D R	-0.33488542
-1.0653338	L D R	-0.12903264
-0.5670309	W D R	-0.12903264
-1.4103929	E D R	-0.12903264
-1.1492834	N D R	-0.12903264
-1.0521967	R D R	-0.12903264
-0.5670309	H D R	-0.12903264
-1.2317421	S H R	-0.12903264
-1.3189096	T H R	-0.15717605
-1.0665451	P H R	-0.12903264
-1.4238136	<s> C R	-0.14996737
-0.71481824	S C R	-0.12903264
-1.4704199	I C R	-0.12903264
-1.2693704	E C R	-0.12903264
-1.155902	N C R	-0.12903264
-1.0605861	<s> F R	-0.17196256
-0.87362766	A F R	-0.12903264
-1.4461651	L A U	-0.12903264
-1.2387227	S A U	-0.12903264
-1.58708	E A U	-0.12903264
-1.462123	T A U	-0.12903264
-1.2639205	D A U	-0.12903264
-1.2868505	C A U	-0.12903264
-1.6936346	<s> L U	-0.12903264
-1.4141119	I L U	-0.12903264
-1.4168756	E L U	-0.12903264
-1.2413601	P L U	-0.12903264
-1.3091958	U L U	-0.12903264
-0.8482972	<s> S U	-0.25732228
-1.4741246	A S U	-0.12903264
-1.6519022	E S U	-0.12903264
-1.3181298	N S U	-0.12903264
-1.3397433	U S U	-0.12903264
-1.7126864	L I U	-0.12903264
-0.9664497	<s> B U	-0.18412915
-0.94106406	A B U	-0.12903264
-0.9093125	U B U	-0.12903264
-0.85815173	M B U	-0.12903264
-1.8517305	R E U	-0.12903264
-1.4052346	K E U	-0.12903264
-1.4679724	<s> N U	-0.12903264
-1.6464643	A N U	-0.12903264
-1.8004947	I N U	-0.12903264
-1.2440375	<s> G U	-0.12903264
-0.29482755	S G U	-0.12903264
-1.0842829	I G U	-0.12903264
-0.7493186	E G U	-0.12903264
-1.0100267	N G U	-0.12903264
-0.90824425	R G U	-0.12903264
-1.3847641	<s> T U	-0.2212093
-1.5711703	A T U	-0.12903264
-1.3612214	S T U	-0.12903264
-1.3672216	E T U	-0.12903264
-1.3079982	N T U	-0.12903264
-1.305695	R T U	-0.12903264
-1.227892	C T U	-0.12903264
-1.1385992	L O U	-0.12903264
-0.92085654	W O U	-0.12903264
-0.57493174	Y O U	-0.12903264
-1.1395016	S O U	-0.12903264
-1.02515	B O U	-0.12903264
-0.9180825	N O U	-0.12903264
-1.2328405	T O U	-0.12903264
-0.8399926	R O U	-0.16303036
-1.0290242	D O U	-0.17196256
-0.91308653	H O U	-0.1456989
-0.7637478	C O U	-0.20416568
-1.059905	F O U	-0.12903264
-1.1113498	M O U	-0.12903264
-0.78403413	V O U	-0.12903264
-1.3397707	<s> P U	-0.1456989
-1.3023585	O P U	-0.12903264
-1.2936354	<s> R U	-0.2212093
-0.95226544	B R U	-0.12903264
-1.1971478	T R U	-0.17196256
-1.2197306	D R U	-0.12903264
-1.1347692	C R U	-0.12903264
-1.8377275	<s> D U	-0.12903264
-1.2322034	A D U	-0.12903264
-1.4325719	E D U	-0.12903264
-1.3923265	N D U	-0.12903264
-1.4197532	<s> C U	-0.12903264
-1.180675	A C U	-0.12903264
-1.3755286	I C U	-0.17196256
-1.2601285	E C U	-0.12903264
-0.83847797	R C U	-0.12903264
-0.97571284	<s> F U	-0.14287639
-0.80037194	I F U	-0.12903264
-0.81261283	E F U	-0.12903264
-0.71373373	N F U	-0.12903264
-0.64999247	R F U	-0.12903264
-0.28301784	H F U	-0.12903264
-1.299885	<s> M U	-0.14996737
-0.930977	I M U	-0.15717605
-0.964816	M M U	-0.12903264
-0.54181033	<s> J U	-0.16303036
-0.022265555	<s> Q U	-0.28364122
-0.093549035	S Q U	-0.12903264
-0.093549035	I Q U	-0.12903264
-0.08790903	E Q U	-0.14996737
-0.093549035	O Q U	-0.12903264
-1.4012692	<s> A D	-0.12903264
-1.2996575	S A D	-0.12903264
-1.2116364	B A D	-0.12903264
-1.4116371	E A D	-0.12903264
-1.2259456	N A D	-0.12903264
-0.76311004	O A D	-0.12903264
-1.447771	R A D	-0.12903264
-1.333743	H A D	-0.12903264
-1.3391312	M A D	-0.12903264
-1.4261636	I L D	-0.12903264
-1.4293673	E L D	-0.12903264
-0.62888026	O L D	-0.20114231
-0.76573795	R L D	-0.12903264
-1.3196541	U L D	-0.12903264
-1.0465541	E W D	-0.12903264
-1.1892147	O W D	-0.17196256
-1.3308654	L Y D	-0.12903264
-1.2781643	R Y D	-0.12903264
-1.6139396	I S D	-0.12903264
-1.0892535	<s> I D	-0.15717605
-1.0444434	A I D	-0.17196256
-1.3279176	L I D	-0.12903264
-0.9679429	W I D	-0.12903264
-1.0461158	S I D	-0.25686327
-1.0272837	O I D	-0.12903264
-1.0521271	P I D	-0.12903264
-1.3456908	R I D	-0.12903264
-0.980525	U I D	-0.12903264
-1.2599292	D I D	-0.12903264
-0.9867078	C I D	-0.12903264
-1.1114354	M I D	-0.12903264
-0.9640009	V I D	-0.17196256
-1.1220495	K I D	-0.12903264
-1.0174215	U B D	-0.12903264
-1.4957101	<s> E D	-0.12903264
-1.1550863	L E D	-0.25686327
-0.92980635	Y E D	-0.12903264
-1.1662184	S E D	-0.25686327
-1.0651586	I E D	-0.17196256
-0.91411906	E E D	-0.25520843
-0.9956113	N E D	-0.25686327
-0.9022933	G E D	-0.25686327
-1.036124	T E D	-0.381802
-1.1856613	P E D	-0.17196256
-0.9200547	R E D	-0.31320035
-1.026411	D E D	-0.25686327
-1.1245272	H E D	-0.14996737
-1.1449717	F E D	-0.12903264
-1.2082721	M E D	-0.15717605
-0.8682498	J E D	-0.12903264
-1.0187252	K E D	-0.17196256
-0.71700084	Z E D	-0.12903264
-0.9037259	A N D	-0.22383258
-1.068382	I N D	-0.22383258
-0.92867476	E N D	-0.21090308
-1.4213778	O N D	-0.12903264
-0.86037374	U N D	-0.12903264
-1.5302546	<s> O D	-0.12903264
-1.1506112	I O D	-0.12903264
-1.0192336	B O D	-0.17196256
-1.3527468	T O D	-0.12903264
-0.8824118	O O D	-0.2212093
-1.2718604	M O D	-0.12903264
-1.0369213	A R D	-0.28032357
-1.3450953	I R D	-0.12903264
-1.7392293	E R D	-0.12903264
-1.3405477	O R D	-0.12903264
-1.3183982	U R D	-0.12903264
-0.6173163	E U D	-0.12903264
-1.5334319	O U D	-0.12903264
-1.2290579	F U D	-0.12903264
-0.7771642	J U D	-0.12903264
-1.1799477	A D D	-0.12903264
-1.1563835	O D D	-0.12903264
-1.470079	T H D	-0.12903264
-1.4176866	C H D	-0.12903264
-1.9900811	<s> A H	-0.12903264
-1.0858738	<s> W H	-0.14287639
-0.33163697	Y W H	-0.12903264
-0.95927936	<s> S H	-0.32662565
-1.5125221	A S H	-0.12903264
-0.9688837	I S H	-0.12903264
-1.2354172	T S H	-0.12903264
-1.1262728	D S H	-0.12903264
-1.4176205	B E H	-0.12903264
-1.2470909	A G H	-0.12903264
-0.5061938	I G H	-0.31320035
-0.7956784	U G H	-0.14996737
-0.591195	<s> T H	-0.39857227
-1.1119384	A T H	-0.12903264
-0.8248184	L T H	-0.12903264
-0.315024	Y T H	-0.12903264
-1.1322047	I T H	-0.12903264
-1.3180536	E T H	-0.12903264
-1.2584076	N T H	-0.12903264
-1.0803783	O T H	-0.12903264
-0.79864216	R T H	-0.381802
-1.448791	<s> P H	-0.12903264
-1.2149627	A P H	-0.12903264
-0.7675057	L P H	-0.12903264
-1.1655556	E P H	-0.12903264
-0.84283364	<s> C H	-0.29008433
-1.015307	A C H	-0.15717605
-0.5352055	Y C H	-0.12903264
-0.8232398	S C H	-0.12903264
-0.6629795	X C H	-0.12903264
-1.0709496	E C H	-0.12903264
-1.0070919	N C H	-0.12903264
-0.28854907	T C H	-0.12903264
-0.7444424	R C H	-0.12903264
-0.78837794	U C H	-0.15717605
-0.93849695	<s> A C	-0.46424735
-1.3449426	L A C	-0.12903264
-1.1973171	S A C	-0.12903264
-1.1252569	B A C	-0.12903264
-1.1541001	E A C	-0.25686327
-1.1436032	N A C	-0.12903264
-1.274654	T A C	-0.12903264
-1.1189965	P A C	-0.12903264
-0.95973694	R A C	-0.16303036
-1.0167878	U A C	-0.12903264
-1.2281945	H A C	-0.12903264
-0.8995981	F A C	-0.15717605
-1.1459423	M A C	-0.12903264
-0.58473694	J A C	-0.12903264
-1.0272996	S Y C	-0.12903264
-0.70752114	C Y C	-0.17196256
-1.5900948	<s> S C	-0.14996737
-1.4521663	I S C	-0.12903264
-1.672186	E S C	-0.12903264
-1.3355738	N S C	-0.12903264
-1.2923176	O S C	-0.12903264
-1.3787776	<s> I C	-0.12903264
-1.2662609	L I C	-0.12903264
-0.8980325	S I C	-0.12903264
-1.176877	N I C	-0.12903264
-0.98281705	G I C	-0.12903264
-1.131195	T I C	-0.12903264
-0.91630363	O I C	-0.12903264
-1.0551115	P I C	-0.12903264
-1.2814288	R I C	-0.15717605
-0.98281705	U I C	-0.12903264
-0.86306334	D I C	-0.14996737
-1.0588086	F I C	-0.12903264
-1.0171318	M I C	-0.12903264
-0.9664432	V I C	-0.12903264
-0.94017947	E X C	-0.12903264
-1.7095104	<s> E C	-0.12903264
-1.5172734	L E C	-0.12903264
-1.5373331	S E C	-0.12903264
-1.4198054	E E C	-0.12903264
-1.2698536	N E C	-0.12903264
-1.4551845	T E C	-0.17196256
-1.2963507	P E C	-0.17196256
-1.1715417	R E C	-0.17928953
-1.3933501	D E C	-0.12903264
-1.2405525	H E C	-0.17196256
-0.7773758	J E C	-0.17196256
-0.83000696	A N C	-0.5222393
-1.4374055	I N C	-0.12903264
-1.0069642	E N C	-0.39730057
-1.5106925	O N C	-0.12903264
-1.2348863	U N C	-0.12903264
-1.6885058	A T C	-0.17196256
-1.3710219	<s> O C	-0.12903264
-1.0824866	L O C	-0.25686327
-1.2520804	S O C	-0.12903264
-1.3213897	N O C	-0.12903264
-1.4038647	T O C	-0.12903264
-1.3690352	R O C	-0.12903264
-1.2588547	D O C	-0.12903264
-1.3229729	H O C	-0.12903264
-1.6476346	A R C	-0.12903264
-1.3952796	I R C	-0.12903264
-1.8153472	E R C	-0.12903264
-1.6946049	O R C	-0.12903264
-0.79701686	L U C	-0.12903264
-1.1200662	S U C	-0.12903264
-1.0103021	B U C	-0.12903264
-1.1566699	T U C	-0.12903264
-1.3342028	O U C	-0.12903264
-0.93826413	R U C	-0.12903264
-0.7300605	D U C	-0.12903264
-0.93826413	M U C	-0.12903264
-1.3026984	A C C	-0.14996737
-1.2448821	O C C	-0.12903264
-1.3382492	U C C	-0.12903264
-1.8080693	<s> A F	-0.12903264
-1.492753	S A F	-0.12903264
-1.7141172	R A F	-0.12903264
-1.4661524	O L F	-0.12903264
-1.5995555	<s> I F	-0.12903264
-1.627371	L I F	-0.12903264
-1.5225366	T I F	-0.12903264
-1.6379358	R I F	-0.12903264
-1.5298312	D I F	-0.12903264
-1.7753782	<s> E F	-0.17196256
-1.7074493	L E F	-0.12903264
-1.350558	B E F	-0.12903264
-1.5454553	N E F	-0.12903264
-1.667643	R E F	-0.15717605
-1.869818	I N F	-0.12903264
-1.5744333	O N F	-0.12903264
-1.4859376	U N F	-0.12903264
-0.80095124	<s> O F	-0.39730057
-1.7017263	R O F	-0.12903264
-1.516712	C O F	-0.12903264
-1.8163254	E R F	-0.12903264
-1.5955175	U R F	-0.12903264
-1.3038932	S H F	-0.12903264
-0.8221125	A F F	-0.12903264
-0.7960176	I F F	-0.12903264
-0.80227894	E F F	-0.12903264
-0.7414471	O F F	-0.15717605
-1.3645226	<s> A M	-0.12903264
-1.4152545	L A M	-0.12903264
-1.3135962	W A M	-0.12903264
-1.2562132	S A M	-0.12903264
-0.7500451	X A M	-0.12903264
-1.3674244	E A M	-0.14996737
-1.103968	G A M	-0.12903264
-1.3930149	R A M	-0.12903264
-1.1893766	H A M	-0.17196256
-1.189276	C A M	-0.12903264
-0.59836894	J A M	-0.12903264
-1.728771	A L M	-0.12903264
-1.3132862	L Y M	-0.12903264
-1.0033396	S Y M	-0.12903264
-0.86301166	N Y M	-0.12903264
-2.0708394	<s> S M	-0.17196256
-1.8007545	E S M	-0.12903264
-1.1303399	<s> I M	-0.12903264
-1.4333526	L I M	-0.12903264
-1.0251993	W I M	-0.12903264
-0.32317993	X I M	-0.12903264
-1.2578956	N I M	-0.12903264
-1.1923144	T I M	-0.12903264
-1.2267399	P I M	-0.12903264
-1.4491187	R I M	-0.12903264
-1.245945	H I M	-0.12903264
-1.1875963	K I M	-0.12903264
-1.4935032	<s> E M	-0.15717605
-1.6241449	L E M	-0.12903264
-1.6378156	S E M	-0.12903264
-1.4160837	E E M	-0.12903264
-1.379823	G E M	-0.12903264
-1.5389833	T E M	-0.12903264
-1.4371024	H E M	-0.12903264
-0.62482095	G N M	-0.12903264
-1.6601169	O N M	-0.12903264
-1.0504487	R N M	-0.12903264
-1.7335544	A T M	-0.12903264
-1.594955	I T M	-0.12903264
-1.4708713	N T M	-0.12903264
-1.4430975	R T M	-0.12903264
-1.2895995	L O M	-0.12903264
-0.9641171	W O M	-0.12903264
-1.1957474	S O M	-0.12903264
-1.149126	N O M	-0.12903264
-1.3154199	T O M	-0.12903264
-1.2086914	O O M	-0.17196256
-1.286805	R O M	-0.12903264
-1.1892179	D O M	-0.12903264
-1.2447389	H O M	-0.12903264
-1.1542273	C O M	-0.1456989
-1.1715744	M O M	-0.12903264
-1.7196598	A R M	-0.12903264
-1.8839765	E R M	-0.12903264
-1.4059634	O R M	-0.12903264
-1.0853623	S U M	-0.12903264
-0.3070505	I U M	-0.12903264
-0.8048393	N U M	-0.12903264
-1.1299078	T U M	-0.12903264
-0.865314	P U M	-0.12903264
-0.84471655	D U M	-0.12903264
-0.99038255	C U M	-0.12903264
-0.9154422	M U M	-0.12903264
-0.70814484	J U M	-0.12903264
-1.2677354	S H M	-0.12903264
-1.4762908	T H M	-0.12903264
-1.2947953	A M M	-0.12903264
-1.1163323	I M M	-0.17196256
-1.3014207	O M M	-0.12903264
-1.1578938	U M M	-0.12903264
-1.6528418	<s> A V	-0.12903264
-1.3925364	L A V	-0.12903264
-1.3636081	W A V	-0.12903264
-1.3139971	S A V	-0.12903264
-1.5186838	E A V	-0.12903264
-1.2371713	N A V	-0.12903264
-1.4661709	R A V	-0.12903264
-1.3485978	H A V	-0.12903264
-1.1024563	F A V	-0.12903264
-1.6085749	I L V	-0.12903264
-1.3884428	L I V	-0.12903264
-1.4161509	S I V	-0.12903264
-1.2923889	N I V	-0.17196256
-1.0564109	G I V	-0.12903264
-1.4008956	T I V	-0.12903264
-1.4927835	R I V	-0.12903264
-1.397499	D I V	-0.12903264
-1.279092	H I V	-0.12903264
-1.1539778	F I V	-0.12903264
-0.9333809	<s> E V	-0.682832
-1.5510314	L E V	-0.12903264
-1.6851315	S E V	-0.12903264
-1.2529864	I E V	-0.12903264
-1.5148371	N E V	-0.12903264
-1.6367235	R E V	-0.12903264
-1.91381	I N V	-0.12903264
-1.8562337	E N V	-0.12903264
-1.4364903	<s> O V	-0.17196256
-1.464566	L O V	-0.12903264
-1.2434307	G O V	-0.12903264
-1.2370002	R O V	-0.15717605
-1.2777916	C O V	-0.17196256
-1.2867866	M O V	-0.12903264
-1.8229622	E R V	-0.12903264
-1.6030453	U R V	-0.12903264
-1.3680767	A D V	-0.12903264
-1.61178	M A J	-0.12903264
-1.1742648	O B J	-0.12903264
-1.0390172	U B J	-0.12903264
-1.957838	R E J	-0.12903264
-1.9172807	E N J	-0.12903264
-1.2642137	B A K	-0.12903264
-1.4772646	E A K	-0.15717605
-1.2756649	N A K	-0.12903264
-1.45837	T A K	-0.12903264
-1.1294211	U A K	-0.12903264
-1.2839692	C A K	-0.12903264
-1.4121789	M A K	-0.12903264
-1.5940769	A L K	-0.12903264
-2.0669513	<s> S K	-0.12903264
-1.5006149	A S K	-0.15717605
-1.600341	I S K	-0.12903264
-1.7297381	L I K	-0.12903264
-1.1522698	B I K	-0.12903264
-1.7365054	R I K	-0.12903264
-1.8042707	S E K	-0.12903264
-1.5503855	E E K	-0.15717605
-1.5964376	A N K	-0.17196256
-1.7556939	I N K	-0.17196256
-1.6913211	O N K	-0.12903264
-1.6330373	<s> O K	-0.12903264
-0.90557754	O O K	-0.16303036
-1.6431584	R O K	-0.12903264
-1.0044464	J O K	-0.12903264
-1.7848277	A R K	-0.12903264
-1.8151585	O R K	-0.12903264
-0.68580276	A C K	-0.17196256
-1.0437703	I C K	-0.16303036
-1.178751	E C K	-0.15717605
-0.43535402	O C K	-0.15717605
-0.43963063	U C K	-0.14287639
-2.289176	<s> S Q	-0.12903264
-1.8108858	T I Q	-0.12903264
-2.0181556	<s> E Q	-0.12903264
-1.8136753	S E Q	-0.12903264
-1.770297	R E Q	-0.17196256
-1.7730179	R O Q	-0.12903264
-1.7751503	L A Z	-0.12903264
-1.6069723	M A Z	-0.12903264
-1.6304287	S I Z	-0.12903264
-1.5996164	N I Z	-0.12903264
-1.4403424	P I Z	-0.12903264
-1.7121029	R I Z	-0.12903264
-0.78763306	I Z Z	-0.12903264

\4-grams:
-0.9570232	L L A </s>	0
-0.671446	D I A </s>	0
-0.5528673	D E A </s>	0
-0.77843237	N T A </s>	0
-0.53006446	O T A </s>	0
-1.1515762	E R A </s>	0
-1.2867477	T R A </s>	0
-0.5207967	A D A </s>	0
-0.35674506	Z Z A </s>	0
-0.6160724	W A L </s>	0
-0.6160724	S A L </s>	0
-0.32916996	I A L </s>	0
-0.6160724	N A L </s>	0
-0.50514054	T A L </s>	0
-0.54530454	C A L </s>	0
-0.54530454	M A L </s>	0
-0.54530454	V A L </s>	0
-0.5057068	A L L </s>	0
-0.500804	I L L </s>	0
-0.641124	E L L </s>	0
-0.72767127	U L L </s>	0
-0.9493971	A I L </s>	0
-0.83377934	T I L </s>	0
-0.4177332	O I L </s>	0
-0.5515214	E E L </s>	0
-0.3878829	N E L </s>	0
-0.3878829	G E L </s>	0
-0.3878829	P E L </s>	0
-0.3878829	U E L </s>	0
-0.62339884	V E L </s>	0
-0.30812848	F U L </s>	0
-0.6468577	N E W </s>	0
-0.4509769	F E W </s>	0
-0.23442395	L O W </s>	0
-0.23740791	N O W </s>	0
-0.60014915	R O W </s>	0
-0.48881224	D O W </s>	0
-0.3617488	H O W </s>	0
-0.32774758	L A Y </s>	0
-0.29269367	W A Y </s>	0
-0.28987697	S A Y </s>	0
-0.28987697	T A Y </s>	0
-0.1927864	P A Y </s>	0
-0.07584642	D A Y </s>	0
-0.07694996	L L Y </s>	0
-0.09551819	I L Y </s>	0
-0.09551819	E L Y </s>	0
-0.10676289	N L Y </s>	0
-0.10676289	T L Y </s>	0
-0.10676289	R L Y </s>	0
-0.07694996	D L Y </s>	0
-0.09551819	H L Y </s>	0
-0.10676289	K L Y </s>	0
-0.31418222	A S Y </s>	0
-0.31418222	U S Y </s>	0
-0.34605843	<s> B Y </s>	0
-0.23711565	R B Y </s>	0
-0.0952886	B E Y </s>	0
-0.0952886	N E Y </s>	0
-0.0952886	H E Y </s>	0
-0.0952886	K E Y </s>	0
-0.3709196	A N Y </s>	0
-0.27394173	N N Y </s>	0
-0.14133236	O G Y </s>	0
-0.0966879	L T Y </s>	0
-0.1383138	S T Y </s>	0
-0.051354643	I T Y </s>	0
-0.0966879	E T Y </s>	0
-0.0966879	N T Y </s>	0
-0.0966879	T T Y </s>	0
-0.2998712	J O Y </s>	0
-0.07768581	A R Y </s>	0
-0.13054651	E R Y </s>	0
-0.10700975	T R Y </s>	0
-0.1506615	O R Y </s>	0
-0.1506615	R R Y </s>	0
-0.13403292	U R Y </s>	0
-0.13403292	D R Y </s>	0
-0.17168567	N D Y </s>	0
-0.15230529	O D Y </s>	0
-0.23711565	W H Y </s>	0
-0.20839801	T H Y </s>	0
-0.26446	A C Y </s>	0
-0.26446	N C Y </s>	0
-0.34605843	<s> M Y </s>	0
-0.23711565	O M Y </s>	0
-0.827298	<s> A S </s>	0
-0.4253626	W A S </s>	0
-0.4253626	G A S </s>	0
-0.4253626	H A S </s>	0
-0.19956262	L L S </s>	0
-0.3327366	E L S </s>	0
-0.22671436	O L S </s>	0
-0.29036438	E W S </s>	0
-0.4157673	O W S </s>	0
-0.30337575	A Y S </s>	0
-0.35156524	O Y S </s>	0
-0.6479501	A S S </s>	0
-0.42607838	E S S </s>	0
-0.3095323	O S S </s>	0
-0.44311035	<s> I S </s>	0
-0.7384088	N I S </s>	0
-0.6345706	H I S </s>	0
-0.4157673	O B S </s>	0
-0.2531154	R B S </s>	0
-0.31633306	L E S </s>	0
-0.24757594	Y E S </s>	0
-0.09379014	S E S </s>	0
-0.120783895	I E S </s>	0
-0.23334731	E E S </s>	0
-0.3808933	N E S </s>	0
-0.35369143	G E S </s>	0
-0.4197178	T E S </s>	0
-0.16987382	O E S </s>	0
-0.24757594	P E S </s>	0
-0.4767648	R E S </s>	0
-0.4581129	D E S </s>	0
-0.21725112	C E S </s>	0
-0.24757594	M E S </s>	0
-0.23334731	V E S </s>	0
-0.24757594	K E S </s>	0
-0.42626858	A N S </s>	0
-0.42626858	I N S </s>	0
-0.5598505	E N S </s>	0
-0.51828974	O N S </s>	0
-0.45567167	U N S </s>	0
-0.2195964	N G S </s>	0
-0.2195964	U G S </s>	0
-0.08658286	L T S </s>	0
-0.08658286	S T S </s>	0
-0.062814124	E T S </s>	0
-0.062814124	N T S </s>	0
-0.08658286	P T S </s>	0
-0.04623856	R T S </s>	0
-0.08658286	U T S </s>	0
-0.077656806	C T S </s>	0
-0.20944329	L P S </s>	0
-0.20944329	E P S </s>	0
-0.20944329	O P S </s>	0
-0.20944329	U P S </s>	0
-0.14046387	A R S </s>	0
-0.17220178	E R S </s>	0
-0.29632074	O R S </s>	0
-0.34601218	U R S </s>	0
-0.577497	<s> U S </s>	0
-0.3304825	A U S </s>	0
-0.3304825	L U S </s>	0
-0.4391724	B U S </s>	0
-0.35075286	O U S </s>	0
-0.11486004	A D S </s>	0
-0.11486004	L D S </s>	0
-0.11486004	I D S </s>	0
-0.1026579	E D S </s>	0
-0.08256626	N D S </s>	0
-0.1026579	R D S </s>	0
-0.2195964	T H S </s>	0
-0.2195964	P H S </s>	0
-0.15854475	I C S </s>	0
-0.22671436	A M S </s>	0
-0.22671436	I M S </s>	0
-0.19956262	E M S </s>	0
-0.16702136	A K S </s>	0
-0.16702136	O K S </s>	0
-0.08533651	C K S </s>	0
-0.5649023	T T I </s>	0
-1.2009315	E D I </s>	0
-0.33866853	F A X </s>	0
-0.2054421	S I X </s>	0
-0.2054421	M I X </s>	0
-0.39440253	D E X </s>	0
-0.16789193	F O X </s>	0
-0.34918758	W E B </s>	0
-0.7164939	J O B </s>	0
-0.8038553	A M B </s>	0
-0.48351437	A L E </s>	0
-0.34010214	Y L E </s>	0
-0.1570297	I L E </s>	0
-0.49052525	B L E </s>	0
-0.544207	T L E </s>	0
-0.48351437	O L E </s>	0
-0.27487776	P L E </s>	0
-0.544207	D L E </s>	0
-0.34010214	C L E </s>	0
-0.34010214	K L E </s>	0
-1.1148477	<s> W E </s>	0
-0.64631593	A S E </s>	0
-0.35829762	L S E </s>	0
-0.47346798	I S E </s>	0
-0.47346798	E S E </s>	0
-0.6100321	N S E </s>	0
-0.32816786	O S E </s>	0
-0.35829762	P S E </s>	0
-0.35829762	R S E </s>	0
-0.3753479	U S E </s>	0
-0.6358288	L I E </s>	0
-0.7899448	T I E </s>	0
-0.44391954	V I E </s>	0
-1.125212	<s> B E </s>	0
-0.4229739	Y E E </s>	0
-0.7332572	S E E </s>	0
-0.48859283	R E E </s>	0
-0.60366714	F E E </s>	0
-0.4229739	V E E </s>	0
-0.3381995	I N E </s>	0
-0.78116035	E N E </s>	0
-0.45250416	O N E </s>	0
-0.51065505	A G E </s>	0
-0.9027522	N G E </s>	0
-0.64529264	D G E </s>	0
-0.25764185	A T E </s>	0
-0.87524086	S T E </s>	0
-0.41850725	I T E </s>	0
-0.74071413	E T E </s>	0
-0.724936	T T E </s>	0
-0.47250617	O T E </s>	0
-0.58706576	U T E </s>	0
-0.4346468	A P E </s>	0
-0.28040874	A R E </s>	0
-0.53553563	I R E </s>	0
-0.73947495	E R E </s>	0
-0.63006574	O R E </s>	0
-0.28531927	U R E </s>	0
-0.7756841	Q U E </s>	0
-0.50782317	A D E </s>	0
-1.1450531	I D E </s>	0
-1.0569649	<s> H E </s>	0
-0.87493	S H E </s>	0
-1.05669	T H E </s>	0
-0.18166666	A C E </s>	0
-0.16714051	I C E </s>	0
-0.58885694	N C E </s>	0
-0.41091174	R C E </s>	0
-0.7011161	A F E </s>	0
-0.40801656	I F E </s>	0
-0.879516	<s> M E </s>	0
-0.7130796	A M E </s>	0
-0.49602896	I M E </s>	0
-0.50304276	O M E </s>	0
-0.49891767	A V E </s>	0
-0.39973304	I V E </s>	0
-0.75474143	E V E </s>	0
-0.6786511	O V E </s>	0
-0.4329929	R V E </s>	0
-0.4303581	A K E </s>	0
-0.27381444	I K E </s>	0
-0.48679522	O K E </s>	0
-0.33666426	I Z E </s>	0
-1.0315146	<s> A N </s>	0
-0.95099926	H A N </s>	0
-0.8749624	C A N </s>	0
-0.290224	M A N </s>	0
-0.32719222	A W N </s>	0
-0.3785143	O W N </s>	0
-1.0849963	<s> I N </s>	0
-0.79179525	A I N </s>	0
-0.9087865	W I N </s>	0
-0.48280346	B I N </s>	0
-0.80232614	O I N </s>	0
-1.0122782	H I N </s>	0
-0.765357	S E N </s>	0
-0.26795748	E E N </s>	0
-0.60027707	T E N </s>	0
-0.67648953	P E N </s>	0
-0.72306615	R E N </s>	0
-0.59608257	H E N </s>	0
-0.69402546	M E N </s>	0
-0.67648953	V E N </s>	0
-0.59608257	K E N </s>	0
-0.38970417	I G N </s>	0
-0.6693617	<s> O N </s>	0
-0.45312876	S O N </s>	0
-0.48483467	I O N </s>	0
-0.3532935	N O N </s>	0
-0.6860234	T O N </s>	0
-0.3578046	O O N </s>	0
-0.5901512	P O N </s>	0
-0.46440125	A R N </s>	0
-0.3262798	O R N </s>	0
-0.3262798	U R N </s>	0
-0.4654258	G U N </s>	0
-0.76681566	R U N </s>	0
-0.4654258	F U N </s>	0
-0.7260527	B I G </s>	0
-0.49972615	P I G </s>	0
-0.116553165	I N G </s>	0
-0.58551097	O N G </s>	0
-0.4109125	U N G </s>	0
-0.40714467	D O G </s>	0
-0.40714467	F O G </s>	0
-0.45069557	L U G </s>	0
-0.7697905	<s> A T </s>	0
-0.88842607	L A T </s>	0
-0.53152764	E A T </s>	0
-0.5273617	H A T </s>	0
-0.8400637	C A T </s>	0
-0.25851414	U L T </s>	0
-0.40628284	A S T </s>	0
-0.82791793	I S T </s>	0
-0.42027748	E S T </s>	0
-0.4660657	O S T </s>	0
-0.58374655	R S T </s>	0
-0.5967468	U S T </s>	0
-0.42756957	<s> I T </s>	0
-0.5613315	S I T </s>	0
-0.7560787	U I T </s>	0
-0.36393765	F I T </s>	0
-0.5613315	M I T </s>	0
-0.5606476	L E T </s>	0
-0.3203922	Y E T </s>	0
-0.3203922	S E T </s>	0
-0.42685443	E E T </s>	0
-0.5130877	G E T </s>	0
-0.3203922	P E T </s>	0
-0.45632958	M E T </s>	0
-0.5130877	K E T </s>	0
-0.41513473	A N T </s>	0
-0.3833622	E N T </s>	0
-0.73040694	O N T </s>	0
-0.68307805	U N T </s>	0
-0.3750304	I O T </s>	0
-0.49435443	N O T </s>	0
-0.3750304	G O T </s>	0
-0.32230145	P O T </s>	0
-0.5889987	E P T </s>	0
-0.7555369	A R T </s>	0
-0.66071826	I R T </s>	0
-0.54140395	O R T </s>	0
-0.705545	U R T </s>	0
-0.33420804	B U T </s>	0
-0.47533566	O U T </s>	0
-0.33420804	P U T </s>	0
-0.47533566	C U T </s>	0
-0.61546093	G H T </s>	0
-0.7487346	E C T </s>	0
-0.4750656	N C T </s>	0
-0.3288442	E F T </s>	0
-0.47189337	T W O </s>	0
-1.1328292	<s> S O </s>	0
-1.1855516	T I O </s>	0
-0.4075985	D E O </s>	0
-1.1873473	<s> N O </s>	0
-1.0207977	<s> G O </s>	0
-0.4823019	E G O </s>	0
-1.260655	<s> T O </s>	0
-0.9121165	T O O </s>	0
-0.7933916	E R O </s>	0
-1.1583686	<s> D O </s>	0
-0.40385288	Y A P </s>	0
-0.40385288	E A P </s>	0
-0.40385288	G A P </s>	0
-0.5456208	E L P </s>	0
-0.6072153	L I P </s>	0
-0.42531112	H I P </s>	0
-0.6425335	E E P </s>	0
-0.44636166	T E P </s>	0
-0.26646018	T O P </s>	0
-0.71736276	R O P </s>	0
-0.67136276	H O P </s>	0
-0.5456208	A R P </s>	0
-0.4069283	<s> U P </s>	0
-0.4069283	E U P </s>	0
-0.7759001	A M P </s>	0
-0.67701155	I M P </s>	0
-0.9858231	L A R </s>	0
-0.5072698	I A R </s>	0
-0.6242964	E A R </s>	0
-0.9773694	C A R </s>	0
-0.7567204	A I R </s>	0
-0.51767576	E I R </s>	0
-0.57750547	L E R </s>	0
-0.4830667	W E R </s>	0
-0.4830667	Y E R </s>	0
-0.45859897	S E R </s>	0
-0.3397803	I E R </s>	0
-0.3397803	B E R </s>	0
-0.4830667	E E R </s>	0
-0.51857513	N E R </s>	0
-0.4505798	G E R </s>	0
-0.35185277	T E R </s>	0
-0.6147241	P E R </s>	0
-0.3397803	R E R </s>	0
-0.4271655	D E R </s>	0
-0.45859897	H E R </s>	0
-0.4830667	C E R </s>	0
-0.5276767	F E R </s>	0
-0.54786676	V E R </s>	0
-0.3397803	K E R </s>	0
-0.75285167	<s> O R </s>	0
-0.60822827	L O R </s>	0
-0.4259772	S O R </s>	0
-0.4259772	N O R </s>	0
-0.53277546	T O R </s>	0
-0.69114774	O O R </s>	0
-0.8400284	F O R </s>	0
-0.7827201	M O R </s>	0
-0.5881667	O U R </s>	0
-0.98303145	Y O U </s>	0
-0.5016981	S A D </s>	0
-0.35309455	B A D </s>	0
-0.5016981	E A D </s>	0
-0.35309455	H A D </s>	0
-0.34766537	I L D </s>	0
-0.23836556	E L D </s>	0
-0.268077	O L D </s>	0
-0.23836556	R L D </s>	0
-0.34766537	U L D </s>	0
-0.3141891	A I D </s>	0
-0.51847404	L I D </s>	0
-0.51847404	P I D </s>	0
-0.51847404	R I D </s>	0
-0.36494222	D I D </s>	0
-0.12534192	L E D </s>	0
-0.17815548	Y E D </s>	0
-0.12534192	S E D </s>	0
-0.15790474	I E D </s>	0
-0.19505112	E E D </s>	0
-0.12534192	N E D </s>	0
-0.12534192	G E D </s>	0
-0.09045572	T E D </s>	0
-0.15790474	P E D </s>	0
-0.16531561	R E D </s>	0
-0.12534192	D E D </s>	0
-0.2589881	H E D </s>	0
-0.17815548	F E D </s>	0
-0.33101544	M E D </s>	0
-0.15790474	K E D </s>	0
-0.17815548	Z E D </s>	0
-0.42033496	A N D </s>	0
-0.42033496	I N D </s>	0
-0.58917606	E N D </s>	0
-0.5563593	O N D </s>	0
-0.6976031	U N D </s>	0
-0.42527547	I O D </s>	0
-0.36577868	O O D </s>	0
-0.3071713	A R D </s>	0
-0.3946225	I R D </s>	0
-0.677182	O R D </s>	0
-0.40487805	E U D </s>	0
-0.37993583	O D D </s>	0
-0.9264997	I S H </s>	0
-1.0234678	I G H </s>	0
-0.59404254	U G H </s>	0
-0.84951174	A T H </s>	0
-0.78825927	I T H </s>	0
-0.73458755	N T H </s>	0
-0.19386332	R T H </s>	0
-0.57004803	A C H </s>	0
-0.34412923	E C H </s>	0
-0.34412923	N C H </s>	0
-0.4891274	T C H </s>	0
-0.34412923	R C H </s>	0
-0.39639914	U C H </s>	0
-0.59464943	L I C </s>	0
-0.7211474	S I C </s>	0
-0.41700447	G I C </s>	0
-0.59464943	O I C </s>	0
-0.6747655	P I C </s>	0
-0.4738309	R I C </s>	0
-0.6747655	F I C </s>	0
-0.47128922	<s> I F </s>	0
-1.0372356	<s> O F </s>	0
-0.64578086	I F F </s>	0
-0.75178677	O F F </s>	0
-0.63505	<s> A M </s>	0
-0.39461893	S A M </s>	0
-0.561375	X A M </s>	0
-0.51906776	E A M </s>	0
-0.4679075	W I M </s>	0
-0.4679075	H I M </s>	0
-0.6441935	L E M </s>	0
-0.6441935	T E M </s>	0
-0.33563194	O O M </s>	0
-0.5571103	R O M </s>	0
-0.39170942	D O M </s>	0
-0.39170942	M O M </s>	0
-0.3860707	A R M </s>	0
-0.62028664	O R M </s>	0
-0.45649654	S U M </s>	0
-0.3205143	I U M </s>	0
-0.3205143	D U M </s>	0
-0.3205143	M U M </s>	0
-0.3307703	T H M </s>	0
-0.49367636	E A K </s>	0
-0.41393307	A L K </s>	0
-0.39068115	A S K </s>	0
-0.3387183	I S K </s>	0
-0.3797261	E E K </s>	0
-0.23967625	A N K </s>	0
-0.23967625	I N K </s>	0
-0.3512076	<s> O K </s>	0
-0.5156913	O O K </s>	0
-0.53239924	A R K </s>	0
-0.47322863	O R K </s>	0
-0.5099925	A C K </s>	0
-0.47496867	I C K </s>	0
-0.37166047	E C K </s>	0
-0.60238284	O C K </s>	0
-0.49094337	U C K </s>	0
-0.97744274	B A L A	-0.09483961
-0.45362082	Y L L A	-0.09483961
-0.99134713	I L L A	-0.09483961
-0.65101564	O L L A	-0.09483961
-0.9672848	A I L A	-0.09483961
-0.53819054	<s> B L A	-0.11366675
-0.9160975	R E L A	-0.09483961
-0.32261944	E N L A	-0.09483961
-0.20890462	<s> G L A	-0.09483961
-0.23771319	R G L A	-0.09483961
-0.81080157	C O L A	-0.09483961
-0.32548016	<s> P L A	-0.27764913
-0.8676964	M P L A	-0.09483961
-0.54094195	S U L A	-0.09483961
-0.32676193	G U L A	-0.12339547
-0.38059708	P U L A	-0.09483961
-0.61094224	C U L A	-0.09483961
-0.54275733	<s> C L A	-0.09483961
-0.29094523	<s> F L A	-0.09483961
-0.2726814	<s> A W A	-0.09483961
-0.50317764	R A W A	-0.09483961
-0.1680656	A L W A	-0.09483961
-0.623729	<s> S W A	-0.09483961
-0.36562186	B E W A	-0.09483961
-0.36562186	V E W A	-0.09483961
-0.2895101	O R W A	-0.09483961
-0.1680656	G H W A	-0.09483961
-0.1680656	R K W A	-0.09483961
-1.1824156	E A S A	-0.09483961
-0.94500935	A S S A	-0.09483961
-0.9843598	D I S A	-0.09483961
-0.9618283	A N S A	-0.09483961
-0.71264136	N O S A	-0.09483961
-0.8211302	P O S A	-0.09483961
-1.3352101	E R S A	-0.09483961
-1.0479836	O U S A	-0.09483961
-1.405279	<s> L I A	-0.09483961
-0.964676	E N I A	-0.09483961
-1.0867037	N T I A	-0.09483961
-0.54138136	Y D I A	-0.09483961
-1.1349549	E D I A	-0.09483961
-0.38689673	T A X A	-0.09483961
-0.87394226	<s> E X A	-0.11366675
-0.7726543	<s> A B A	-0.09483961
-0.2515937	E T B A	-0.09483961
-0.2515937	O T B A	-0.09483961
-0.5606688	A R B A	-0.09483961
-0.5606688	U R B A	-0.09483961
-0.38114542	<s> L E A	-0.11366675
-1.1785922	P L E A	-0.12339547
-0.7695973	<s> W E A	-0.21361381
-0.48018396	S W E A	-0.09483961
-0.7753442	<s> Y E A	-0.09483961
-1.1896644	<s> S E A	-0.12339547
-1.0364599	<s> B E A	-0.09483961
-0.9979888	<s> N E A	-0.12339547
-0.8744146	<s> T E A	-0.09483961
-1.1487421	<s> P E A	-0.09483961
-0.927819	S P E A	-0.09483961
-0.89348483	P P E A	-0.09483961
-0.93563527	<s> R E A	-0.09483961
-0.46534342	B R E A	-0.11366675
-0.6696299	G R E A	-0.09483961
-0.7804767	T R E A	-0.18073916
-0.8365478	D R E A	-0.21361381
-0.525675	C R E A	-0.09483961
-1.2505045	I D E A	-0.09483961
-0.6008575	<s> H E A	-0.09483961
-0.5121095	A H E A	-0.09483961
-0.7639973	O C E A	-0.09483961
-1.2148913	<s> M E A	-0.09483961
-1.0186148	C A N A	-0.09483961
-0.48492557	<s> S N A	-0.09483961
-1.0471427	G I N A	-0.09483961
-1.1656196	M I N A	-0.09483961
-0.9556113	P E N A	-0.09483961
-1.1831937	S O N A	-0.09483961
-0.9875976	I O N A	-0.33855253
-0.86270344	R O N A	-0.09483961
-0.99873275	<s> U N A	-0.09483961
-0.50278306	T U N A	-0.09483961
-0.9060852	<s> A G A	-0.09483961
-0.7125221	L I G A	-0.12339547
-0.48779398	T I G A	-0.09483961
-0.2023654	R T G A	-0.09483961
-0.46517798	O R G A	-0.09483961
-0.72919255	<s> S T A	-0.10888288
-1.1532406	E S T A	-0.09483961
-0.80044	O S T A	-0.09483961
-0.47553843	M S T A	-0.09483961
-0.53713083	P I T A	-0.12339547
-1.1417905	A N T A	-0.09483961
-1.3159785	E N T A	-0.09483961
-0.789344	O T T A	-0.09483961
-0.50828165	U O T A	-0.09483961
-0.6129121	E P T A	-0.09483961
-1.1433853	O R T A	-0.09483961
-0.80166554	I C T A	-0.09483961
-0.8580028	E C T A	-0.11366675
-0.6444232	U C T A	-0.09483961
-0.890862	A B O A	-0.09483961
-1.214692	<s> R O A	-0.09483961
-1.6901612	<s> C O A	-0.09483961
-0.93422234	<s> A P A	-0.09483961
-0.20577778	B Y P A	-0.09483961
-0.9861157	<s> S P A	-0.09483961
-0.46152985	R E P A	-0.09483961
-0.6635418	D E P A	-0.09483961
-0.7008828	Y M P A	-0.09483961
-0.7008828	O M P A	-0.12339547
-0.8332479	P I R A	-0.09483961
-0.4331422	I B R A	-0.09483961
-1.0263121	N E R A	-0.09483961
-1.3039179	T E R A	-0.09483961
-0.7426993	P E R A	-0.09483961
-0.99104017	D E R A	-0.12339547
-0.7601863	<s> G R A	-0.09483961
-0.38445082	O G R A	-0.09483961
-0.3418495	<s> T R A	-0.11607855
-0.5492313	S T R A	-0.09483961
-0.3403748	X T R A	-0.09483961
-0.3403748	B T R A	-0.09483961
-0.39243126	N T R A	-0.09483961
-1.3568261	<s> P R A	-0.09483961
-0.41627175	S P R A	-0.09483961
-0.37972423	A R R A	-0.09483961
-0.6656126	A U R A	-0.09483961
-0.86785656	S U R A	-0.09483961
-1.0249088	O U R A	-0.12339547
-0.45942253	R D R A	-0.09483961
-0.45942253	H D R A	-0.09483961
-0.4140625	P H R A	-0.09483961
-0.7675733	S C R A	-0.09483961
-0.4140625	A F R A	-0.09483961
-0.5238797	U S U A	-0.09483961
-0.76846045	N T U A	-0.09483961
-0.48306262	B R U A	-0.09483961
-0.68496376	<s> Q U A	-0.09483961
-0.42241368	S Q U A	-0.09483961
-0.74567366	E Q U A	-0.09483961
-0.49539113	N A D A	-0.09483961
-0.33616763	R Y D A	-0.09483961
-0.7629441	L I D A	-0.09483961
-1.0056278	U N D A	-0.09483961
-0.6741784	T O D A	-0.09483961
-0.70516574	U R D A	-0.09483961
-0.84514433	<s> W H A	-0.09483961
-0.8702651	<s> S H A	-0.09483961
-1.0209514	<s> T H A	-0.11366675
-0.45626026	E P H A	-0.09483961
-0.5860864	<s> C H A	-0.10888288
-0.7471196	S C H A	-0.09483961
-0.4554742	X C H A	-0.09483961
-0.5776044	L I C A	-0.09483961
-0.69848716	S I C A	-0.09483961
-0.6543475	N I C A	-0.09483961
-0.69848716	T I C A	-0.09483961
-0.6713944	R I C A	-0.09483961
-0.71259254	D I C A	-0.09483961
-0.6543475	M I C A	-0.09483961
-1.1272203	R E C A	-0.09483961
-0.7574969	D U C A	-0.09483961
-0.4532845	O C C A	-0.09483961
-0.58592296	E R F A	-0.09483961
-0.8169522	<s> A M A	-0.09483961
-0.28029656	<s> S M A	-0.09483961
-0.74928963	<s> I M A	-0.09483961
-0.6556893	N I M A	-0.09483961
-0.76752794	<s> E M A	-0.09483961
-0.40885293	A T M A	-0.09483961
-0.47882307	L O M A	-0.09483961
-0.6914113	R O M A	-0.09483961
-0.37638098	E R M A	-0.09483961
-0.6038008	O R M A	-0.09483961
-0.59540963	L A V A	-0.09483961
-0.4175093	N A V A	-0.09483961
-0.6940987	T I V A	-0.09483961
-0.52475286	L E V A	-0.09483961
-0.52475286	I E V A	-0.09483961
-0.52475286	R E V A	-0.09483961
-0.65898514	E R V A	-0.09483961
-0.1730834	A D V A	-0.09483961
-0.67260087	<s> S K A	-0.09483961
-0.39647615	N I Z A	-0.09483961
-0.1905201	I Z Z A	-0.09483961
-0.9815997	<s> W A L	-0.09483961
-0.8485614	A W A L	-0.09483961
-0.9537378	<s> S A L	-0.09483961
-0.64906955	O S A L	-0.09483961
-0.64906955	R S A L	-0.09483961
-0.40189293	N I A L	-0.09483961
-0.40189293	T I A L	-0.09483961
-0.8255477	<s> B A L	-0.09483961
-0.40145057	T B A L	-0.12339547
-1.2468803	R E A L	-0.09483961
-1.0411264	H E A L	-0.09483961
-0.47974676	E N A L	-0.09483961
-0.5412065	O N A L	-0.27764913
-0.9553911	<s> G A L	-0.09483961
-0.9947146	<s> T A L	-0.09483961
-0.92358017	S T A L	-0.09483961
-0.47698665	I T A L	-0.09483961
-0.39702496	C O A L	-0.09483961
-0.44599563	S U A L	-0.09483961
-0.44599563	T U A L	-0.09483961
-0.8388306	S H A L	-0.09483961
-0.9648454	C H A L	-0.09483961
-1.1211392	<s> C A L	-0.12339547
-0.46414608	I C A L	-0.33855253
-0.8622252	<s> F A L	-0.12339547
-0.7270006	S M A L	-0.09483961
-0.7270006	I M A L	-0.09483961
-0.39420855	<s> V A L	-0.21361381
-0.7682932	E V A L	-0.09483961
-0.29798955	<s> A L L	-0.09483961
-0.50575083	W A L L	-0.09483961
-0.50575083	S A L L	-0.09483961
-0.42111138	B A L L	-0.21361381
-0.44988495	E A L L	-0.09483961
-0.31567022	G A L L	-0.09483961
-0.2740505	U A L L	-0.12339547
-0.2740505	H A L L	-0.09483961
-0.44988495	C A L L	-0.09483961
-0.31567022	F A L L	-0.09483961
-0.44988495	M A L L	-0.09483961
-0.35128942	S Y L L	-0.09483961
-0.34647077	W I L L	-0.09483961
-0.49240053	S I L L	-0.09483961
-0.49240053	B I L L	-0.09483961
-0.34647077	N I L L	-0.09483961
-0.5544417	T I L L	-0.09483961
-0.49240053	P I L L	-0.09483961
-0.49240053	K I L L	-0.09483961
-0.7185016	W E L L	-0.09483961
-0.30699605	C E L L	-0.09483961
-0.4952262	F E L L	-0.09483961
-0.85806215	C O L L	-0.09483961
-0.7411348	F O L L	-0.09483961
-0.5096407	B U L L	-0.09483961
-1.0694946	F U L L	-0.09483961
-0.7258453	R A W L	-0.09483961
-0.79912895	<s> S Y L	-0.09483961
-0.85782284	S T Y L	-0.09483961
-0.3766487	D A I L	-0.09483961
-0.3766487	F A I L	-0.09483961
-0.32359934	M A I L	-0.12339547
-0.32359934	V A I L	-0.09483961
-1.0459543	<s> W I L	-0.12339547
-0.96371776	<s> S I L	-0.09483961
-0.77677727	<s> B I L	-0.12339547
-0.44345167	A B I L	-0.09483961
-1.0426879	A N I L	-0.09483961
-1.0784588	S T I L	-0.09483961
-0.9324126	N T I L	-0.09483961
-0.9324126	U T I L	-0.09483961
-0.46341038	<s> O I L	-0.09483961
-0.46341038	T O I L	-0.09483961
-1.0117298	<s> P I L	-0.09483961
-0.84145314	S P I L	-0.12339547
-0.53022754	L D I L	-0.09483961
-0.49855733	W H I L	-0.09483961
-0.7240862	C H I L	-0.12339547
-1.1231943	<s> F I L	-0.09483961
-0.8711307	<s> K I L	-0.09483961
-0.7015734	C K I L	-0.09483961
-0.67592716	L A B L	-0.09483961
-0.3603841	T A B L	-0.21361381
-0.8094319	<s> O B L	-0.09483961
-0.62662566	R O B L	-0.12339547
-0.34696785	O U B L	-0.21361381
-0.4059961	P U B L	-0.12339547
-0.7439531	A M B L	-0.09483961
-1.0843909	<s> W E L	-0.09483961
-0.47595346	E W E L	-0.09483961
-0.51298565	F I E L	-0.09483961
-1.1668565	<s> B E L	-0.09483961
-0.7795598	F E E L	-0.09483961
-0.5238334	A N E L	-0.09483961
-0.9593976	<s> G E L	-0.09483961
-1.3972402	A T E L	-0.09483961
-1.0059544	E T E L	-0.09483961
-0.75510633	U T E L	-0.09483961
-1.0455762	S P E L	-0.09483961
-1.120775	<s> R E L	-0.09483961
-1.250759	A R E L	-0.09483961
-0.45225507	F U E L	-0.09483961
-1.2300165	<s> D E L	-0.09483961
-1.1850559	I D E L	-0.09483961
-1.0305464	<s> H E L	-0.12339547
-0.6708868	<s> C E L	-0.09483961
-0.6708868	X C E L	-0.09483961
-1.0044545	N C E L	-0.09483961
-0.99851036	<s> F E L	-0.09483961
-0.9551565	A V E L	-0.09483961
-1.1427276	O V E L	-0.09483961
-1.3852775	<s> E N L	-0.09483961
-0.98812926	<s> O N L	-0.09483961
-0.83785975	U R G L	-0.09483961
-1.5391533	E N T L	-0.09483961
-0.40329623	A T T L	-0.12339547
-0.4785385	I T T L	-0.09483961
-1.0480139	U R T L	-0.09483961
-1.1445735	<s> S O L	-0.09483961
-0.93514085	<s> G O L	-0.09483961
-0.5221964	H O O L	-0.09483961
-0.7645893	C O O L	-0.09483961
-0.94333094	<s> P O L	-0.12339547
-1.1739578	<s> D O L	-0.09483961
-0.9022127	<s> H O L	-0.09483961
-0.47230804	W H O L	-0.09483961
-0.78070277	C H O L	-0.09483961
-1.3656554	<s> C O L	-0.09483961
-0.51400554	O C O L	-0.09483961
-1.0626075	<s> F O L	-0.09483961
-0.6345208	R I P L	-0.09483961
-0.6345208	D I P L	-0.09483961
-0.640073	E X P L	-0.09483961
-0.50098073	E O P L	-0.09483961
-0.81835234	A P P L	-0.09483961
-0.71273714	A M P L	-0.09483961
-0.71273714	E M P L	-0.09483961
-0.6259873	O M P L	-0.10888288
-1.4371752	E A R L	-0.09483961
-0.55877286	T A R L	-0.09483961
-1.34184	W O R L	-0.09483961
-0.6647239	S A U L	-0.09483961
-0.46434832	E S U L	-0.12339547
-0.66803813	N S U L	-0.09483961
-0.9592585	<s> B U L	-0.09483961
-0.4186518	E G U L	-0.09483961
-0.4186518	N G U L	-0.09483961
-0.5093969	W O U L	-0.09483961
-0.99201334	H O U L	-0.12339547
-0.43294042	O P U L	-0.12339547
-0.8359383	<s> R U L	-0.09483961
-0.38424513	A D U L	-0.09483961
-0.5462291	E D U L	-0.09483961
-0.62494355	A C U L	-0.09483961
-0.37121382	I C U L	-0.09483961
-0.40847495	<s> F U L	-0.12339547
-0.2615546	I F U L	-0.09483961
-0.2615546	N F U L	-0.09483961
-0.2615546	R F U L	-0.09483961
-0.2615546	H F U L	-0.09483961
-0.7440231	I M U L	-0.09483961
-0.7963408	P I D L	-0.09483961
-1.2258577	A N D L	-0.12339547
-1.2401347	E N D L	-0.09483961
-0.4426368	O U D L	-0.09483961
-0.58791447	A D D L	-0.09483961
-0.90773284	U G H L	-0.09483961
-1.095411	A T H L	-0.09483961
-0.90968525	N T H L	-0.09483961
-1.3565316	<s> C H L	-0.09483961
-0.31171638	C Y C L	-0.09483961
-1.0428226	I C K L	-0.09483961
-1.0762147	U C K L	-0.09483961
-0.8289115	P R A W	-0.09483961
-0.46234608	D R A W	-0.09483961
-1.3302238	<s> A L W	-0.09483961
-1.3535802	E R Y W	-0.09483961
-1.304455	<s> B E W	-0.09483961
-1.0663077	<s> N E W	-0.09483961
-1.4233311	<s> D E W	-0.09483961
-1.0879161	<s> F E W	-0.09483961
-1.4228643	I V E W	-0.09483961
-0.68799126	<s> J E W	-0.09483961
-0.835646	B E T W	-0.09483961
-1.0223662	<s> L O W	-0.09483961
-0.6002003	L L O W	-0.09483961
-0.45723373	S L O W	-0.09483961
-0.75057	B L O W	-0.09483961
-1.0294527	<s> N O W	-0.09483961
-0.48097712	S N O W	-0.09483961
-0.69493127	K N O W	-0.09483961
-1.316794	<s> T O W	-0.09483961
-0.9620371	<s> P O W	-0.09483961
-0.70158905	B R O W	-0.09483961
-0.70158905	G R O W	-0.09483961
-0.48503295	R R O W	-0.09483961
-0.70158905	C R O W	-0.09483961
-0.8272262	<s> D O W	-0.09483961
-0.65541667	N D O W	-0.09483961
-0.45640922	H D O W	-0.09483961
-1.2838122	<s> H O W	-0.09483961
-1.5187356	D E R W	-0.09483961
-1.3648361	F O R W	-0.09483961
-1.1764302	I G H W	-0.09483961
-0.78019094	A R K W	-0.09483961
-0.9686402	P L A Y	-0.10888288
-0.69294477	<s> W A Y	-0.09483961
-0.5381193	A W A Y	-0.09483961
-0.3362872	L W A Y	-0.09483961
-0.47821587	E W A Y	-0.09483961
-0.3362872	H W A Y	-0.09483961
-0.3362872	K W A Y	-0.09483961
-1.0677398	<s> S A Y	-0.09483961
-1.1573213	S T A Y	-0.09483961
-1.2580676	<s> P A Y	-0.09483961
-0.8202425	P R A Y	-0.09483961
-0.5311432	<s> D A Y	-0.09483961
-0.30105218	Y D A Y	-0.09483961
-0.30105218	N D A Y	-0.09483961
-0.30105218	O D A Y	-0.09483961
-0.30105218	R D A Y	-0.09483961
-0.8902254	A L L Y	-0.33855253
-1.010872	I L L Y	-0.09483961
-0.75711954	U L L Y	-0.09483961
-0.9560023	A I L Y	-0.09483961
-0.72636735	K I L Y	-0.09483961
-0.30915982	T E L Y	-0.21361381
-0.8384067	V E L Y	-0.09483961
-0.32875538	O N L Y	-0.09483961
-0.3774917	N T L Y	-0.09483961
-0.49500078	<s> O L Y	-0.09483961
-0.544639	A R L Y	-0.09483961
-0.28618726	I D L Y	-0.09483961
-0.41020072	N D L Y	-0.09483961
-0.28618726	U D L Y	-0.09483961
-0.35949424	G H L Y	-0.09483961
-0.5107362	T H L Y	-0.09483961
-0.6275469	<s> F L Y	-0.09483961
-0.4678074	C K L Y	-0.09483961
-0.9921133	E A S Y	-0.12339547
-0.49147362	<s> P S Y	-0.09483961
-1.0329107	B U S Y	-0.09483961
-0.66828686	A R B Y	-0.09483961
-0.53856754	O B E Y	-0.09483961
-1.3230835	O N E Y	-0.09483961
-1.3590858	T H E Y	-0.09483961
-0.540653	N K E Y	-0.09483961
-0.73462707	<s> A N Y	-0.09483961
-1.1955023	M A N Y	-0.09483961
-0.748505	U N N Y	-0.09483961
-0.47309417	L O G Y	-0.09483961
-0.6376327	A L T Y	-0.09483961
-1.3232691	<s> S T Y	-0.09483961
-1.1769874	A S T Y	-0.09483961
-1.3157674	E S T Y	-0.09483961
-0.8730492	L I T Y	-0.09483961
-0.7991112	N I T Y	-0.09483961
-0.6380291	R I T Y	-0.21361381
-0.7991112	C I T Y	-0.09483961
-0.5449203	F E T Y	-0.09483961
-1.2482779	A N T Y	-0.09483961
-0.49606162	U T T Y	-0.09483961
-0.9756541	P L O Y	-0.09483961
-1.0718553	<s> B O Y	-0.09483961
-0.48212588	N J O Y	-0.09483961
-0.5020107	S A R Y	-0.09483961
-0.5020107	R A R Y	-0.09483961
-0.7299067	U A R Y	-0.09483961
-0.8434228	M A R Y	-0.09483961
-0.8560237	L E R Y	-0.09483961
-0.9372911	N E R Y	-0.09483961
-0.8671763	G E R Y	-0.09483961
-1.058285	T E R Y	-0.12339547
-1.0353334	P E R Y	-0.09483961
-0.6912921	C E R Y	-0.09483961
-0.7546783	V E R Y	-0.1418283
-1.2319351	<s> T R Y	-0.09483961
-0.92779917	S T R Y	-0.09483961
-0.77917254	N T R Y	-0.09483961
-0.9483795	T O R Y	-0.12339547
-0.8619795	O R R Y	-0.09483961
-1.0343109	S U R Y	-0.09483961
-1.170445	T U R Y	-0.09483961
-1.2040013	<s> D R Y	-0.09483961
-0.71099776	N D R Y	-0.09483961
-1.3338083	I N D Y	-0.09483961
-0.4033228	B O D Y	-0.12339547
-0.69100404	T O D Y	-0.09483961
-0.9479821	<s> W H Y	-0.09483961
-1.107172	A T H Y	-0.09483961
-0.534128	L T H Y	-0.09483961
-0.8942056	<s> P H Y	-0.09483961
-0.79209244	M A C Y	-0.09483961
-0.9713133	N I C Y	-0.09483961
-1.1702096	R E C Y	-0.09483961
-1.291219	A N C Y	-0.09483961
-0.8006277	N O M Y	-0.09483961
-0.80393773	<s> L A S	-0.09483961
-0.6268157	B L A S	-0.09483961
-0.7137489	G L A S	-0.09483961
-0.6268157	C L A S	-0.09483961
-0.7137489	F L A S	-0.09483961
-1.211258	<s> W A S	-0.09483961
-0.50872064	I S A S	-0.09483961
-0.56491196	E X A S	-0.09483961
-1.1862433	<s> B A S	-0.09483961
-0.74004835	<s> E A S	-0.09483961
-0.88855815	L E A S	-0.09483961
-0.47510728	S E A S	-0.12339547
-0.7488017	R E A S	-0.16214623
-0.85166603	<s> N A S	-0.09483961
-0.9553911	<s> G A S	-0.09483961
-1.1394944	<s> T A S	-0.09483961
-0.4955132	Y P A S	-0.09483961
-1.1819912	T R A S	-0.09483961
-0.51773524	H R A S	-0.09483961
-1.225818	<s> H A S	-0.09483961
-0.49856746	C C A S	-0.09483961
-1.0103564	<s> F A S	-0.09483961
-1.2021765	<s> M A S	-0.09483961
-1.2813469	I L L S	-0.09483961
-1.079685	E L L S	-0.09483961
-1.229871	<s> E L S	-0.09483961
-0.8004947	W E L S	-0.09483961
-0.800333	O O L S	-0.09483961
-0.70267415	N E W S	-0.09483961
-1.0752662	L O W S	-0.09483961
-1.0954872	R O W S	-0.09483961
-0.55208975	W A Y S	-0.21361381
-0.68748754	S A Y S	-0.09483961
-0.7348726	<s> S Y S	-0.09483961
-0.3889995	B O Y S	-0.09483961
-0.38394624	P H Y S	-0.09483961
-0.5457952	<s> M Y S	-0.09483961
-0.8589325	<s> A S S	-0.09483961
-0.8138294	L A S S	-0.09483961
-0.516339	P A S S	-0.09483961
-0.7954408	M I S S	-0.09483961
-0.5395829	K I S S	-0.09483961
-0.8142232	L E S S	-0.09483961
-0.74571526	N E S S	-0.09483961
-0.9903239	R E S S	-0.21361381
-0.5088966	F E S S	-0.09483961
-0.51472354	B O S S	-0.09483961
-0.51472354	T O S S	-0.09483961
-0.92314136	R A I S	-0.09483961
-1.0852901	<s> L I S	-0.09483961
-0.8997088	A L I S	-0.09483961
-0.8315122	B L I S	-0.09483961
-1.0185642	<s> W I S	-0.09483961
-1.1004181	<s> S I S	-0.09483961
-0.74376285	R S I S	-0.09483961
-0.8611698	N N I S	-0.09483961
-0.8498813	O N I S	-0.09483961
-0.9012167	U N I S	-0.09483961
-0.67378426	E G I S	-0.12339547
-0.689313	P O I S	-0.09483961
-0.732795	<s> R I S	-0.11366675
-1.0222414	P R I S	-0.09483961
-0.4132487	<s> D I S	-0.21712568
-0.9599952	<s> H I S	-0.09483961
-1.0391765	T H I S	-0.09483961
-0.4393496	E C I S	-0.12339547
-0.4393496	R C I S	-0.09483961
-1.0793774	<s> F I S	-0.09483961
-0.9308744	<s> M I S	-0.12339547
-0.7863301	E M I S	-0.09483961
-0.76264334	<s> V I S	-0.09483961
-0.7765985	I V I S	-0.09483961
-0.90224177	<s> K I S	-0.09483961
-0.89193344	<s> O B S	-0.09483961
-0.68116474	J O B S	-0.09483961
-0.41540205	E R B S	-0.09483961
-0.59223944	U R B S	-0.09483961
-1.0030779	<s> L E S	-0.09483961
-0.6072343	A L E S	-0.09483961
-0.73807144	E L E S	-0.09483961
-0.689945	T L E S	-0.09483961
-0.4253236	U L E S	-0.09483961
-0.689945	D L E S	-0.09483961
-0.7456907	<s> Y E S	-0.09483961
-0.6489261	A S E S	-0.12339547
-0.5097958	S S E S	-0.12339547
-0.80414575	I S E S	-0.09483961
-0.79165876	N S E S	-0.09483961
-0.960627	O S E S	-0.09483961
-0.55390614	N I E S	-0.09483961
-0.5126035	T I E S	-0.21361381
-0.38951755	P I E S	-0.09483961
-0.38951755	K I E S	-0.09483961
-1.1166809	<s> B E S	-0.09483961
-0.7942058	S E E S	-0.09483961
-0.7398386	B E E S	-0.09483961
-0.6480546	N E E S	-0.09483961
-0.45173895	H E E S	-0.09483961
-1.0021827	I N E S	-0.09483961
-0.47054487	T N E S	-0.09483961
-0.8438913	O N E S	-0.09483961
-0.77563125	A G E S	-0.09483961
-0.3405259	G G E S	-0.12339547
-0.6977555	R G E S	-0.09483961
-0.5661496	D G E S	-0.09483961
-0.8885319	<s> T E S	-0.09483961
-1.0214633	I T E S	-0.09483961
-0.8428006	E T E S	-0.09483961
-0.8177928	N T E S	-0.09483961
-0.90906674	O T E S	-0.09483961
-0.1888668	G O E S	-0.09483961
-0.1888668	T O E S	-0.09483961
-0.1888668	D O E S	-0.09483961
-0.58292496	O P E S	-0.12339547
-0.76398873	<s> R E S	-0.10888288
-0.98857635	A R E S	-0.09483961
-0.8603011	I R E S	-0.09483961
-0.8386334	E R E S	-0.09483961
-0.7564929	O R E S	-0.12339547
-0.7000854	P R E S	-0.11366675
-0.57291555	D R E S	-0.12339547
-0.7715341	Q U E S	-0.21361381
-0.6137809	<s> D E S	-0.10888288
-0.9009405	I D E S	-0.12339547
-0.8046404	R D E S	-0.09483961
-1.1811144	T H E S	-0.09483961
-1.1752341	I C E S	-0.09483961
